{"output_layer":{"Hidden":{"nodes":[{"weights":[-0.38315043805480864,-0.28226629532817415,-0.8188969894463156,-0.2607630655987695,-0.188163657891561,-0.7535462926928753,-0.020839784744896558,-0.33847675535651833,-0.48112507864091975,0.574990591945099,0.9716764298529832,-0.4706300179086859,-0.4061268344940647,-0.2183767071813727,-0.6351405101151466,-0.6092484087527554,-0.14777696237399285,-0.4688672719449572,-1.1297531361014996,-0.6463804968520293,-0.2844484133619283,-0.1204467808953771,-0.2690320678900957,-0.6126476708946027,-0.5173273789934144,-0.32886599592927024,0.00682113281507117,-0.5688636388178973,-0.7065220793303452,0.6072213585817311,-0.2143477903722891,-0.06288626036287447,0.9140829627415092,2.074856632246714,-0.2337792201729999,-0.051120715064895676,-0.6069678428274388,-0.18265826174480568,-0.08715619259311894,1.6783015754822546,-0.657263248330229,-0.4892121037118098,-0.06294348093290604,-0.2542639763640549,-0.21581685990553498,-0.5985285920438534,-0.065899196292598,-0.2823315903995856,1.9350429492597507,-0.3382354050770722,-0.07209956923451041,-0.7684466678023106,0.9764223010515789,-1.0196231662175432,0.26944744456943587,-0.781333593579133,0.17194612523074124,-0.31823029674094466,-0.38205193215218247,-0.33761876466847396,-0.4537080303605816,-1.8612904233785015,2.2912674893965295,-0.3491545452924949,-0.49104977290687485,0.5432221586362149,-0.29515374719005366,-0.38863896929658975,-0.07453390210029999,1.5283541095905997,-0.012980997203062106,-0.3732761092579988,-0.06389382938012056,-0.46739750752218484,-0.6420366531139542,-0.5165672916971786,-0.9990924706146549,-0.1042608964433208,-0.29208098594448145,-0.18574091820911762],"bias":2.384340271284316,"d_weights":[0.0,0.0,0.0,0.0,0.0,0.0,0.0,0.0,0.0,0.0,0.0,0.0,0.0,0.0,0.0,0.0,0.0,0.0,0.0,0.0,0.0,0.0,0.0,0.0,0.0,0.0,0.0,0.0,0.0,0.0,0.0,0.0,0.0,0.0,0.0,0.0,0.0,0.0,0.0,0.0,0.0,0.0,0.0,0.0,0.0,0.0,0.0,0.0,0.0,0.0,0.0,0.0,0.0,0.0,0.0,0.0,0.0,0.0,0.0,0.0,0.0,0.0,0.0,0.0,0.0,0.0,0.0,0.0,0.0,0.0,0.0,0.0,0.0,0.0,0.0,0.0,0.0,0.0,0.0,0.0],"d_bias":0.0,"activation":2.3341354001905094e-7,"as_respect_z":[2.3341348553717026e-7,-1.3760236027881496e-15,-1.6106375938576232e-14,-2.39936336593122e-16,-1.9856966182184752e-13,-2.0498586291336954e-14,-2.3341323972626457e-7,-1.5414061105566927e-19,-9.0173414560654e-15,-2.826134199932193e-18]},{"weights":[2.3824240902325076,-0.04212995949573675,-0.431593397681752,1.2000468980480257,-0.5992907006114143,0.0015877618918824325,0.10082109654873189,-0.3089557391057941,0.8185329286217785,-0.4573360845042529,-0.2974410672298799,0.21397100991652757,2.4039390095360544,-0.1510028134940649,-0.1469948949828728,0.8315210552461204,-0.000982022735652914,1.160051721209681,-0.1570047323233899,0.737300037744629,0.12113697058614027,-0.032445553767047025,-0.32691977198356126,-0.13334390341950758,-1.6264721652374812,-0.23170184106123656,0.005070732241551071,0.11393435943801047,-0.5290278999023644,-0.5231701565673849,-0.23153427908238508,-0.8587781215282115,-0.7006448422977698,-0.7647027112993154,-0.4778946579371612,0.10001009319417983,0.5802680173211079,-0.08589736315274414,0.7495612762800101,-0.4435285642917186,-0.7354472725108764,1.6341236223455688,0.26735576035149766,-0.04209056151655468,0.2065012129736076,-0.7230705421388574,0.27381926502382525,-0.23531905667973418,-0.41306174713345173,0.06142838916099684,-0.2085195433452738,-0.21230925772756498,-0.08875545624659917,1.4669652805809537,-0.11932864643459358,1.5688172376769969,-0.5531020758130588,-0.3637273543938869,-0.5055716486170162,-0.18184120474619975,-0.15446981205980248,-1.4966109281530982,0.03179573748799462,0.2608651392271801,0.48377696665031883,-0.41972522094657067,-0.05335283034787465,-0.8758594525194309,-0.12897077537026816,-1.147607267707821,-0.2012130482645426,0.00891087625249502,0.24156099320781468,0.9853088443618484,-0.6951527612182354,0.4615784336968069,-0.5188586462882274,-0.1393535862294234,-0.8665652779346597,0.742376072705258],"bias":1.4810907794958548,"d_weights":[0.0,0.0,0.0,0.0,0.0,0.0,0.0,0.0,0.0,0.0,0.0,0.0,0.0,0.0,0.0,0.0,0.0,0.0,0.0,0.0,0.0,0.0,0.0,0.0,0.0,0.0,0.0,0.0,0.0,0.0,0.0,0.0,0.0,0.0,0.0,0.0,0.0,0.0,0.0,0.0,0.0,0.0,0.0,0.0,0.0,0.0,0.0,0.0,0.0,0.0,0.0,0.0,0.0,0.0,0.0,0.0,0.0,0.0,0.0,0.0,0.0,0.0,0.0,0.0,0.0,0.0,0.0,0.0,0.0,0.0,0.0,0.0,0.0,0.0,0.0,0.0,0.0,0.0,0.0,0.0],"d_bias":0.0,"activation":5.895217572536024e-9,"as_respect_z":[-1.3760236027881496e-15,5.895217537782434e-9,-4.067912703573933e-16,-6.059960821716867e-18,-5.0151818941143995e-15,-5.177232910608893e-16,-5.89520998818033e-9,-3.8930579556895264e-21,-2.277468128242069e-16,-7.137836132567749e-20]},{"weights":[0.34112190581020047,-0.07065096064825228,1.860331574114119,0.08278531909877104,1.999451056843052,0.2052530087579686,-0.028835302725082074,0.4408400952032514,-1.3119358797911265,-0.07965046976346052,0.2551193383044681,-0.14231409622390562,1.137654696718015,-0.148701109641502,1.8214974601219718,-1.1058960035798084,-0.06543663733112495,1.7622418555400599,-1.294200058601806,-0.44959279514611694,-0.43961180323169424,0.3498423965739823,0.1007099679984248,0.22372785362910824,1.6168948833231274,-0.17207689695991465,-0.31015056027274973,-0.32848537344187956,-1.1793527859882418,-0.23404879234307774,-0.32679202963898973,0.2617754502290339,-0.9803241759577733,1.5812751337748758,-0.2941266485347844,-0.1323844579169303,-0.44642868814757797,-0.15838303813021726,0.08325315602682183,-0.5566074167402666,0.5506406002025666,-0.7732073688048887,-0.11439369638119616,0.03230979607697909,-0.24102659391572842,-0.3097084373779788,0.0009847772614767333,-0.1504133086502817,0.6146017152908829,0.05185731144334315,0.8697937389087501,1.1532996561631785,0.1089760413977998,-0.2262832887553328,-0.02563546979215157,-0.35645149657785546,1.3208663251704151,-0.4846221454048268,-0.7044254975000681,0.27428228259227005,-0.39181509051941854,2.0040778849044303,-1.2362937477825593,-0.29490596494233445,-0.7938495309921486,-0.22072776457570345,-0.22944877033204517,-0.7128977813192451,0.08870170935924973,0.9085236269871642,-0.6555756218327031,-0.507614667987447,0.14734636233659537,-0.6173722725040176,0.005326826148372298,-0.31615158585116304,0.14073283138403472,-0.2542223024546828,-0.16518202401174242,-0.2263900079481556],"bias":-0.11938971233852964,"d_weights":[0.0,0.0,0.0,0.0,0.0,0.0,0.0,0.0,0.0,0.0,0.0,0.0,0.0,0.0,0.0,0.0,0.0,0.0,0.0,0.0,0.0,0.0,0.0,0.0,0.0,0.0,0.0,0.0,0.0,0.0,0.0,0.0,0.0,0.0,0.0,0.0,0.0,0.0,0.0,0.0,0.0,0.0,0.0,0.0,0.0,0.0,0.0,0.0,0.0,0.0,0.0,0.0,0.0,0.0,0.0,0.0,0.0,0.0,0.0,0.0,0.0,0.0,0.0,0.0,0.0,0.0,0.0,0.0,0.0,0.0,0.0,0.0,0.0,0.0,0.0,0.0,0.0,0.0,0.0,0.0],"d_bias":0.0,"activation":6.900360594874508e-8,"as_respect_z":[-1.6106375938576232e-14,-4.067912703573933e-16,6.900360118724745e-8,-7.093192803513427e-17,-5.870277575419144e-14,-6.059958521850597e-15,-6.900351717375329e-8,-4.556829901605564e-20,-2.6657796993646315e-15,-8.354847395505687e-19]},{"weights":[-0.8713895248702634,0.1987221351447854,-0.2955188339965304,-0.5535995179799241,-0.21041720581545223,0.5504872160552372,0.1436745437226261,1.3003215857958972,1.0219499469198696,-0.5544398409044493,0.20611727789413475,-0.1420203630290375,-1.321629225038917,0.6098043887466041,-0.8144002563811692,0.15616246658365018,0.0749885111202627,-0.5962128723396173,-1.3312362784062104,-0.4521590803786569,-0.6099881149836116,-0.29209536994682694,-0.17921538836276568,-0.8542348795329325,-0.25652592506145466,0.07492445557631959,-0.20851616876737142,-0.15574157395477178,0.8162629315458292,-0.9985861037092646,-0.046403244112377104,-1.3697998998323473,-0.9489088562796224,-0.4107381649778041,-0.6320213823891616,-0.13897711744439967,-0.14840613944413714,0.42151062462154265,-0.3930013328226162,0.012710519671831377,-0.3313352999754787,0.7598551360740623,-0.10195626329998426,0.194472070258155,-0.3046719186580909,0.07374843344886982,-0.08415737194957909,-0.5647582825800216,0.007779165129571743,0.6449587025932673,0.001341113302096889,1.1478881296127599,0.0008762245543734344,0.8905647687727112,-0.3071653824652687,0.5296660104201799,-0.18280024216901522,0.06268879410931191,1.6954619278729226,-0.2384126480088324,0.011457049121383378,2.2317794307658323,0.2737137722444502,1.6094860760812326,1.2550480180738266,-0.024603931758565078,-0.2359674627090673,0.7691171894042083,0.08488194182402821,1.4609654626692752,-0.011439125979685926,1.7231093541372429,-0.04168642587681239,1.2889083937372345,-0.015077584206064162,0.971415556842343,-0.5340389940496575,-0.28791818028407434,1.3255979627613326,-0.05336442687052438],"bias":-2.580816696154794,"d_weights":[0.0,0.0,0.0,0.0,0.0,0.0,0.0,0.0,0.0,0.0,0.0,0.0,0.0,0.0,0.0,0.0,0.0,0.0,0.0,0.0,0.0,0.0,0.0,0.0,0.0,0.0,0.0,0.0,0.0,0.0,0.0,0.0,0.0,0.0,0.0,0.0,0.0,0.0,0.0,0.0,0.0,0.0,0.0,0.0,0.0,0.0,0.0,0.0,0.0,0.0,0.0,0.0,0.0,0.0,0.0,0.0,0.0,0.0,0.0,0.0,0.0,0.0,0.0,0.0,0.0,0.0,0.0,0.0,0.0,0.0,0.0,0.0,0.0,0.0,0.0,0.0,0.0,0.0,0.0,0.0],"d_bias":0.0,"activation":1.0279452364825907e-9,"as_respect_z":[-2.39936336593122e-16,-6.059960821716867e-18,-7.093192803513427e-17,1.0279452354259191e-9,-8.744939902075397e-16,-9.027507200776498e-17,-1.0279439140034436e-9,-6.788299722040916e-22,-3.971206295377236e-17,-1.2446198229304622e-20]},{"weights":[-0.05804927934444154,0.04206913894123114,-0.6788544857123795,0.29609974218909124,-0.28196435045509083,-0.6198310025058896,0.015972360585479788,-0.27976597970104355,-0.1802732278501309,-0.6403416411987292,-0.593443663223928,1.4716226855380228,-0.11091308400971181,-0.08902935948398936,-0.6896718493170974,0.787203850051266,-0.08222335525842467,-0.12367243632049683,1.073532009752849,0.2856742568767326,-0.4842420307154561,-0.12538375741563215,1.568984364508514,-0.07625663164782838,-1.1178478074107487,-0.23580571527834182,0.048677178596204046,0.508880872499052,0.06268040981518415,-0.6039331540628968,-0.07356466642726016,0.48433571305248446,0.38244486849113185,0.07771220443844554,1.3592746679699637,-0.06580968979904306,0.7225964235759409,-0.021148630436767686,0.1751375393233709,-0.7074453954453059,2.3433769395201542,-0.08423435808857621,-0.008478245361897896,-0.049280654002568355,0.17701851061653542,1.9405281664214862,0.05934048940354274,-0.11094624675775469,-0.04606067538689941,-0.5483112527579387,-0.14783338092928683,-0.8258832180149396,-0.4360507038492315,-0.5689635243983568,-0.1531164212854238,-0.31007922224081436,-0.19638779971235215,-0.6807205735519621,-0.28820832766684634,1.2622579908172447,-0.17437727446925724,-0.511032057195577,-0.5133050239963082,-0.1714781315141248,-0.13322255196836782,-1.1812814550608084,-0.09574126933778003,-0.4213421317021468,0.028139148990780054,-1.3373036105542944,-0.8401837837401661,-0.5354720155924771,0.003280827797304534,-0.17342369462256035,1.0265928004505136,-0.3119541355163488,1.2371341425879592,0.062361314634285105,-0.8922341954388457,-0.0024956479077408384],"bias":0.7265558235664326,"d_weights":[0.0,0.0,0.0,0.0,0.0,0.0,0.0,0.0,0.0,0.0,0.0,0.0,0.0,0.0,0.0,0.0,0.0,0.0,0.0,0.0,0.0,0.0,0.0,0.0,0.0,0.0,0.0,0.0,0.0,0.0,0.0,0.0,0.0,0.0,0.0,0.0,0.0,0.0,0.0,0.0,0.0,0.0,0.0,0.0,0.0,0.0,0.0,0.0,0.0,0.0,0.0,0.0,0.0,0.0,0.0,0.0,0.0,0.0,0.0,0.0,0.0,0.0,0.0,0.0,0.0,0.0,0.0,0.0,0.0,0.0,0.0,0.0,0.0,0.0,0.0,0.0,0.0,0.0,0.0,0.0],"d_bias":0.0,"activation":8.507204072464712e-7,"as_respect_z":[-1.9856966182184752e-13,-5.0151818941143995e-15,-5.870277575419144e-14,-8.744939902075397e-16,8.507196835212599e-7,-7.471102865891923e-14,-8.507193127718255e-7,-5.617950158323984e-19,-3.286543015096008e-14,-1.0300388046482922e-17]},{"weights":[-0.1316645625836591,0.2986925898161388,0.24301967541994163,-0.11190889318412811,-0.20736518933530848,1.3362932620393007,0.10814033846863215,-0.20322794374500633,-0.8339334928615426,1.7347319463050732,-0.04673683279114374,-0.04138514259543906,-0.10590702120110881,0.030263976150104673,0.06558939932051146,-1.096898564854881,0.29683026910967353,-0.12763356565289571,0.07999735439591539,0.45553402342643334,1.2353478931137825,-0.185253804352693,-0.05226149686897559,1.0895923447903544,-1.0360101465771108,0.5618423895904535,0.13296969867193004,0.3477872400705687,0.6884688087491925,2.1928398411880785,-0.3308188857511771,1.6655234180267593,0.9472943315429286,-0.9308050688858804,-0.685106170208156,-0.2414544348109744,0.14366723616318725,0.12578893164166008,-0.20113441929127254,0.6861942027368165,-0.5158558740118049,-0.2697945733614996,-0.013346484429118744,0.5118033221712295,-0.29468117102995567,-0.0005218086849053908,0.06787740874822812,1.2999696627827475,-0.97866473155843,1.241344462847621,-0.055551874201427404,-0.674777910901915,-0.2931441450921396,-0.26013870872566497,-0.07511477835105562,-1.073963680790031,-0.3261680366446667,-0.05987034727124076,-0.37369473224798205,-0.005091624261802582,0.6649801720632711,1.1155375427043304,-0.8014827482905622,0.37549185122701906,1.4166401143634668,-0.19415289773082386,0.6029349343577151,0.4717844200029379,0.3237590076920771,0.10278882109602332,-0.07552991610423293,1.3613114697416404,0.08886058144026275,-0.3451032222168662,0.6134424226965127,1.2423201297705537,0.3752674464946827,0.46613162005608355,0.3948201967104141,-0.03743142915471392],"bias":-3.174452395305025,"d_weights":[0.0,0.0,0.0,0.0,0.0,0.0,0.0,0.0,0.0,0.0,0.0,0.0,0.0,0.0,0.0,0.0,0.0,0.0,0.0,0.0,0.0,0.0,0.0,0.0,0.0,0.0,0.0,0.0,0.0,0.0,0.0,0.0,0.0,0.0,0.0,0.0,0.0,0.0,0.0,0.0,0.0,0.0,0.0,0.0,0.0,0.0,0.0,0.0,0.0,0.0,0.0,0.0,0.0,0.0,0.0,0.0,0.0,0.0,0.0,0.0,0.0,0.0,0.0,0.0,0.0,0.0,0.0,0.0,0.0,0.0,0.0,0.0,0.0,0.0,0.0,0.0,0.0,0.0,0.0,0.0],"d_bias":0.0,"activation":8.782089629275098e-8,"as_respect_z":[-2.0498586291336954e-14,-5.177232910608893e-16,-6.059958521850597e-15,-9.027507200776498e-17,-7.471102865891923e-14,8.782088858024115e-8,-8.782078330880992e-8,-5.799477878154087e-20,-3.392738093877539e-15,-1.0633215128024905e-18]},{"weights":[0.22455114862360984,-0.17457605259759273,1.2761178978641907,-0.3185666272354952,-0.21384768430858628,-0.8173120496217054,-0.03552816249902052,-0.307661798266003,-0.5380335124760902,0.5681868759249883,-0.07083238911606841,-0.053581204412462814,-0.3395382377649522,-0.25640776812761984,-0.43144757036942866,-0.6888028587773535,0.15961867788624867,-0.19530333798247626,1.1092055425845364,0.17386899785787643,0.9282960399856899,-0.055185971754638165,0.4182082337073369,-0.044107486523286894,-0.46123224154364173,1.099619349121635,0.637516932155958,0.4627176372530304,-0.5469661291537294,0.7024217328891532,-0.29293378550328175,-0.782871728376595,1.4557054621592305,-0.7255372346994665,0.37547104699487555,-0.1573606023269806,0.5174596579868265,-0.1292797349221963,0.06198250729610103,0.6832893519207056,0.5881748138982505,-0.3516927436294318,-0.035029648374660834,-0.16774194038116316,0.8109257509785371,1.1798723494961914,-0.0562523941077329,0.08016426738587991,0.6594127987792086,-0.17935341825088139,0.23673588070963167,-1.0544217130591436,0.9013636372831215,1.09612540636062,0.8393084953941609,0.3908015032044736,0.3201625637951978,2.2191456541988717,-0.3852826104348135,0.04981615554762668,0.8202562418781385,1.3711373722462024,1.7361194959645345,-0.17571318193916352,-0.20778014481097454,-0.8673634521309749,0.71467523404032,-0.3990412933916333,-0.02410548026861028,0.04716834580036447,2.149238585102606,-0.537934301709606,-0.15479798776548587,-0.3309827221849815,-0.4093303537418319,-0.3576329009517081,-1.176424380699651,0.039618010320430226,-0.34805538767822786,0.09647897222067725],"bias":-4.208161939341751,"d_weights":[0.0,0.0,0.0,0.0,0.0,0.0,0.0,0.0,0.0,0.0,0.0,0.0,0.0,0.0,0.0,0.0,0.0,0.0,0.0,0.0,0.0,0.0,0.0,0.0,0.0,0.0,0.0,0.0,0.0,0.0,0.0,0.0,0.0,0.0,0.0,0.0,0.0,0.0,0.0,0.0,0.0,0.0,0.0,0.0,0.0,0.0,0.0,0.0,0.0,0.0,0.0,0.0,0.0,0.0,0.0,0.0,0.0,0.0,0.0,0.0,0.0,0.0,0.0,0.0,0.0,0.0,0.0,0.0,0.0,0.0,0.0,0.0,0.0,0.0,0.0,0.0,0.0,0.0,0.0,0.0],"d_bias":0.0,"activation":0.9999987134731501,"as_respect_z":[-2.3341323972626457e-7,-5.89520998818033e-9,-6.900351717375329e-8,-1.0279439140034436e-9,-8.507193127718255e-7,-8.782078330880992e-8,1.2865251947904581e-6,-6.60374769762944e-13,-3.8632419757129416e-8,-1.2107826151833342e-11]},{"weights":[-0.5919721967201484,-0.23588904976857963,-0.6334481683828556,0.6107876153087719,0.739256377440155,1.8464664355375522,-0.11105525782355197,-0.11704516491147243,1.7675457043621863,-0.3794263560454573,-0.5464539668624332,-0.537185029104201,-0.25562628695724404,-0.2275883516796566,2.502214346645237,1.8424540381244245,-0.13042114428346882,-0.37098495415105875,-1.2266588094289081,-0.5398980642518912,-0.32884372792033184,-0.17904534590926965,-0.5740143088666335,-0.30190474220472857,1.4657534740484244,-0.2518967287189615,-0.15461879207163207,-0.2501773338471571,-1.144369086635055,0.03314444404717457,-0.6158269756759334,1.5308393319820393,0.9800888129767845,-1.0714905719644874,-1.1541285695618537,-0.41950300904962345,-0.4849363278848599,-0.15921336427636862,-0.2014511815279893,-0.19554948361943328,-0.29196451246937405,0.29307029453228123,0.026122135312769315,-0.13974089508273083,-0.2791287975315863,-0.32484654562513177,-0.08323469026279544,-0.20232653632103198,-1.0494203067161056,-0.5418511853692275,-0.34509086168319986,1.7999157921210447,-0.4464095503766073,-0.7451752391580155,-0.4724921812999609,-0.4561201584480287,-0.44842244124483394,-0.14197506932769197,0.9969306940890018,-0.6010405732232322,-0.23556743390902796,-1.0308691810197395,-0.17583917376912445,-0.38530903596788546,-0.38329573483983587,1.7594284445174513,-0.2792979644428118,-1.304710949471479,-0.08663696444968663,-1.839395064196776,-0.12796317080850328,-0.7314550538508265,-0.12999962145729502,0.36867592066893085,-0.8835727589132011,-0.5469060357267749,1.0718093347623288,-0.10945726523078655,-1.1421004319686512,-0.20826821427682238],"bias":1.813404487112998,"d_weights":[0.0,0.0,0.0,0.0,0.0,0.0,0.0,0.0,0.0,0.0,0.0,0.0,0.0,0.0,0.0,0.0,0.0,0.0,0.0,0.0,0.0,0.0,0.0,0.0,0.0,0.0,0.0,0.0,0.0,0.0,0.0,0.0,0.0,0.0,0.0,0.0,0.0,0.0,0.0,0.0,0.0,0.0,0.0,0.0,0.0,0.0,0.0,0.0,0.0,0.0,0.0,0.0,0.0,0.0,0.0,0.0,0.0,0.0,0.0,0.0,0.0,0.0,0.0,0.0,0.0,0.0,0.0,0.0,0.0,0.0,0.0,0.0,0.0,0.0,0.0,0.0,0.0,0.0,0.0,0.0],"d_bias":0.0,"activation":6.603756193539094e-13,"as_respect_z":[-1.5414061105566927e-19,-3.8930579556895264e-21,-4.556829901605564e-20,-6.788299722040916e-22,-5.617950158323984e-19,-5.799477878154087e-20,-6.60374769762944e-13,6.603756193534732e-13,-2.5511940946051562e-20,-7.995723480759347e-24]},{"weights":[-0.5271002395188552,0.14862338535015157,-0.32592342996823354,-0.5044320123204815,-0.6634512276686924,-1.167664606381051,0.0007755097985182518,0.20310498519760273,-1.2379356028762052,-0.6964021592754983,0.0918678873806225,-0.20450147954528636,-0.8908926276498161,0.21057388796631687,-0.8156139333831476,-0.5360695175224229,-0.026752952583255368,-0.8256070827224997,1.7543396065823722,0.5297156157907665,0.8587487495276764,0.7899183119802478,-0.1932264221870707,1.168597064159548,1.0887219042766336,-0.0023999714553237547,0.37487233219914734,0.039320984235287744,1.1293111593792478,-1.2116998574771563,0.5496637206171794,-0.8075305932402255,-1.075218033738617,-0.8771437214543918,-0.4391939796599429,0.016705905758968072,0.10340857164261434,0.00755898474024892,-0.04611269149696432,-1.128660297952866,0.5650459685748199,-0.5348384082531944,0.14461343850827374,0.07576966326965029,0.1856751062159251,0.0735308344517715,0.0001603263915200461,0.5842090560530594,-0.9042085708785103,-0.2680397482963799,-0.005754379595512526,1.2820274458130094,-0.3630459982922726,0.2530694178458275,0.46594683094492456,1.9443471483390058,0.014428658191721387,0.040685396017184926,-1.1620473544168786,-0.01024872178899627,0.2835568995320092,-0.9567318126925196,-1.014689802180557,-0.4522308676042212,-0.7474605124830844,0.19873850088960038,0.182979394504027,1.4602591938205398,0.05179851904344186,1.804005441252134,-0.07904702888140804,-1.211767874053631,0.00046932202309018215,-0.20446440881166283,-0.4051043868507494,-0.4414841127655283,-1.746418444019649,0.611849752504083,1.1655034980450434,-0.0910791169566583],"bias":0.2948150693873684,"d_weights":[0.0,0.0,0.0,0.0,0.0,0.0,0.0,0.0,0.0,0.0,0.0,0.0,0.0,0.0,0.0,0.0,0.0,0.0,0.0,0.0,0.0,0.0,0.0,0.0,0.0,0.0,0.0,0.0,0.0,0.0,0.0,0.0,0.0,0.0,0.0,0.0,0.0,0.0,0.0,0.0,0.0,0.0,0.0,0.0,0.0,0.0,0.0,0.0,0.0,0.0,0.0,0.0,0.0,0.0,0.0,0.0,0.0,0.0,0.0,0.0,0.0,0.0,0.0,0.0,0.0,0.0,0.0,0.0,0.0,0.0,0.0,0.0,0.0,0.0,0.0,0.0,0.0,0.0,0.0,0.0],"d_bias":0.0,"activation":3.863246945883865e-8,"as_respect_z":[-9.0173414560654e-15,-2.277468128242069e-16,-2.6657796993646315e-15,-3.971206295377236e-17,-3.286543015096008e-14,-3.392738093877539e-15,-3.8632419757129416e-8,-2.5511940946051562e-20,3.8632467966370954e-8,-4.677558258040587e-19]},{"weights":[-0.3024722709801087,0.21797710425536773,-0.08548812776936573,-0.39135421063812426,-0.2776214696862799,-0.6295415805954129,0.02290579183924526,-0.47228639817282214,0.8995070081513592,-0.1828017287994708,0.05988050350864096,0.018431579971429354,-0.1700417180890364,0.14355582039435724,-0.7280545626215994,0.25236694922854835,-0.1407444811778724,-0.31267912636500533,1.1782472950206515,-0.03282641534206973,-0.8414488102296108,-0.2657255867637484,-0.6246394230308091,-0.5414872867069588,0.9551938577609274,-0.2685811895050298,-0.2896690173065752,-0.2687726399477299,1.244740811247492,0.0012352576436991112,1.515677930928864,0.057939409463925964,-1.1408403756615615,0.958011463968523,2.0615199024760966,1.0181897557709647,-0.3599914639898744,0.22998113934439096,-0.0396985260823755,-0.07003789541355042,-1.6095240059833473,-0.1472763647999801,-0.11277114813073318,-0.08729242624482679,-0.24595033942544126,-1.1964318713883064,-0.07544877903631436,-0.4125060053160707,0.14462971677771366,-0.2199502294653434,-0.20971827365370765,-1.7477727340689475,-0.4029768528022849,-1.0118874646928486,-0.38364727389847775,-1.5290976069763063,-0.18380057053786916,-0.3582956451894269,1.1215746414060581,-0.21201338284725557,-0.372946983936164,-0.8665866381133328,-0.2616122422729113,-0.49271672273798583,-0.2651167015459049,0.4036089644788777,-0.3255727915372738,1.41415333689617,0.08068132269625355,-1.4519355196422432,-0.39391423423644895,0.6209941887936289,-0.02903661597636968,-0.6386601434710365,1.534117482520609,-0.18279374140904361,1.9476890593634266,-0.29851390480064477,0.9311955128482104,-0.09108829600733634],"bias":1.0932700437502647,"d_weights":[0.0,0.0,0.0,0.0,0.0,0.0,0.0,0.0,0.0,0.0,0.0,0.0,0.0,0.0,0.0,0.0,0.0,0.0,0.0,0.0,0.0,0.0,0.0,0.0,0.0,0.0,0.0,0.0,0.0,0.0,0.0,0.0,0.0,0.0,0.0,0.0,0.0,0.0,0.0,0.0,0.0,0.0,0.0,0.0,0.0,0.0,0.0,0.0,0.0,0.0,0.0,0.0,0.0,0.0,0.0,0.0,0.0,0.0,0.0,0.0,0.0,0.0,0.0,0.0,0.0,0.0,0.0,0.0,0.0,0.0,0.0,0.0,0.0,0.0,0.0,0.0,0.0,0.0,0.0,0.0],"d_bias":0.0,"activation":1.2107841728896822e-11,"as_respect_z":[-2.826134199932193e-18,-7.137836132567749e-20,-8.354847395505687e-19,-1.2446198229304622e-20,-1.0300388046482922e-17,-1.0633215128024905e-18,-1.2107826151833342e-11,-7.995723480759347e-24,-4.677558258040587e-19,1.2107841728750222e-11]}],"previous_layer":{"Hidden":{"nodes":[{"weights":[-0.11677892093749107,-0.17063228520675483,0.0229629326713947,-0.3896460421051861,-0.05037057157478227,-0.14237253015794155,-0.6371000606933684,-0.15866071043469893,-0.2479753773825279,-0.20277336274739613,-0.472288708147383,0.5323140348576243,-0.22686739450732926,-0.10780142265646886,0.14620183561671005,0.14583727058953191,0.25994827556359973,-0.261638900964734,0.16861477035953087,0.057908045337809626,-0.09560643251083392,0.002153295905981723,0.02714419522773212,0.35965787354080453,-0.14302638498612366,-0.02458016367347827,-0.033805324252324756,-0.043770269587446044,-0.21513121017983083,0.09150731351584239,0.22719374580472945,-0.16539239574652553,-0.41206386355074603,-0.1072881407085082,0.043423999123557856,-0.4284763449290983,-0.16267309004654876,-0.7422270053199707,-0.03809300510891316,0.5971791514061885,-0.11322045537826754,-0.1333430563512235,0.43712583272299244,0.23086073602116808,-0.4322243590503823,-0.17522310842141275,-0.06517523685292405,-0.16035954376956593,-0.07328286330146085,-0.16513822822643312,-0.26209074860149517,0.25884901807115795,-0.6008681052911214,0.22506973148931783,0.3642722712953211,-0.24078424590545822,-0.044465264215283525,0.04953665175071069,-0.06357716251672528,0.4975321557705838,-0.22787423587969013,-0.3476332872928339,-0.3178932810768203,-0.3995456473247591,-0.22043215866759344,0.4629845190714508,0.0946453934998267,-0.10839877631463705,-0.03281143760305482,0.47547747267433,-0.1926266273237585,0.025092550389966765,-0.1163297922363659,-0.22171182422930427,0.04226889342789226,0.3363293072418059,-0.20948194990841737,-0.45070124563459224,-0.07551492772718682,0.5891441721975883,-0.1908673374149449,0.5925911987134421,0.08231720945419337,-0.29823559824679624,-0.028456268014974643,-0.1037857181012803,-0.35189305063473786,-0.03907258102052474,-0.28283615666517403,0.04564454848204584,-0.8695765325112791,0.3389784671740665,-0.04251048400294478,-0.11641131210786466,0.16771192101159452,0.2880209349171745,0.405435190936268,-0.14600290712442424,-0.20970935614843203,0.10364893801133579],"bias":-0.5100212489161332,"d_weights":[0.0,0.0,0.0,0.0,0.0,0.0,0.0,0.0,0.0,0.0,0.0,0.0,0.0,0.0,0.0,0.0,0.0,0.0,0.0,0.0,0.0,0.0,0.0,0.0,0.0,0.0,0.0,0.0,0.0,0.0,0.0,0.0,0.0,0.0,0.0,0.0,0.0,0.0,0.0,0.0,0.0,0.0,0.0,0.0,0.0,0.0,0.0,0.0,0.0,0.0,0.0,0.0,0.0,0.0,0.0,0.0,0.0,0.0,0.0,0.0,0.0,0.0,0.0,0.0,0.0,0.0,0.0,0.0,0.0,0.0,0.0,0.0,0.0,0.0,0.0,0.0,0.0,0.0,0.0,0.0,0.0,0.0,0.0,0.0,0.0,0.0,0.0,0.0,0.0,0.0,0.0,0.0,0.0,0.0,0.0,0.0,0.0,0.0,0.0,0.0],"d_bias":0.0,"activation":0.273536685675942,"as_respect_z":[0.19871436726536293,0.0,0.0,0.0,0.0,0.0,0.0,0.0,0.0,0.0,0.0,0.0,0.0,0.0,0.0,0.0,0.0,0.0,0.0,0.0,0.0,0.0,0.0,0.0,0.0,0.0,0.0,0.0,0.0,0.0,0.0,0.0,0.0,0.0,0.0,0.0,0.0,0.0,0.0,0.0,0.0,0.0,0.0,0.0,0.0,0.0,0.0,0.0,0.0,0.0,0.0,0.0,0.0,0.0,0.0,0.0,0.0,0.0,0.0,0.0,0.0,0.0,0.0,0.0,0.0,0.0,0.0,0.0,0.0,0.0,0.0,0.0,0.0,0.0,0.0,0.0,0.0,0.0,0.0,0.0]},{"weights":[-0.0904510847948354,-0.07405838923110376,-0.056811030485994965,0.004896530110775614,0.02275214064751067,0.026351675912561146,0.019578394731283817,-0.15821167161697233,-0.052708180724626935,-0.011524281979448235,-0.0411941798794246,-0.11492036610753091,-0.08549232404506256,-0.04755089711850372,-0.17324344444135406,-0.03516016077962891,-0.05234057428983162,-0.07374784016016897,-0.12974243693619195,-0.004713495225642465,-0.01714358213974432,-0.02370002760179243,-0.10220141143309247,0.022322560443813116,-0.12376123575350159,-0.11666541194662466,-0.12198228028805047,0.002026968514867004,-0.07122325297987414,-0.0756386830478386,-0.15435159264764253,0.04176969481018797,-0.01018095363547384,-0.03467335477452263,-0.0023836889688283493,0.04568403566611256,-0.023337909212433564,0.02140946703925384,-0.03535450440500666,-0.01555286166544029,-0.15142189070591114,-0.03979407015925691,-0.04148446381629533,-0.1402147837749441,0.047907245145062734,0.025570428360081107,0.017174871971829663,0.02546063887571123,-0.04279401787581844,-0.05294403334273365,-0.0645292063632609,-0.1668011972560643,-0.013121967112784074,-0.05622945124118861,-0.04735596691702111,-0.15452706789443418,-0.04452718062350146,-0.12374489832231322,-0.08995821332115073,-0.13274960637037106,-0.04647324460520618,0.013848021019156396,-0.08558209211712356,-0.013491962198314101,-0.02010499530468878,-0.027827141763446882,-0.03208084516946986,-0.011804240017323688,-0.08936721196126461,-0.08705210976439273,-0.012521054524219779,-0.0322339713398387,-0.0075421671694578625,-0.19821754394381955,-0.11514046003197975,0.004428390083570595,-0.01734081210892772,-0.01076454364864299,-0.06666452677718929,-0.12072634453424588,-0.09349530496607751,-0.054148406432675295,-0.004687803820243189,-0.04510917882759162,-0.010753616490082643,-0.09020346617562179,-0.06004384168656347,-0.013578371325509394,-0.08364609875740985,-0.1360800321058706,0.00979835786733851,-0.038125925555690075,-0.09559517711256123,-0.044613168815478756,0.011194978142106501,-0.06272835602172738,-0.08482208236086067,0.0562501144540237,-0.071713741446271,-0.0760883672447331],"bias":-0.3642173777909706,"d_weights":[0.0,0.0,0.0,0.0,0.0,0.0,0.0,0.0,0.0,0.0,0.0,0.0,0.0,0.0,0.0,0.0,0.0,0.0,0.0,0.0,0.0,0.0,0.0,0.0,0.0,0.0,0.0,0.0,0.0,0.0,0.0,0.0,0.0,0.0,0.0,0.0,0.0,0.0,0.0,0.0,0.0,0.0,0.0,0.0,0.0,0.0,0.0,0.0,0.0,0.0,0.0,0.0,0.0,0.0,0.0,0.0,0.0,0.0,0.0,0.0,0.0,0.0,0.0,0.0,0.0,0.0,0.0,0.0,0.0,0.0,0.0,0.0,0.0,0.0,0.0,0.0,0.0,0.0,0.0,0.0,0.0,0.0,0.0,0.0,0.0,0.0,0.0,0.0,0.0,0.0,0.0,0.0,0.0,0.0,0.0,0.0,0.0,0.0,0.0,0.0],"d_bias":0.0,"activation":0.11381154021880759,"as_respect_z":[0.0,0.10085847353183033,0.0,0.0,0.0,0.0,0.0,0.0,0.0,0.0,0.0,0.0,0.0,0.0,0.0,0.0,0.0,0.0,0.0,0.0,0.0,0.0,0.0,0.0,0.0,0.0,0.0,0.0,0.0,0.0,0.0,0.0,0.0,0.0,0.0,0.0,0.0,0.0,0.0,0.0,0.0,0.0,0.0,0.0,0.0,0.0,0.0,0.0,0.0,0.0,0.0,0.0,0.0,0.0,0.0,0.0,0.0,0.0,0.0,0.0,0.0,0.0,0.0,0.0,0.0,0.0,0.0,0.0,0.0,0.0,0.0,0.0,0.0,0.0,0.0,0.0,0.0,0.0,0.0,0.0]},{"weights":[-0.05968404369268247,-0.11755201091923563,-0.0491423484172073,-0.15088756584182675,-0.2255936439172327,-0.44022366257942125,-0.4561043209527296,0.02418197457223705,-0.27984778450525233,-0.12059598039286015,0.2898212321984683,0.09179185177352586,-0.35262918171779134,0.25312743944803107,-0.19451298485428276,-0.5075634607136779,-0.2425031933395817,-0.1070731769690409,0.07104505673553867,-0.27003113066858214,-0.009775088659292263,0.4512027503567951,0.2380104890877152,-0.2527692905198114,-0.08091282345629196,0.2461546960796852,0.5392993399812464,-0.13121379120696627,0.0035847260117690466,0.02505136092081686,-0.5551603886729923,-0.11410448630319525,-0.011586943928099929,-0.555216276721867,-0.2248633175246823,-0.05107445165431708,-0.3012696624054599,-0.5526209395120951,-0.7487316343367402,0.18087788815498906,-0.09340243665569377,0.11555027419490739,0.004333983974367846,-0.009252020307718553,-0.4710526351733951,-0.3551581770641948,-0.06705065931043067,-0.12074466701546858,-0.26397583606920566,0.052984979951576694,-0.19042370583917353,-0.14565304990882957,-0.24760936959957056,-0.051284305621260906,-0.46281966778374517,0.2586110636274051,0.31580768448043095,-0.1119792256324409,0.202374454862767,0.30555495827049484,-0.3227733676261032,-0.36971574000080254,0.22876473275051168,-0.10420220863648799,-0.48336479684292216,-0.7639945057768224,0.5205539795723484,-0.059045783657329154,-0.23379374416222137,0.7810962288283986,-0.0939740793517964,-0.2815188448375491,-0.0759019457680784,0.4084769794770095,-0.06225039703144742,-0.5744911294230338,-0.07117712441383035,-0.03226341774090606,-0.15584430261143842,-0.2590418364000646,0.3734480240250792,0.03259934190530869,-0.09233950879314128,-0.3405690555493471,-0.31584816330394067,-0.30505565001233625,-0.18311802468023652,-0.010661911254345756,0.4327300552443405,0.28796955870939556,0.24260541781818645,-0.6027370398598777,-0.258659511738079,-0.30059406221516993,-0.5126141497834649,-0.5545060491556937,-0.23789013102828455,-0.03171608203518421,-0.16250158222849997,-0.4038956313869452],"bias":1.0457927207350093,"d_weights":[0.0,0.0,0.0,0.0,0.0,0.0,0.0,0.0,0.0,0.0,0.0,0.0,0.0,0.0,0.0,0.0,0.0,0.0,0.0,0.0,0.0,0.0,0.0,0.0,0.0,0.0,0.0,0.0,0.0,0.0,0.0,0.0,0.0,0.0,0.0,0.0,0.0,0.0,0.0,0.0,0.0,0.0,0.0,0.0,0.0,0.0,0.0,0.0,0.0,0.0,0.0,0.0,0.0,0.0,0.0,0.0,0.0,0.0,0.0,0.0,0.0,0.0,0.0,0.0,0.0,0.0,0.0,0.0,0.0,0.0,0.0,0.0,0.0,0.0,0.0,0.0,0.0,0.0,0.0,0.0,0.0,0.0,0.0,0.0,0.0,0.0,0.0,0.0,0.0,0.0,0.0,0.0,0.0,0.0,0.0,0.0,0.0,0.0,0.0,0.0],"d_bias":0.0,"activation":0.9174614369503811,"as_respect_z":[0.0,0.0,0.07572594865932301,0.0,0.0,0.0,0.0,0.0,0.0,0.0,0.0,0.0,0.0,0.0,0.0,0.0,0.0,0.0,0.0,0.0,0.0,0.0,0.0,0.0,0.0,0.0,0.0,0.0,0.0,0.0,0.0,0.0,0.0,0.0,0.0,0.0,0.0,0.0,0.0,0.0,0.0,0.0,0.0,0.0,0.0,0.0,0.0,0.0,0.0,0.0,0.0,0.0,0.0,0.0,0.0,0.0,0.0,0.0,0.0,0.0,0.0,0.0,0.0,0.0,0.0,0.0,0.0,0.0,0.0,0.0,0.0,0.0,0.0,0.0,0.0,0.0,0.0,0.0,0.0,0.0]},{"weights":[0.07581546275923136,0.14056394218955937,0.007817718031097536,-0.18736191278894399,0.0189814692359532,0.015068007838072996,-0.26529693657124465,-0.04491510081462344,-0.0009408906519581508,-0.12128453826095444,-0.2535866387870941,0.3338048313620064,-0.01653112781475703,0.0031865425492353665,0.025974364587996665,0.1889216480271131,0.21939033249220818,0.03131708288219706,0.03087784515215761,0.08599513487430677,-0.012255580074600921,-0.11667108439547304,0.21067702608749814,0.11104477600373557,0.03345361192235155,-0.06568474926417099,-0.16451763477073497,-0.02932481467777716,0.07079227321219737,-0.003372047834855363,0.18606211429600228,-0.059624233300389816,-0.20597914270525772,0.03618757355224667,0.049848342298473784,-0.3171957615873293,0.0682538147792076,-0.22834171917483412,0.21664971349061668,0.09358432138854901,0.19715613438391993,0.08852638519037523,0.04329748122689363,0.01941846293562199,-0.14749238869634002,0.16159939270324078,-0.016263032734355996,0.08030402785634969,-0.10520213884029074,0.14040643902132172,-0.2431353158906017,0.2933328511308314,-0.3282719584378371,0.1966776343564617,0.32171931984155333,0.13068093746494103,-0.05824043298288673,-0.11725357327238853,0.03239350054764109,0.44837415338584474,-0.046782405224847265,-0.1759044286984635,-0.0803334768675588,-0.3312308484584724,0.070934850644605,0.42239603242541257,0.04114274781514119,-0.014399596568731464,-0.06515512072346218,0.07638418195613282,-0.02583437564457867,0.1771645708901437,0.003973504372737189,0.25028940999142846,0.29995859925461266,0.21465652775495006,-0.14121558279818147,-0.17180193234476587,-0.18008349479275138,0.4350277552599469,-0.013409398953586407,0.4322048607553462,0.09201489845887341,0.017604229575219125,0.028340549095454696,0.043434601769987737,-0.1513132562602832,0.05239091418225237,-0.16425550607359093,-0.12341201101389704,-0.34796207411658525,0.1341422717396128,0.19388987255909598,0.034159849031716684,0.016181528644589556,0.1634941193113268,0.32793056950695726,-0.030793833378571854,-0.004092810723982929,0.23068227155365706],"bias":-1.17020839976989,"d_weights":[0.0,0.0,0.0,0.0,0.0,0.0,0.0,0.0,0.0,0.0,0.0,0.0,0.0,0.0,0.0,0.0,0.0,0.0,0.0,0.0,0.0,0.0,0.0,0.0,0.0,0.0,0.0,0.0,0.0,0.0,0.0,0.0,0.0,0.0,0.0,0.0,0.0,0.0,0.0,0.0,0.0,0.0,0.0,0.0,0.0,0.0,0.0,0.0,0.0,0.0,0.0,0.0,0.0,0.0,0.0,0.0,0.0,0.0,0.0,0.0,0.0,0.0,0.0,0.0,0.0,0.0,0.0,0.0,0.0,0.0,0.0,0.0,0.0,0.0,0.0,0.0,0.0,0.0,0.0,0.0,0.0,0.0,0.0,0.0,0.0,0.0,0.0,0.0,0.0,0.0,0.0,0.0,0.0,0.0,0.0,0.0,0.0,0.0,0.0,0.0],"d_bias":0.0,"activation":0.1722763157915589,"as_respect_z":[0.0,0.0,0.0,0.14259718680884598,0.0,0.0,0.0,0.0,0.0,0.0,0.0,0.0,0.0,0.0,0.0,0.0,0.0,0.0,0.0,0.0,0.0,0.0,0.0,0.0,0.0,0.0,0.0,0.0,0.0,0.0,0.0,0.0,0.0,0.0,0.0,0.0,0.0,0.0,0.0,0.0,0.0,0.0,0.0,0.0,0.0,0.0,0.0,0.0,0.0,0.0,0.0,0.0,0.0,0.0,0.0,0.0,0.0,0.0,0.0,0.0,0.0,0.0,0.0,0.0,0.0,0.0,0.0,0.0,0.0,0.0,0.0,0.0,0.0,0.0,0.0,0.0,0.0,0.0,0.0,0.0]},{"weights":[0.1352188788723407,-0.015073020477330525,-0.0936101266134195,-0.43367394503830864,-0.10349847886639307,-0.27853733139315767,-0.17848063850812929,-0.09076310605114675,0.005231802171759861,-0.34505852786469166,0.37330582988485167,0.1604421481230284,-0.1265092604548237,0.24424611721246184,-0.36785086261321653,-0.2747865140746761,0.1882733243694629,0.24868116333816281,0.41302741705022555,-0.022104059548586245,-0.057156775029684824,0.33085309265843854,0.4451292886122305,-0.17407641792420495,-0.17388803674977882,0.2622252917291316,-0.07838119200190684,-0.13154865732980725,0.10962655182302797,-0.019805069845080955,-0.3743155250141124,-0.0531573011179361,0.12513854272610103,-0.3411874682729704,-0.13866714095212238,-0.4495764423558338,-0.03540161329281517,-0.29963575591375563,-0.08860455843396071,-0.2351363274821288,0.03230796051098271,0.19341464008947823,-0.39493673204698565,0.24422832564172473,-0.4256168736895365,0.11017013785271573,-0.12532622280828648,0.13946556194068846,-0.30797961846386945,0.2409030834046011,-0.40255907179972894,0.19237607545233917,-0.11567194928639869,-0.03819934504616966,-0.30483946115260185,0.36058395105276403,0.3617558294636198,-0.24873189264648415,0.5046211082273979,0.501416184496144,-0.163508446102611,-0.4142738124631281,0.3500605007063256,0.006837498114832529,-0.21524111850635944,-0.6595597337958847,0.5577654807507032,-0.022563659345056216,-0.3718214447316028,0.5048549667910887,0.00953481825897514,0.021403355022650658,-0.12289616356471067,0.634964123427863,0.15322539778684102,-0.36357996756459593,0.12159664893414905,0.14996265582236967,-0.09782405919660217,0.10891913326730433,0.2851105279687743,0.01473659766062625,-0.007474352665909945,-0.16858172115867856,-0.21669519281057395,-0.1589961751946287,-0.09626517520688105,-0.04813501556815572,-0.008817505547656547,-0.1887538162235558,0.37182732328345197,-0.20498814998711398,0.17400501896595,-0.05920115455422815,-0.24360494423671877,-0.7332656189136397,0.16495113666380987,0.1325726449256995,-0.2047793235578897,-0.07360223981060819],"bias":-1.0973813693655916,"d_weights":[0.0,0.0,0.0,0.0,0.0,0.0,0.0,0.0,0.0,0.0,0.0,0.0,0.0,0.0,0.0,0.0,0.0,0.0,0.0,0.0,0.0,0.0,0.0,0.0,0.0,0.0,0.0,0.0,0.0,0.0,0.0,0.0,0.0,0.0,0.0,0.0,0.0,0.0,0.0,0.0,0.0,0.0,0.0,0.0,0.0,0.0,0.0,0.0,0.0,0.0,0.0,0.0,0.0,0.0,0.0,0.0,0.0,0.0,0.0,0.0,0.0,0.0,0.0,0.0,0.0,0.0,0.0,0.0,0.0,0.0,0.0,0.0,0.0,0.0,0.0,0.0,0.0,0.0,0.0,0.0,0.0,0.0,0.0,0.0,0.0,0.0,0.0,0.0,0.0,0.0,0.0,0.0,0.0,0.0,0.0,0.0,0.0,0.0,0.0,0.0],"d_bias":0.0,"activation":0.0995783923477905,"as_respect_z":[0.0,0.0,0.0,0.0,0.08966253612522,0.0,0.0,0.0,0.0,0.0,0.0,0.0,0.0,0.0,0.0,0.0,0.0,0.0,0.0,0.0,0.0,0.0,0.0,0.0,0.0,0.0,0.0,0.0,0.0,0.0,0.0,0.0,0.0,0.0,0.0,0.0,0.0,0.0,0.0,0.0,0.0,0.0,0.0,0.0,0.0,0.0,0.0,0.0,0.0,0.0,0.0,0.0,0.0,0.0,0.0,0.0,0.0,0.0,0.0,0.0,0.0,0.0,0.0,0.0,0.0,0.0,0.0,0.0,0.0,0.0,0.0,0.0,0.0,0.0,0.0,0.0,0.0,0.0,0.0,0.0]},{"weights":[-0.06257062423418402,0.6792986445498757,-0.10442633117257968,0.2521150163732895,-0.2281583509512544,-0.24053726272898895,0.025962688029416273,-0.127625994601788,0.2971330520007279,-0.2277518612782154,-0.39144402066577516,-0.38741720411573777,0.3216168088279171,0.02639544702731726,-0.31267857899747004,0.19893505517266655,-0.2692605185757146,0.518163524666218,-0.5229691713471287,-0.18554254575372722,0.016884413766410783,-0.43439900583101515,0.07390451099514218,-0.46236323271790886,-0.11226989069173376,-0.7030090231890935,-0.05694677189597711,0.01642683722855488,0.1066319692598696,-0.5408046300670126,-0.05204753735440017,0.12419628010742281,-0.07347888129802631,-0.24993798871244663,-0.0955549429513568,0.24341426428021953,0.14546505966580256,0.24801130826638712,-0.43161350535300996,-0.4185059120227806,-0.054555607355606266,0.4330579421363033,-0.05926834478359272,-0.21240316469724044,0.49300072160184905,0.11302664298320653,-0.05603019322002945,0.12800509974402102,-0.6051502025166536,0.5062166733543859,-0.35986442041018896,0.24670952016551934,0.08767652486345015,0.0376714239531461,0.3879548386183005,0.36029524295622667,-0.4535183513716176,0.1460909948776399,0.34531898876175393,0.1913351564139766,-0.38887536988622823,-0.3600189204563414,-0.1936948375617523,-0.1952489668446734,-0.4063861977342948,0.3610033650452861,0.19847164477860496,0.00834355195479491,-0.3058666934448678,-0.9247580725939889,-0.017701600124602767,0.4635815497003217,0.9369008037317837,0.18587084787128577,0.32978582706158455,-0.2138060439814975,-0.14879559735069506,-0.19471139043881774,-0.34280381208791944,0.10428702259076242,0.15782179351666398,0.3293453243304388,0.006328884018956287,0.09508798727198654,-0.08721354108920805,-0.08727720913870139,-0.0032421150899700035,-0.03185784794172271,0.29108896333461853,-0.521579345068328,0.5763754543478566,-0.13437558517910786,0.04878452399055955,0.17579304962365797,-0.0005422869403420729,-0.20839285467698843,-0.1098762564370098,-0.038559377917630075,0.20201861584174988,-0.1273711802358119],"bias":0.31633072207142204,"d_weights":[0.0,0.0,0.0,0.0,0.0,0.0,0.0,0.0,0.0,0.0,0.0,0.0,0.0,0.0,0.0,0.0,0.0,0.0,0.0,0.0,0.0,0.0,0.0,0.0,0.0,0.0,0.0,0.0,0.0,0.0,0.0,0.0,0.0,0.0,0.0,0.0,0.0,0.0,0.0,0.0,0.0,0.0,0.0,0.0,0.0,0.0,0.0,0.0,0.0,0.0,0.0,0.0,0.0,0.0,0.0,0.0,0.0,0.0,0.0,0.0,0.0,0.0,0.0,0.0,0.0,0.0,0.0,0.0,0.0,0.0,0.0,0.0,0.0,0.0,0.0,0.0,0.0,0.0,0.0,0.0,0.0,0.0,0.0,0.0,0.0,0.0,0.0,0.0,0.0,0.0,0.0,0.0,0.0,0.0,0.0,0.0,0.0,0.0,0.0,0.0],"d_bias":0.0,"activation":0.026231376188688087,"as_respect_z":[0.0,0.0,0.0,0.0,0.0,0.025543291091935615,0.0,0.0,0.0,0.0,0.0,0.0,0.0,0.0,0.0,0.0,0.0,0.0,0.0,0.0,0.0,0.0,0.0,0.0,0.0,0.0,0.0,0.0,0.0,0.0,0.0,0.0,0.0,0.0,0.0,0.0,0.0,0.0,0.0,0.0,0.0,0.0,0.0,0.0,0.0,0.0,0.0,0.0,0.0,0.0,0.0,0.0,0.0,0.0,0.0,0.0,0.0,0.0,0.0,0.0,0.0,0.0,0.0,0.0,0.0,0.0,0.0,0.0,0.0,0.0,0.0,0.0,0.0,0.0,0.0,0.0,0.0,0.0,0.0,0.0]},{"weights":[-0.04209380734944769,-0.03222276972365245,-0.006481627988470672,-0.029982437360186763,-0.035565534495860945,-0.04914856638723909,-0.04189316181246779,-0.040600535678712156,-0.04314509469825168,-0.04900123461831374,-0.09433498908423373,0.02768882909305572,-0.041012197332456625,-0.019990419266324593,-0.004186644410511238,0.0056387790531865515,0.00003077863215564911,0.053516490762557045,-0.04754000723684776,-0.007390972674102214,0.012153383195293414,-0.03400005293540648,-0.08843222595877852,0.00395092524176823,-0.027733959109883227,-0.09995646874058015,-0.02542827172602008,-0.038462204405944125,-0.04534173084334722,-0.0819073130796005,-0.05349867432225338,0.015266597262866128,-0.05894428022225948,0.05626044222835024,0.011280636501423491,-0.02170579355687292,-0.031365996773900715,-0.012212531221245663,-0.09574083054413496,0.0004580653509409386,-0.04317097400317851,-0.03611962522871848,-0.048819359208788445,-0.015096984061836745,0.017703465317940644,-0.07598685064037063,-0.056396723533081033,-0.0349315788822691,0.02555448065595633,-0.03771363121390957,-0.013896771334567279,-0.04101918927787731,0.004080417016603312,-0.0011521479101845981,-0.041782372648394184,-0.05531376162162373,-0.011475606276702955,-0.036595393147913165,-0.06927675701007911,-0.08792208814339059,-0.058564555350596514,-0.0791783048931961,-0.04762937394515927,0.013999288947328811,-0.029756662582504822,0.05530319301137067,-0.06692053910492357,0.012029821189052511,-0.05104255307387976,0.02326738933984253,-0.07014418045959496,-0.04143435504581628,0.003238313312961442,-0.06675694881958293,-0.012506226919773267,-0.0429236919877773,-0.05173695258228339,0.055831803417753276,-0.03951246246990032,-0.08407261559522562,-0.07049698117299802,-0.004862578737683121,0.02657800466316675,-0.013759470194688086,0.004591573158913157,-0.08309932859846471,-0.0085761345603472,-0.008898438130155744,-0.030886771287143972,-0.03389570813768867,-0.08202960284806271,-0.021035052948330316,-0.062468960048793,-0.05247023411387309,-0.04077056360750308,-0.06393484083217889,-0.006741322428254632,-0.043187349849108846,-0.006478730435497426,-0.010688135493687106],"bias":-1.5872933887217384,"d_weights":[0.0,0.0,0.0,0.0,0.0,0.0,0.0,0.0,0.0,0.0,0.0,0.0,0.0,0.0,0.0,0.0,0.0,0.0,0.0,0.0,0.0,0.0,0.0,0.0,0.0,0.0,0.0,0.0,0.0,0.0,0.0,0.0,0.0,0.0,0.0,0.0,0.0,0.0,0.0,0.0,0.0,0.0,0.0,0.0,0.0,0.0,0.0,0.0,0.0,0.0,0.0,0.0,0.0,0.0,0.0,0.0,0.0,0.0,0.0,0.0,0.0,0.0,0.0,0.0,0.0,0.0,0.0,0.0,0.0,0.0,0.0,0.0,0.0,0.0,0.0,0.0,0.0,0.0,0.0,0.0,0.0,0.0,0.0,0.0,0.0,0.0,0.0,0.0,0.0,0.0,0.0,0.0,0.0,0.0,0.0,0.0,0.0,0.0,0.0,0.0],"d_bias":0.0,"activation":0.09069022427211382,"as_respect_z":[0.0,0.0,0.0,0.0,0.0,0.0,0.08246550749358751,0.0,0.0,0.0,0.0,0.0,0.0,0.0,0.0,0.0,0.0,0.0,0.0,0.0,0.0,0.0,0.0,0.0,0.0,0.0,0.0,0.0,0.0,0.0,0.0,0.0,0.0,0.0,0.0,0.0,0.0,0.0,0.0,0.0,0.0,0.0,0.0,0.0,0.0,0.0,0.0,0.0,0.0,0.0,0.0,0.0,0.0,0.0,0.0,0.0,0.0,0.0,0.0,0.0,0.0,0.0,0.0,0.0,0.0,0.0,0.0,0.0,0.0,0.0,0.0,0.0,0.0,0.0,0.0,0.0,0.0,0.0,0.0,0.0]},{"weights":[-0.027028969912153002,-0.15792233609973563,-0.027792458971798006,-0.36773738971930714,-0.15853607224669083,-0.38400107186392574,0.10451895852577485,-0.02312108409939933,0.017177832728641828,-0.04566282803293691,0.2083918965389771,-0.208803944594914,-0.06185443480318437,0.045018554361678245,0.08949552668337393,-0.054164334321905545,0.19145159518772875,0.5236857271482903,-0.044085898013879875,-0.14275765073254848,-0.008396691769236849,-0.03505169354768363,-0.06133263802477496,-0.26293072387768807,-0.18750397696081242,0.009911285283089311,-0.026396023890204814,0.060039502343696316,-0.2209832008831464,-0.1293704115504559,-0.28194155338027876,-0.00577845353473905,0.15742425927435894,-0.3217442453561293,-0.05032966935233244,-0.0456719202855978,-0.049153899051339364,0.0697081438242575,-0.20953325582445656,-0.1473888328560404,-0.18927200253024357,0.20438598146200548,-0.4059671815309298,0.22713564545216738,0.1413000136502594,-0.2285454560059423,0.01971353170936266,-0.06269459541533855,-0.13514401415369684,-0.18714926236075982,-0.0747158701013431,-0.42248430003595555,0.13301062667086852,-0.10711685264801561,-0.17539102010365626,-0.09717082250543903,0.047978913812717426,-0.053541128575972444,0.37376241350239964,-0.32365328565609996,0.09352429793503664,-0.3043097755041449,-0.09693954409377756,0.14569631861112506,-0.26998256703003537,-0.14680640656200303,0.14064613719134297,0.010506465815035351,-0.09436844151715823,-0.15748032039264515,-0.1376614965708137,-0.18417663234389942,0.05117921037339136,-0.2966555345783296,-0.13534598498040767,-0.3382864275550098,0.21959682643533102,0.22994248410426174,0.01069066569796176,-0.33090667076543046,-0.05086514527456347,-0.27058567973849423,0.0351543726182059,-0.1300896447120584,0.03868959358245267,-0.15787995537533897,-0.025520486862894765,0.012757795777028635,-0.03173770832177521,-0.10117001599210726,0.1843962604460055,0.1352862715663205,-0.11908519383503068,-0.2763955435270889,0.08681741754744461,-0.47221400147068476,-0.2983441208506069,-0.005320018844944352,-0.10903808194843047,-0.05609479082830639],"bias":0.3622462968322638,"d_weights":[0.0,0.0,0.0,0.0,0.0,0.0,0.0,0.0,0.0,0.0,0.0,0.0,0.0,0.0,0.0,0.0,0.0,0.0,0.0,0.0,0.0,0.0,0.0,0.0,0.0,0.0,0.0,0.0,0.0,0.0,0.0,0.0,0.0,0.0,0.0,0.0,0.0,0.0,0.0,0.0,0.0,0.0,0.0,0.0,0.0,0.0,0.0,0.0,0.0,0.0,0.0,0.0,0.0,0.0,0.0,0.0,0.0,0.0,0.0,0.0,0.0,0.0,0.0,0.0,0.0,0.0,0.0,0.0,0.0,0.0,0.0,0.0,0.0,0.0,0.0,0.0,0.0,0.0,0.0,0.0,0.0,0.0,0.0,0.0,0.0,0.0,0.0,0.0,0.0,0.0,0.0,0.0,0.0,0.0,0.0,0.0,0.0,0.0,0.0,0.0],"d_bias":0.0,"activation":0.1301484151049492,"as_respect_z":[0.0,0.0,0.0,0.0,0.0,0.0,0.0,0.11320980515061903,0.0,0.0,0.0,0.0,0.0,0.0,0.0,0.0,0.0,0.0,0.0,0.0,0.0,0.0,0.0,0.0,0.0,0.0,0.0,0.0,0.0,0.0,0.0,0.0,0.0,0.0,0.0,0.0,0.0,0.0,0.0,0.0,0.0,0.0,0.0,0.0,0.0,0.0,0.0,0.0,0.0,0.0,0.0,0.0,0.0,0.0,0.0,0.0,0.0,0.0,0.0,0.0,0.0,0.0,0.0,0.0,0.0,0.0,0.0,0.0,0.0,0.0,0.0,0.0,0.0,0.0,0.0,0.0,0.0,0.0,0.0,0.0]},{"weights":[-0.22016841882232563,0.3123170529762768,-0.05782479006475714,-0.3803936027934334,0.3819042863473021,-0.7135602074623854,0.18337611115132377,-0.5036877439180539,0.42824832738771,-0.2694255987445867,-0.3012683120253925,-0.13378755205465256,0.0692051339791295,-0.33411456492425046,-0.3613606498153296,0.579570184135695,0.2852981687382511,0.5709067516678785,-0.6490446472863449,0.37102818706655916,0.07959602589287351,-0.6611520618637201,-0.1971754896615044,0.08140711829358468,-0.06506003320647957,-0.6000839267999218,-0.23120359336506868,0.053875066846211794,0.22435089653865664,-0.5421067970291428,0.0715780304590676,-0.07479392513015382,0.059975020245008594,-0.2620786830721561,-0.023376026923635208,-0.295608964595283,0.07826804607134923,-0.1476784834033371,0.16638030515161492,-0.3958929206675107,-0.169284173606621,0.21831911062248277,-0.16998702650853198,0.22804907674745215,0.15394056263036135,0.38116524545088476,0.008021738248382366,0.2614509681989495,-0.15623623931755679,0.3717481494520144,-0.07386834413163099,-0.20207243160004387,0.1460436353128085,0.0426229714237601,0.4257112621092249,0.10850733702071519,-0.3470515433727875,0.051126345818584266,0.40255590377986433,0.04625345087282104,-0.043874049998031156,-0.37431544282441837,-0.490015808026079,0.3880951834246936,0.04742827557124871,0.9350344746877454,-0.27149949630031156,-0.0034160429150267755,-0.32408639501069864,-0.8228578428101938,0.03556305239543644,0.5959088462470933,0.11361103581354512,-0.4834021366497847,0.3222977157076908,-0.18171682439217257,0.25771924366994636,0.2524670063194799,-0.05364978893176531,-0.14245535321724725,-0.11849941743297024,0.20703763507401574,0.052718788514459436,0.11576890481621156,-0.14291893784655943,0.029616847649481488,-0.11677963968577429,-0.04721811758190698,-0.28881249865810593,-0.4511040802395286,0.0502864274040869,0.8244379111155118,-0.09129107145803372,-0.15201525281426698,0.7277353974996519,0.009485388197034863,0.5999650449110612,0.2539060229430557,-0.10892376880664345,0.331654518682742],"bias":-0.8400244563774983,"d_weights":[0.0,0.0,0.0,0.0,0.0,0.0,0.0,0.0,0.0,0.0,0.0,0.0,0.0,0.0,0.0,0.0,0.0,0.0,0.0,0.0,0.0,0.0,0.0,0.0,0.0,0.0,0.0,0.0,0.0,0.0,0.0,0.0,0.0,0.0,0.0,0.0,0.0,0.0,0.0,0.0,0.0,0.0,0.0,0.0,0.0,0.0,0.0,0.0,0.0,0.0,0.0,0.0,0.0,0.0,0.0,0.0,0.0,0.0,0.0,0.0,0.0,0.0,0.0,0.0,0.0,0.0,0.0,0.0,0.0,0.0,0.0,0.0,0.0,0.0,0.0,0.0,0.0,0.0,0.0,0.0,0.0,0.0,0.0,0.0,0.0,0.0,0.0,0.0,0.0,0.0,0.0,0.0,0.0,0.0,0.0,0.0,0.0,0.0,0.0,0.0],"d_bias":0.0,"activation":0.0007385131961788154,"as_respect_z":[0.0,0.0,0.0,0.0,0.0,0.0,0.0,0.0,0.0007379677944378851,0.0,0.0,0.0,0.0,0.0,0.0,0.0,0.0,0.0,0.0,0.0,0.0,0.0,0.0,0.0,0.0,0.0,0.0,0.0,0.0,0.0,0.0,0.0,0.0,0.0,0.0,0.0,0.0,0.0,0.0,0.0,0.0,0.0,0.0,0.0,0.0,0.0,0.0,0.0,0.0,0.0,0.0,0.0,0.0,0.0,0.0,0.0,0.0,0.0,0.0,0.0,0.0,0.0,0.0,0.0,0.0,0.0,0.0,0.0,0.0,0.0,0.0,0.0,0.0,0.0,0.0,0.0,0.0,0.0,0.0,0.0]},{"weights":[-0.18293211317376226,-0.13147069331460723,-0.1076775143338532,0.5591951830665649,-0.1675336517790376,0.16921727885695553,-0.15911010133736578,-0.13835765274789472,-0.08634403041214572,-0.02869192897641548,-0.33027708697285496,-0.3010262952896957,0.17804021236705583,0.10869101267538493,0.046688908870134084,-0.322894087038579,-0.485949554873265,-0.47360758024463273,0.027994242073135726,-0.2583531752318137,-0.04550721260743144,0.1350007779156915,-0.32966655515039084,-0.16081045322542453,-0.2504944067050679,-0.45708284787100084,0.10135318366124212,-0.08637846736296186,-0.32649442632667175,-0.3033932860530662,-0.2882228355824685,0.17490373844893106,-0.39780558867029153,0.39392938155431256,-0.14809887254565762,0.3121369685552998,-0.14625950100134402,0.24498721338705423,-0.6211970291785147,-0.24161303874128512,-0.2554506085120938,-0.137525013197,0.21106171710234622,-0.5503830758758829,0.4672088550753914,-0.2958929006575534,-0.01876423895837077,-0.1113714409676234,-0.21688475730754364,-0.24814872502732263,-0.09005126623889549,0.24522402784522007,-0.0825987259158862,-0.13600852226477958,0.016055988777114085,-0.2576029619643475,-0.28147776988590834,0.06544146178553072,-0.2382330788510997,-0.19169218618105727,-0.4720397954676979,-0.026483314516782513,-0.13907283122067066,-0.45099752549334715,-0.36470562720362476,-0.18695166183296028,0.053373644312612725,0.05328227939971497,-0.20928179787783607,-0.34099105886273906,-0.11872018915168647,-0.07702654691296527,0.5451779541971141,-0.2957016616958477,-0.17198421214202916,-0.013401102940906953,-0.3322029416493945,-0.45399413192908494,-0.32004746562694786,0.1775105721027941,-0.0656754913109555,0.04626412915566412,-0.03943307397452647,-0.08423664870324944,-0.018649543598033638,-0.2011125239736592,-0.2279099409303146,0.011207648705321349,0.5027771955380892,0.04661560941228254,0.20878698179956456,-0.5272220748997521,-0.206076760966779,0.20411687055446817,-0.29500278260082546,-0.04271002882650595,-0.3479815772254263,-0.2637321381321315,0.2935563238125433,-0.48296793464415905],"bias":0.7339080323235887,"d_weights":[0.0,0.0,0.0,0.0,0.0,0.0,0.0,0.0,0.0,0.0,0.0,0.0,0.0,0.0,0.0,0.0,0.0,0.0,0.0,0.0,0.0,0.0,0.0,0.0,0.0,0.0,0.0,0.0,0.0,0.0,0.0,0.0,0.0,0.0,0.0,0.0,0.0,0.0,0.0,0.0,0.0,0.0,0.0,0.0,0.0,0.0,0.0,0.0,0.0,0.0,0.0,0.0,0.0,0.0,0.0,0.0,0.0,0.0,0.0,0.0,0.0,0.0,0.0,0.0,0.0,0.0,0.0,0.0,0.0,0.0,0.0,0.0,0.0,0.0,0.0,0.0,0.0,0.0,0.0,0.0,0.0,0.0,0.0,0.0,0.0,0.0,0.0,0.0,0.0,0.0,0.0,0.0,0.0,0.0,0.0,0.0,0.0,0.0,0.0,0.0],"d_bias":0.0,"activation":0.4260134295765898,"as_respect_z":[0.0,0.0,0.0,0.0,0.0,0.0,0.0,0.0,0.0,0.24452598739698173,0.0,0.0,0.0,0.0,0.0,0.0,0.0,0.0,0.0,0.0,0.0,0.0,0.0,0.0,0.0,0.0,0.0,0.0,0.0,0.0,0.0,0.0,0.0,0.0,0.0,0.0,0.0,0.0,0.0,0.0,0.0,0.0,0.0,0.0,0.0,0.0,0.0,0.0,0.0,0.0,0.0,0.0,0.0,0.0,0.0,0.0,0.0,0.0,0.0,0.0,0.0,0.0,0.0,0.0,0.0,0.0,0.0,0.0,0.0,0.0,0.0,0.0,0.0,0.0,0.0,0.0,0.0,0.0,0.0,0.0]},{"weights":[-0.10301313918932158,-0.2014174126993693,0.011333430479370053,0.10778344816543467,0.026692992677186948,-0.07102641347247705,-0.007237610086254286,0.08332379811577909,-0.02711353489213115,-0.05782089581710874,0.33548293362711146,-0.20189685527720158,0.15557235193502167,-0.033180532391064645,0.13476261611521068,-0.1929270931800569,-0.00876391336837361,0.003042402018497577,0.35658513467590897,-0.09956593008593237,0.00866008503402555,0.0038095987247232597,-0.16316324986407085,-0.046279622292091156,0.1347569509890627,0.08623411817906684,0.11682864626983146,-0.04824095225472249,-0.11679298490179829,0.02112670529747299,-0.2383308809447256,0.021049832519726152,0.06687695151647047,0.27382625702785224,-0.09661164939825738,-0.19127363387443636,-0.0665177897260176,0.08348593783030409,-0.2608284525304021,0.020926835019604066,0.08503245670979413,0.041871062305545874,-0.233376837281656,0.03335106751827073,0.1588990331309621,-0.19843502413273187,-0.003317633055464535,-0.021964532079730988,0.1627389815759332,-0.15911874211491941,0.180719709798443,0.04276217607454201,0.24821740637439876,-0.13062471921401303,-0.05711563821418469,-0.18883425979867524,0.05448955086591925,0.3213535826250993,0.03310490601702442,-0.20806813319131598,-0.11722738044520076,-0.07137346676399364,0.14793533398477662,0.13983193053866558,-0.17345882271955915,-0.2446056116703281,0.013022978299304256,-0.022011335874587878,0.09427485099193962,0.20377237250927208,-0.010767111098262692,-0.11284649569337438,-0.013186428839265489,-0.017777715455247766,-0.2196171353780767,-0.20837126206404866,0.0560476929257885,0.18118880063308188,0.203053659177127,0.017136467760034926,-0.09046134276091863,-0.17166441152183165,-0.06915162535034546,0.052734126804020426,-0.11212970781182373,0.16281363181414596,0.0343741821324888,0.028650857722550292,-0.06821788490755233,0.13945155647120014,0.20684681524628845,-0.029654517050107677,0.005474787336192111,0.22744055875028618,-0.06748808202757885,-0.14374426913261232,-0.24009172477496857,0.00044294958920075057,0.05503834355529628,-0.22390886270000815],"bias":-0.9107349900765996,"d_weights":[0.0,0.0,0.0,0.0,0.0,0.0,0.0,0.0,0.0,0.0,0.0,0.0,0.0,0.0,0.0,0.0,0.0,0.0,0.0,0.0,0.0,0.0,0.0,0.0,0.0,0.0,0.0,0.0,0.0,0.0,0.0,0.0,0.0,0.0,0.0,0.0,0.0,0.0,0.0,0.0,0.0,0.0,0.0,0.0,0.0,0.0,0.0,0.0,0.0,0.0,0.0,0.0,0.0,0.0,0.0,0.0,0.0,0.0,0.0,0.0,0.0,0.0,0.0,0.0,0.0,0.0,0.0,0.0,0.0,0.0,0.0,0.0,0.0,0.0,0.0,0.0,0.0,0.0,0.0,0.0,0.0,0.0,0.0,0.0,0.0,0.0,0.0,0.0,0.0,0.0,0.0,0.0,0.0,0.0,0.0,0.0,0.0,0.0,0.0,0.0],"d_bias":0.0,"activation":0.4110517345942447,"as_respect_z":[0.0,0.0,0.0,0.0,0.0,0.0,0.0,0.0,0.0,0.0,0.24208820608130732,0.0,0.0,0.0,0.0,0.0,0.0,0.0,0.0,0.0,0.0,0.0,0.0,0.0,0.0,0.0,0.0,0.0,0.0,0.0,0.0,0.0,0.0,0.0,0.0,0.0,0.0,0.0,0.0,0.0,0.0,0.0,0.0,0.0,0.0,0.0,0.0,0.0,0.0,0.0,0.0,0.0,0.0,0.0,0.0,0.0,0.0,0.0,0.0,0.0,0.0,0.0,0.0,0.0,0.0,0.0,0.0,0.0,0.0,0.0,0.0,0.0,0.0,0.0,0.0,0.0,0.0,0.0,0.0,0.0]},{"weights":[0.15918545195019257,-0.07845483053219786,-0.060121721328607984,-0.12430967566469531,-0.05203156518718491,0.32573074206633684,-0.06511781890118416,-0.18366745450045055,-0.12111224412982635,0.36700508322854564,-0.4009285095283039,0.19927551190852785,-0.257241844250618,0.17813734004054296,0.21120089092491895,-0.15177696696086856,0.02794213859236948,-0.1401361158821999,-0.1624762365194256,-0.11469516884966238,0.012409742579703162,0.38927943312450375,0.09809422052639938,0.018124531590619036,-0.09263173424264506,-0.0824896564783432,-0.24361744731487187,-0.06190999711192425,0.0487933938206669,-0.07429095188180879,0.13035748890988683,-0.03986600683330159,-0.298172657578309,-0.04014145878665136,0.0784836984952058,-0.03960577851089049,0.1477102181221239,-0.0580989369606092,0.321939958332158,-0.23187343027119892,-0.0021004097147992854,-0.1557045723182436,0.0678417901775405,-0.061448077922569934,-0.3724437717815441,0.3969413041472754,-0.004220378568441385,-0.007512946083627831,0.001930778107484479,0.08196358767404865,-0.17453933433367644,-0.09965810512833571,-0.4165906618552541,0.18217040864297476,-0.1172256214214735,-0.19328826802064686,-0.07894426557257611,-0.5030582712624445,-0.19187537290612638,0.07204141688632855,0.07484010151240157,0.09436366021920137,-0.25140904019581484,-0.3505843937130038,0.2793990114963294,-0.07483755934070752,-0.07134760431952133,-0.007239320600507985,-0.19689852216981313,-0.05683160231313724,-0.05819807987825713,-0.10657159992764646,-0.1863887453135998,-0.18717695252065117,0.033701314661809735,0.3697140464167592,-0.15604569761813195,-0.30201148807054184,-0.1071794605146717,-0.03077732126506512,-0.12172517982264322,-0.04106540140523086,-0.009578901847920115,-0.15665572921853005,0.32768959474280457,-0.006137905211504791,-0.2046087174963215,-0.026825519482756112,0.15527475097319973,0.06728906147059681,-0.48622178595259924,-0.04212667368227981,0.1846095400094956,-0.2077123461250229,-0.1324527382179305,0.11699002206387958,0.23068280657412324,-0.1928863868303125,-0.16353013958083606,0.038237754503430296],"bias":-0.27148339434960955,"d_weights":[0.0,0.0,0.0,0.0,0.0,0.0,0.0,0.0,0.0,0.0,0.0,0.0,0.0,0.0,0.0,0.0,0.0,0.0,0.0,0.0,0.0,0.0,0.0,0.0,0.0,0.0,0.0,0.0,0.0,0.0,0.0,0.0,0.0,0.0,0.0,0.0,0.0,0.0,0.0,0.0,0.0,0.0,0.0,0.0,0.0,0.0,0.0,0.0,0.0,0.0,0.0,0.0,0.0,0.0,0.0,0.0,0.0,0.0,0.0,0.0,0.0,0.0,0.0,0.0,0.0,0.0,0.0,0.0,0.0,0.0,0.0,0.0,0.0,0.0,0.0,0.0,0.0,0.0,0.0,0.0,0.0,0.0,0.0,0.0,0.0,0.0,0.0,0.0,0.0,0.0,0.0,0.0,0.0,0.0,0.0,0.0,0.0,0.0,0.0,0.0],"d_bias":0.0,"activation":0.4345906185831198,"as_respect_z":[0.0,0.0,0.0,0.0,0.0,0.0,0.0,0.0,0.0,0.0,0.0,0.24572161282266106,0.0,0.0,0.0,0.0,0.0,0.0,0.0,0.0,0.0,0.0,0.0,0.0,0.0,0.0,0.0,0.0,0.0,0.0,0.0,0.0,0.0,0.0,0.0,0.0,0.0,0.0,0.0,0.0,0.0,0.0,0.0,0.0,0.0,0.0,0.0,0.0,0.0,0.0,0.0,0.0,0.0,0.0,0.0,0.0,0.0,0.0,0.0,0.0,0.0,0.0,0.0,0.0,0.0,0.0,0.0,0.0,0.0,0.0,0.0,0.0,0.0,0.0,0.0,0.0,0.0,0.0,0.0,0.0]},{"weights":[-0.05889289546064502,-0.17893396234661774,0.07739546477279222,-0.519132576455285,-0.07006682540498609,-0.09437040527654726,-0.8021569143378643,-0.1362466974390208,-0.2682290869835864,-0.395150859503059,-0.2722289507765103,0.6640315318045866,-0.24359177124905795,-0.04554805527974408,-0.00969157793928018,0.07042003626407184,0.30650939414826955,-0.24356489161728848,0.4394643194786815,0.10868738799510728,-0.09041961320037888,0.025401656648353234,0.15390771100056977,0.46144803926757855,-0.3408879641018221,0.17154486955361467,-0.22676353468007143,-0.024836841582764307,-0.27155114865615787,0.09496468214168376,0.05055094339099203,-0.12883515777040877,-0.2921685949406059,-0.10927830876177148,-0.0353485987698721,-0.6392916080721517,-0.19248871553799182,-0.700026976974589,0.08157188210844328,0.40815972528319544,-0.03085819492565161,0.025651745269103573,0.1605861254031286,0.2711080774628821,-0.5573536742698647,-0.23339521120666992,0.02211752517669878,-0.19201821834441418,-0.14600531209631304,-0.21039659060143726,-0.46076241841197374,0.3553672491158516,-0.6284466769334736,0.14860411731049003,0.2280283876030048,-0.1339054719290451,0.1865942825464886,-0.11062343612498102,0.08296407598630609,0.7741232123192553,-0.22568023026616116,-0.5099799116745699,-0.07882650030750525,-0.4389358482538736,-0.30568561059685867,0.27802816285499365,0.3436372643961858,-0.12619470864928012,-0.1483645447402878,0.8496708162475041,-0.21312784229736753,0.019946423915814696,-0.27550700884309465,0.04377764769844006,0.0922236238689324,0.18796466249999336,-0.13068583347125087,-0.4987269035341573,-0.07795978927182343,0.6715965194358313,-0.10183481966536656,0.5741032890794024,0.10235114131739703,-0.3053130221873435,-0.12045768478542439,-0.043160121516397344,-0.28760965914085634,-0.014775737965690556,-0.5040893585357376,-0.17385904961255547,-0.7836518140612677,0.04972354526773568,0.012248690343365193,-0.06634227279078773,0.00864668105838886,0.033271685810747055,0.40009337391511923,-0.0794482862029112,-0.37159385571072673,0.1104662771402984],"bias":-0.0854408666134455,"d_weights":[0.0,0.0,0.0,0.0,0.0,0.0,0.0,0.0,0.0,0.0,0.0,0.0,0.0,0.0,0.0,0.0,0.0,0.0,0.0,0.0,0.0,0.0,0.0,0.0,0.0,0.0,0.0,0.0,0.0,0.0,0.0,0.0,0.0,0.0,0.0,0.0,0.0,0.0,0.0,0.0,0.0,0.0,0.0,0.0,0.0,0.0,0.0,0.0,0.0,0.0,0.0,0.0,0.0,0.0,0.0,0.0,0.0,0.0,0.0,0.0,0.0,0.0,0.0,0.0,0.0,0.0,0.0,0.0,0.0,0.0,0.0,0.0,0.0,0.0,0.0,0.0,0.0,0.0,0.0,0.0,0.0,0.0,0.0,0.0,0.0,0.0,0.0,0.0,0.0,0.0,0.0,0.0,0.0,0.0,0.0,0.0,0.0,0.0,0.0,0.0],"d_bias":0.0,"activation":0.20697652800359762,"as_respect_z":[0.0,0.0,0.0,0.0,0.0,0.0,0.0,0.0,0.0,0.0,0.0,0.0,0.1641372448591736,0.0,0.0,0.0,0.0,0.0,0.0,0.0,0.0,0.0,0.0,0.0,0.0,0.0,0.0,0.0,0.0,0.0,0.0,0.0,0.0,0.0,0.0,0.0,0.0,0.0,0.0,0.0,0.0,0.0,0.0,0.0,0.0,0.0,0.0,0.0,0.0,0.0,0.0,0.0,0.0,0.0,0.0,0.0,0.0,0.0,0.0,0.0,0.0,0.0,0.0,0.0,0.0,0.0,0.0,0.0,0.0,0.0,0.0,0.0,0.0,0.0,0.0,0.0,0.0,0.0,0.0,0.0]},{"weights":[-0.16033111312416085,-0.08094216514800366,0.015155243048914165,-0.13689499806729394,0.09089058725400263,-0.08278679145838053,0.14756944109639525,-0.02503901967142675,-0.00431130472654449,-0.031274339681296476,0.025266528230565716,-0.14454430817841696,-0.005452564464338609,-0.0439241298273383,-0.09502376543330938,0.026546400173511446,0.1393909463223855,0.1700985950909999,-0.1553032856778524,-0.04645986298943478,0.02248299485610073,-0.06733987537432912,-0.1280508649650056,-0.07696495331339133,-0.14170439448383698,-0.08245877052324702,-0.0628147614107285,0.03735068810806564,-0.06314204032765998,-0.0747273524157489,-0.10464898239166477,-0.01257196930803258,0.13416849002252446,-0.16844918460355982,-0.006392994343215012,0.04769047395156477,-0.062141221432351415,0.12348431321009755,-0.059335371783872534,0.002337095805266855,-0.11366625399422721,0.01718881849950032,-0.05545595846324094,0.0827864174850665,0.0986370367997674,-0.09674247121550783,-0.032196184116737615,-0.03736615855535877,-0.03379324322013046,-0.11658002367249695,0.02019184254720263,-0.26594873388278495,0.10410925490265499,0.004310235213573601,-0.037610691362561226,-0.06759588357246843,-0.007937044484500439,-0.09160300125822725,0.12133878762389551,-0.23947163850387135,0.015445754273667315,-0.011649628046130787,-0.0629176432484595,0.11809352261282285,-0.016356893904382736,-0.02411125774409239,-0.03545015739865626,-0.032864230520291436,-0.01998436389558804,-0.207735919136093,-0.04188014083367579,-0.03323823023836296,0.07233404877511791,-0.2646374425079557,-0.133173430931272,-0.09508977071710505,0.07006877655350391,0.13732011740074393,0.008634685420350924,-0.2214907162193078,-0.07002952428082761,-0.15339668328709843,0.0037998984177251374,-0.004135843060422652,-0.010717575150296815,-0.06842059189875155,-0.027677251889194992,-0.042758928100521426,-0.09237895615897805,-0.08497343387311208,0.07084580791995897,0.13897041258228265,-0.057355223503976246,-0.14749883154067606,0.11025162267570117,-0.08072785563684419,-0.11291661761618615,0.0024489922982673515,-0.04426976255315444,-0.05506458509433044],"bias":-0.9276109284178314,"d_weights":[0.0,0.0,0.0,0.0,0.0,0.0,0.0,0.0,0.0,0.0,0.0,0.0,0.0,0.0,0.0,0.0,0.0,0.0,0.0,0.0,0.0,0.0,0.0,0.0,0.0,0.0,0.0,0.0,0.0,0.0,0.0,0.0,0.0,0.0,0.0,0.0,0.0,0.0,0.0,0.0,0.0,0.0,0.0,0.0,0.0,0.0,0.0,0.0,0.0,0.0,0.0,0.0,0.0,0.0,0.0,0.0,0.0,0.0,0.0,0.0,0.0,0.0,0.0,0.0,0.0,0.0,0.0,0.0,0.0,0.0,0.0,0.0,0.0,0.0,0.0,0.0,0.0,0.0,0.0,0.0,0.0,0.0,0.0,0.0,0.0,0.0,0.0,0.0,0.0,0.0,0.0,0.0,0.0,0.0,0.0,0.0,0.0,0.0,0.0,0.0],"d_bias":0.0,"activation":0.08268683210826851,"as_respect_z":[0.0,0.0,0.0,0.0,0.0,0.0,0.0,0.0,0.0,0.0,0.0,0.0,0.0,0.07584971990416751,0.0,0.0,0.0,0.0,0.0,0.0,0.0,0.0,0.0,0.0,0.0,0.0,0.0,0.0,0.0,0.0,0.0,0.0,0.0,0.0,0.0,0.0,0.0,0.0,0.0,0.0,0.0,0.0,0.0,0.0,0.0,0.0,0.0,0.0,0.0,0.0,0.0,0.0,0.0,0.0,0.0,0.0,0.0,0.0,0.0,0.0,0.0,0.0,0.0,0.0,0.0,0.0,0.0,0.0,0.0,0.0,0.0,0.0,0.0,0.0,0.0,0.0,0.0,0.0,0.0,0.0]},{"weights":[0.012647636374764973,0.9055897272073548,-0.033826582550769695,-0.23365256994298317,-0.10514213742711852,-0.3668352086528143,-0.1594858629045515,-0.09394039652854905,0.06722277718425627,-0.440682346499715,0.1289612093323859,0.27536443760995294,0.06714874329794035,0.12688937516136806,-0.6489956754654095,0.06181319445260557,-0.11791638314184368,0.3486591792939379,0.08077948698479498,-0.0440274875132664,0.03014775773967817,-0.14277187209314052,0.664531187176402,-0.2825865198452626,0.17486773473213443,0.06478347533560251,-0.11629359931706627,-0.1096749119873536,0.400553418240147,-0.06636813022057086,0.04841952419694616,-0.047781725020013516,0.1293846184534385,-0.48142089096756774,-0.10600998520122526,-0.6488763027575983,0.10920217185827899,-0.1899674029802972,-0.040873192288742276,-0.19007989082246973,0.23477589687903366,0.4256256893773283,-0.49074265736122863,0.17832636858729395,-0.12639505958507383,0.26249075835702773,-0.02488461885059765,0.10611478520364717,-0.4729070685909925,0.7224498340054353,-0.6808293927436012,0.5999895176525619,0.07446843065510213,0.18661291200192434,0.059517567793034756,0.7729935677696061,0.2795375656543734,-0.0616644924453484,0.5016497847539025,1.1041968058800713,-0.3086313285285999,-0.22529554161965043,0.20053181650156846,-0.030107941547002758,0.012258191272125248,-0.03488043847651246,0.5910680347610645,0.07213598611965569,-0.3552658163195626,0.18779797524496153,0.3005111067938546,0.3385049936432536,0.18130223169318788,0.9645008958238707,0.5686296168921658,-0.4496837160811156,-0.06640723722728333,-0.1768501994178463,-0.46703230744194923,0.4295966134066581,0.33679490645956556,0.5631588116279649,-0.07561673810926797,0.003829797313199405,-0.4136096181862524,0.1138698212757995,0.0978581216126064,-0.012701144696866699,-0.19878016806530435,-0.6449491022613835,0.5616929374122166,-0.46773711588980266,-0.013550089709394043,0.43825487597245977,-0.619514101240325,-0.5851239500309726,-0.06055524745171731,0.2942656656925659,-0.005290037361277717,-0.030913035460361837],"bias":-2.126959353181883,"d_weights":[0.0,0.0,0.0,0.0,0.0,0.0,0.0,0.0,0.0,0.0,0.0,0.0,0.0,0.0,0.0,0.0,0.0,0.0,0.0,0.0,0.0,0.0,0.0,0.0,0.0,0.0,0.0,0.0,0.0,0.0,0.0,0.0,0.0,0.0,0.0,0.0,0.0,0.0,0.0,0.0,0.0,0.0,0.0,0.0,0.0,0.0,0.0,0.0,0.0,0.0,0.0,0.0,0.0,0.0,0.0,0.0,0.0,0.0,0.0,0.0,0.0,0.0,0.0,0.0,0.0,0.0,0.0,0.0,0.0,0.0,0.0,0.0,0.0,0.0,0.0,0.0,0.0,0.0,0.0,0.0,0.0,0.0,0.0,0.0,0.0,0.0,0.0,0.0,0.0,0.0,0.0,0.0,0.0,0.0,0.0,0.0,0.0,0.0,0.0,0.0],"d_bias":0.0,"activation":0.0107941981381224,"as_respect_z":[0.0,0.0,0.0,0.0,0.0,0.0,0.0,0.0,0.0,0.0,0.0,0.0,0.0,0.0,0.010677683424677354,0.0,0.0,0.0,0.0,0.0,0.0,0.0,0.0,0.0,0.0,0.0,0.0,0.0,0.0,0.0,0.0,0.0,0.0,0.0,0.0,0.0,0.0,0.0,0.0,0.0,0.0,0.0,0.0,0.0,0.0,0.0,0.0,0.0,0.0,0.0,0.0,0.0,0.0,0.0,0.0,0.0,0.0,0.0,0.0,0.0,0.0,0.0,0.0,0.0,0.0,0.0,0.0,0.0,0.0,0.0,0.0,0.0,0.0,0.0,0.0,0.0,0.0,0.0,0.0,0.0]},{"weights":[0.04431615142924711,0.3670204785108128,-0.03572154771732642,-0.4025730492224323,0.20282329150229492,-0.2569670384492489,0.03844203639682749,-0.16768206347174347,0.2494066448839498,-0.026957326326774212,-0.46182979966812415,0.18601088160249468,-0.10412715919287317,-0.17687048862837756,-0.03576631696287159,0.4765881793919727,0.10335156164576999,0.3202666427027435,-0.4598973679110266,0.2806484643055582,0.015896388551089463,-0.42078751934655867,0.023306191797707182,0.1358513090287443,0.07675757795033422,-0.28133717207646153,-0.4025562587627597,-0.005329304414442096,0.27200130998162886,-0.09098900063347587,0.5897838517111356,-0.1051971748202322,-0.05808978294978539,-0.17237388048291077,-0.0005011545008475295,-0.13497953371342158,0.3234657643512644,-0.17905870045364858,0.6355922646903234,-0.11203370972526637,0.2403544206764455,0.08204412988197422,-0.012620370282009758,0.1744219838937684,-0.08075338347069162,0.6911087336089129,0.0318494894466819,0.2646444009312034,0.08406398095965548,0.4675390116775395,-0.07452350771417095,-0.023871205003383366,-0.15726957647599532,0.15555258520010143,0.5554235995126181,0.20832490901403639,-0.29735308980220054,-0.15957774107649947,0.13828616167475302,0.10934002191314245,0.1670385947964701,0.01881675907544484,-0.3340160164381733,0.05458609368397795,0.44483610595041617,0.6745009276601622,-0.4550334029508133,-0.009582615637216426,-0.001949382087959405,-0.6736956612597709,0.17001983600326698,0.5098207335973487,-0.05553610858207003,-0.15825931467174778,0.41378368741601335,0.17356089480360964,0.07720256143308273,-0.09338819321708824,-0.10713284410320648,0.0039882966986890325,-0.09559221446956566,0.2892580984840775,0.07391552804234199,0.18532992892199124,0.1963744774329548,0.2419693407929186,-0.023076554955599383,-0.03359562655202988,-0.21489818127454682,-0.24604777186304433,-0.25513662122116415,0.5000036075708834,0.2623200796380227,-0.0533800022835279,0.5455410537403694,0.1108322117259336,0.5571262773962418,0.17284253724238066,-0.11208674336161967,0.2959160967560999],"bias":-1.344876662567301,"d_weights":[0.0,0.0,0.0,0.0,0.0,0.0,0.0,0.0,0.0,0.0,0.0,0.0,0.0,0.0,0.0,0.0,0.0,0.0,0.0,0.0,0.0,0.0,0.0,0.0,0.0,0.0,0.0,0.0,0.0,0.0,0.0,0.0,0.0,0.0,0.0,0.0,0.0,0.0,0.0,0.0,0.0,0.0,0.0,0.0,0.0,0.0,0.0,0.0,0.0,0.0,0.0,0.0,0.0,0.0,0.0,0.0,0.0,0.0,0.0,0.0,0.0,0.0,0.0,0.0,0.0,0.0,0.0,0.0,0.0,0.0,0.0,0.0,0.0,0.0,0.0,0.0,0.0,0.0,0.0,0.0,0.0,0.0,0.0,0.0,0.0,0.0,0.0,0.0,0.0,0.0,0.0,0.0,0.0,0.0,0.0,0.0,0.0,0.0,0.0,0.0],"d_bias":0.0,"activation":0.016342639792757168,"as_respect_z":[0.0,0.0,0.0,0.0,0.0,0.0,0.0,0.0,0.0,0.0,0.0,0.0,0.0,0.0,0.0,0.016075557917361358,0.0,0.0,0.0,0.0,0.0,0.0,0.0,0.0,0.0,0.0,0.0,0.0,0.0,0.0,0.0,0.0,0.0,0.0,0.0,0.0,0.0,0.0,0.0,0.0,0.0,0.0,0.0,0.0,0.0,0.0,0.0,0.0,0.0,0.0,0.0,0.0,0.0,0.0,0.0,0.0,0.0,0.0,0.0,0.0,0.0,0.0,0.0,0.0,0.0,0.0,0.0,0.0,0.0,0.0,0.0,0.0,0.0,0.0,0.0,0.0,0.0,0.0,0.0,0.0]},{"weights":[-0.05235914156458803,-0.02249684486241469,0.024537766378523396,0.038593680084163764,-0.02095290919487606,-0.0983275584477439,-0.06315949701369636,0.03835183829606145,0.0016576021848998177,0.07828629419534773,-0.08589253310468686,-0.03340115017809097,-0.010057020813784434,0.013974584114130962,-0.036651067522549284,-0.034889844999299334,-0.05006272026133134,-0.054389006525818656,-0.11340375111215335,-0.08402573731253904,-0.04108778381511315,0.0011906228922028705,-0.09399905830090091,-0.03924651197813052,-0.059179542859192524,-0.07073518512082576,0.015401684884258653,-0.0004873595208507328,-0.10475684466976991,-0.06981260011346158,-0.0671849254883275,0.008447755101580945,-0.04539417522768097,-0.02832564860001399,-0.05159360566549706,0.07372016184375232,-0.033200819606046796,0.0036058126565769724,-0.13513163440980233,0.055002223728348856,-0.08890156672768816,0.00540900422519579,0.06487874681497315,-0.08850816347910025,0.08042638864776033,-0.09956663267666206,0.008421186686683131,-0.027399233811519087,-0.17524907828132893,-0.05111046022095869,0.003201959015220725,-0.01691116692790574,0.01320333958544422,0.025063265944162784,0.015792388470584832,0.0170137689152528,-0.014633193125584356,0.003997321652922748,-0.033971770806643556,-0.048168523661092845,-0.0672276694061202,-0.0687307264147002,-0.06853362090816145,-0.07606226189647096,-0.10081978140078605,-0.004652838571089773,-0.035784748916416476,0.02307884120290154,-0.03222884291013764,-0.10459287433188932,-0.027021041383601556,-0.02882966255531126,0.08326633634037794,-0.015275844689211289,-0.04516492052936937,-0.030835288218923763,-0.0724080858158081,-0.11309261808180351,-0.08511439083541604,0.003476747900856275,0.01828786681500994,-0.035288020964389245,-0.02193890909773484,-0.033835066542594945,0.04135890173642272,-0.12007483260838002,0.0038281571956954633,0.0477065154418559,0.12154140889313692,0.057398555048796866,0.0035058034221586752,-0.07818792217259117,-0.07753966776404,-0.03519667134192871,0.0005457542523920752,0.003741987903474191,-0.07516578352693608,-0.06029111354715399,0.05260555879518817,-0.04487164254771209],"bias":-1.55817528460612,"d_weights":[0.0,0.0,0.0,0.0,0.0,0.0,0.0,0.0,0.0,0.0,0.0,0.0,0.0,0.0,0.0,0.0,0.0,0.0,0.0,0.0,0.0,0.0,0.0,0.0,0.0,0.0,0.0,0.0,0.0,0.0,0.0,0.0,0.0,0.0,0.0,0.0,0.0,0.0,0.0,0.0,0.0,0.0,0.0,0.0,0.0,0.0,0.0,0.0,0.0,0.0,0.0,0.0,0.0,0.0,0.0,0.0,0.0,0.0,0.0,0.0,0.0,0.0,0.0,0.0,0.0,0.0,0.0,0.0,0.0,0.0,0.0,0.0,0.0,0.0,0.0,0.0,0.0,0.0,0.0,0.0,0.0,0.0,0.0,0.0,0.0,0.0,0.0,0.0,0.0,0.0,0.0,0.0,0.0,0.0,0.0,0.0,0.0,0.0,0.0,0.0],"d_bias":0.0,"activation":0.14889805390370345,"as_respect_z":[0.0,0.0,0.0,0.0,0.0,0.0,0.0,0.0,0.0,0.0,0.0,0.0,0.0,0.0,0.0,0.0,0.12672742344739327,0.0,0.0,0.0,0.0,0.0,0.0,0.0,0.0,0.0,0.0,0.0,0.0,0.0,0.0,0.0,0.0,0.0,0.0,0.0,0.0,0.0,0.0,0.0,0.0,0.0,0.0,0.0,0.0,0.0,0.0,0.0,0.0,0.0,0.0,0.0,0.0,0.0,0.0,0.0,0.0,0.0,0.0,0.0,0.0,0.0,0.0,0.0,0.0,0.0,0.0,0.0,0.0,0.0,0.0,0.0,0.0,0.0,0.0,0.0,0.0,0.0,0.0,0.0]},{"weights":[0.07424276425617625,-0.15117064526495372,-0.08086552659099723,-0.34427115608744646,-0.0774687260033905,-0.21090872465549548,-0.5194345753950175,-0.12310416068157005,-0.18554316254900963,-0.27007598027109303,0.04822985641779242,0.5189521206768736,-0.05623438315980065,0.15353747569819418,-0.3082039691536772,-0.20940770323423433,0.2746113350630362,-0.09716211154857675,0.4537703774550643,-0.10498674580361265,0.03580699536420764,0.19972433338495846,0.2896210302391848,0.1221928416156944,-0.28588958486995564,0.1225090930631551,-0.1332458979894445,-0.09476219858548802,-0.09959370161056798,0.027114778173185333,-0.17504905986920669,-0.15180714767534165,-0.12197095186427787,-0.19976635207845483,-0.0034072173853448126,-0.5083507008193939,-0.11521763572472479,-0.36047912847878516,-0.17554474876774176,0.31987098800621555,-0.11097788177472832,0.00946241764506629,0.07462643556025998,0.13971067879293878,-0.46960775793813453,-0.2941677474090885,-0.12195856920726199,-0.21437175417551155,-0.2139248815554048,-0.10438911640610997,-0.3803543245217659,0.32172573497055,-0.3500184221101132,0.12660388498490652,0.04347997203754794,-0.008283996746367317,0.3838588265213626,-0.21071392611237993,0.23399298316775,0.8191016432248245,-0.31951612145909386,-0.4296773726871947,0.03567832542794079,-0.3783694537805515,-0.25202601873473784,-0.07479283743345652,0.6348469502340556,-0.0436936500966865,-0.2776018789134708,0.9448691837232478,-0.18375451331207943,-0.3220499211353611,-0.08428004970619464,0.29894633052823766,0.03056989513121435,0.013359093251851363,-0.20328173387299464,-0.201633833321035,-0.07323842254193631,0.4136631555721903,0.05121188374565455,0.5330903480119341,-0.0036169526475301017,-0.352899322591941,-0.1305250672084177,-0.15587574269176674,-0.1220618176797527,-0.02285500254284154,-0.2248124989962684,-0.16852101018974835,-0.20791909649082732,-0.15243635043889708,-0.0946998221516987,-0.08744096261190767,-0.37475726962759676,-0.16143257863031937,0.032395885058974144,-0.05331880114497304,-0.2861648063072271,-0.12382578254545104],"bias":-0.20409394752821222,"d_weights":[0.0,0.0,0.0,0.0,0.0,0.0,0.0,0.0,0.0,0.0,0.0,0.0,0.0,0.0,0.0,0.0,0.0,0.0,0.0,0.0,0.0,0.0,0.0,0.0,0.0,0.0,0.0,0.0,0.0,0.0,0.0,0.0,0.0,0.0,0.0,0.0,0.0,0.0,0.0,0.0,0.0,0.0,0.0,0.0,0.0,0.0,0.0,0.0,0.0,0.0,0.0,0.0,0.0,0.0,0.0,0.0,0.0,0.0,0.0,0.0,0.0,0.0,0.0,0.0,0.0,0.0,0.0,0.0,0.0,0.0,0.0,0.0,0.0,0.0,0.0,0.0,0.0,0.0,0.0,0.0,0.0,0.0,0.0,0.0,0.0,0.0,0.0,0.0,0.0,0.0,0.0,0.0,0.0,0.0,0.0,0.0,0.0,0.0,0.0,0.0],"d_bias":0.0,"activation":0.36613579627214476,"as_respect_z":[0.0,0.0,0.0,0.0,0.0,0.0,0.0,0.0,0.0,0.0,0.0,0.0,0.0,0.0,0.0,0.0,0.0,0.23208037496030726,0.0,0.0,0.0,0.0,0.0,0.0,0.0,0.0,0.0,0.0,0.0,0.0,0.0,0.0,0.0,0.0,0.0,0.0,0.0,0.0,0.0,0.0,0.0,0.0,0.0,0.0,0.0,0.0,0.0,0.0,0.0,0.0,0.0,0.0,0.0,0.0,0.0,0.0,0.0,0.0,0.0,0.0,0.0,0.0,0.0,0.0,0.0,0.0,0.0,0.0,0.0,0.0,0.0,0.0,0.0,0.0,0.0,0.0,0.0,0.0,0.0,0.0]},{"weights":[-0.17043730911125918,-0.44429918536922436,0.021927269412528427,0.4704406486441515,0.38307241056081537,0.9171324158049436,0.40578070340289385,-0.09337257385747746,-0.25962437248281645,0.5331653353465446,-0.006325270555463029,0.09712261309088259,-0.6801043450083669,-0.03848737111988391,-0.4069139081227016,-0.48016088136788654,-0.49450369505737074,-1.1219547400924585,-0.6601143539143454,0.12430688781649563,-0.038345512670722955,-0.024985830253318055,-0.07586250535128189,0.15747720964093034,-0.2091110009255547,0.2849784665562446,0.1434144742296328,-0.008234202853168816,0.20425653131005353,0.26919068489775533,0.08473382154099818,0.02666699856068397,0.11174217923146876,0.04456632423004929,0.11019308716096025,0.8010479810424657,0.10021582708484508,0.08654596852122105,0.4373467963732356,0.007495134743181778,-0.3927472446923554,-0.4313091409285762,0.611121318066202,-0.49171699580238865,-0.652613373371175,0.17021645109016142,0.0666265865889952,-0.034258429674443376,-0.09461479354577461,-0.24400402736442264,0.24855735893562972,-0.5319026563106264,0.015510343526202612,-0.017356115073637414,-0.5330099005978086,-0.3261683314726599,0.24556093097566178,-0.6133388244595702,-0.8204993725040916,-0.4531323844754468,0.022382743849281985,0.8748997584765539,-0.10240055537358714,0.2921064868191489,0.5146287537092789,-0.44742523126882355,-0.44481813516269386,0.03600423755732844,-0.20212228216468528,-0.061838986715234724,0.20087042523824147,-0.33134098163965103,-0.7969724110980257,-0.5793398309996186,-0.26504406652995205,0.16635302842900784,0.0005493795529430867,0.1474726700352194,-0.1775443597682024,-0.43528036437878626,-0.09836332407802172,-0.403388467992941,-0.03493287302746843,-0.194636572933445,-0.046882263204274924,-0.3574088959154779,0.11072399383596139,0.0808274966506754,0.23819154302926202,0.31932047091772153,-0.3265922071797607,-0.2554178768327869,-0.4532919842733743,-0.6012690926587422,-0.12499826652151798,0.25994251086575104,-0.14817935189922957,0.19026821981760877,-0.08302594522143909,-0.3578714462660804],"bias":1.1303425181574582,"d_weights":[0.0,0.0,0.0,0.0,0.0,0.0,0.0,0.0,0.0,0.0,0.0,0.0,0.0,0.0,0.0,0.0,0.0,0.0,0.0,0.0,0.0,0.0,0.0,0.0,0.0,0.0,0.0,0.0,0.0,0.0,0.0,0.0,0.0,0.0,0.0,0.0,0.0,0.0,0.0,0.0,0.0,0.0,0.0,0.0,0.0,0.0,0.0,0.0,0.0,0.0,0.0,0.0,0.0,0.0,0.0,0.0,0.0,0.0,0.0,0.0,0.0,0.0,0.0,0.0,0.0,0.0,0.0,0.0,0.0,0.0,0.0,0.0,0.0,0.0,0.0,0.0,0.0,0.0,0.0,0.0,0.0,0.0,0.0,0.0,0.0,0.0,0.0,0.0,0.0,0.0,0.0,0.0,0.0,0.0,0.0,0.0,0.0,0.0,0.0,0.0],"d_bias":0.0,"activation":0.8817570653764846,"as_respect_z":[0.0,0.0,0.0,0.0,0.0,0.0,0.0,0.0,0.0,0.0,0.0,0.0,0.0,0.0,0.0,0.0,0.0,0.0,0.10426154303513449,0.0,0.0,0.0,0.0,0.0,0.0,0.0,0.0,0.0,0.0,0.0,0.0,0.0,0.0,0.0,0.0,0.0,0.0,0.0,0.0,0.0,0.0,0.0,0.0,0.0,0.0,0.0,0.0,0.0,0.0,0.0,0.0,0.0,0.0,0.0,0.0,0.0,0.0,0.0,0.0,0.0,0.0,0.0,0.0,0.0,0.0,0.0,0.0,0.0,0.0,0.0,0.0,0.0,0.0,0.0,0.0,0.0,0.0,0.0,0.0,0.0]},{"weights":[-0.12187121038678972,-0.11951378825101366,0.09453658469003477,0.11975879589870911,-0.1401160169183864,0.21664966057989377,-0.08033434276104075,-0.019295353549718775,-0.12211071956643506,0.03528791945685329,-0.21066193802694227,0.167082294647117,-0.18719890593540986,-0.1225990574833438,-0.22804270054646467,0.04176013420923783,-0.22747879942124358,-0.2822702372345664,-0.2714158922072384,0.03063118798259418,-0.04469164283142003,-0.23110451015761552,-0.1357413572523552,0.23999805491330398,-0.2156321069382028,-0.04292658420824491,0.0033088535992915544,0.05389875506745223,-0.2698992881841679,0.04028023875085384,0.18250920549215946,-0.008799625206656444,-0.178082816350057,-0.133950282722013,0.1307252016155,0.25070345285925727,-0.13565562933485617,-0.07037922589054345,0.01508609180107776,0.3491320455633708,-0.1605470587612883,-0.09889924260667174,0.5362264058238916,-0.0029201003495123935,-0.147661140731269,-0.16258827421057268,-0.02479945392967428,-0.10665139203903039,-0.16113913100227978,-0.24027745369872586,-0.0343845068582968,0.02276326907245353,-0.33958490036453387,0.05903780015680157,0.10825453132301262,-0.116770434923805,0.027146606656343376,-0.10952919999437201,-0.24515316854206642,-0.028485526242202613,0.013828802614240191,-0.022148307146629118,-0.1769979017507266,-0.08330914675061923,-0.044390411192383655,0.2010911948932658,-0.19237225186306872,0.062071357191657635,0.04584129329707871,-0.09798389870807984,-0.11937788843198731,-0.03801947518613806,-0.10886867266246347,-0.2595173211145194,-0.00936776113750189,0.1845345155475904,-0.2230756708473942,-0.1822715179040648,-0.19690246027290842,0.14431296257460588,-0.1409878406236655,0.09910273754921488,0.038597901560491414,-0.2125114107038307,-0.06693021301100101,-0.23379347966324013,-0.04756080272159101,0.04423150324338231,-0.15000258241117062,-0.1253683089729188,-0.3466537108591107,-0.11254440397413602,-0.17549309656226522,-0.14086358445939007,-0.11799497990886576,0.24568337259195322,0.02119295632532649,-0.052144264132796665,-0.03282939611834948,-0.08414737388761497],"bias":0.6927799121288655,"d_weights":[0.0,0.0,0.0,0.0,0.0,0.0,0.0,0.0,0.0,0.0,0.0,0.0,0.0,0.0,0.0,0.0,0.0,0.0,0.0,0.0,0.0,0.0,0.0,0.0,0.0,0.0,0.0,0.0,0.0,0.0,0.0,0.0,0.0,0.0,0.0,0.0,0.0,0.0,0.0,0.0,0.0,0.0,0.0,0.0,0.0,0.0,0.0,0.0,0.0,0.0,0.0,0.0,0.0,0.0,0.0,0.0,0.0,0.0,0.0,0.0,0.0,0.0,0.0,0.0,0.0,0.0,0.0,0.0,0.0,0.0,0.0,0.0,0.0,0.0,0.0,0.0,0.0,0.0,0.0,0.0,0.0,0.0,0.0,0.0,0.0,0.0,0.0,0.0,0.0,0.0,0.0,0.0,0.0,0.0,0.0,0.0,0.0,0.0,0.0,0.0],"d_bias":0.0,"activation":0.4798310121083235,"as_respect_z":[0.0,0.0,0.0,0.0,0.0,0.0,0.0,0.0,0.0,0.0,0.0,0.0,0.0,0.0,0.0,0.0,0.0,0.0,0.0,0.24959321192742537,0.0,0.0,0.0,0.0,0.0,0.0,0.0,0.0,0.0,0.0,0.0,0.0,0.0,0.0,0.0,0.0,0.0,0.0,0.0,0.0,0.0,0.0,0.0,0.0,0.0,0.0,0.0,0.0,0.0,0.0,0.0,0.0,0.0,0.0,0.0,0.0,0.0,0.0,0.0,0.0,0.0,0.0,0.0,0.0,0.0,0.0,0.0,0.0,0.0,0.0,0.0,0.0,0.0,0.0,0.0,0.0,0.0,0.0,0.0,0.0]},{"weights":[-0.13691623610544437,-0.05500883123183415,0.036052938142609216,0.3502845975423062,-0.3250308520484866,-0.01869059862507101,-0.07000224531556798,0.17059076210955004,-0.11616986512873484,0.017138231610018997,-0.06916360669632149,-0.17332685122457628,-0.2004023473499521,-0.043263177440269904,-0.094147438269812,-0.2396061316827927,-0.7317091701363644,-0.5385227440002011,-0.2663367782965365,-0.15421136114081896,-0.051617440138264005,-0.20051167700384417,-0.27097829122452616,-0.06381956007921366,-0.2600674695171498,-0.07594420904837898,0.4094200793681028,0.07455769817039762,-0.46458330916033874,0.12888404917883428,0.11827943949697911,0.05212431750726472,-0.08800060117550622,0.012213472199302973,0.1757743611714378,0.6301025382771457,-0.22738746456538095,0.02736463726350839,-0.29713971268520567,0.2559974982603783,-0.4251446588353154,-0.1023356714288415,0.44480483086786693,-0.23985219932229365,0.19690289668459446,-0.5507329864600656,-0.09123910760971002,-0.12555223426971443,-0.42371293788210646,-0.16338477046013283,0.029770294475357686,0.11981530968198856,-0.09907407995425667,-0.027344838102539425,-0.0646568116993171,-0.048686090715563415,-0.12004492831718264,-0.02047191036966359,-0.2733871185561413,-0.26881648994323726,-0.052035103681629245,-0.0475029544210654,-0.17080134060074914,-0.003797510594533855,-0.47819904701647065,-0.2044900050214333,-0.10139987917800186,-0.02323183691214567,0.18267706951735738,-0.4188175716621553,-0.10251583004207065,0.005799829748718774,-0.0738754899642258,-0.30637090395545175,-0.06289386364679815,-0.029401649055166002,-0.26403728517849556,-0.12491405185025904,-0.2774854300341021,-0.024188657213280736,-0.07174477795245808,-0.061759050450004786,-0.04935557960675194,-0.11262401678409951,-0.1407856720031626,-0.4168977331562301,0.18579886129709974,0.008498201858754377,0.25245251007303954,-0.20926153370159203,-0.06417523484936433,-0.64729831767628,-0.3401977920363526,-0.05750536816698616,-0.33208962099244077,-0.02233938400786897,-0.4089156459093162,-0.015524129749940248,0.11176538594219165,-0.4729133369809127],"bias":1.9190367085504396,"d_weights":[0.0,0.0,0.0,0.0,0.0,0.0,0.0,0.0,0.0,0.0,0.0,0.0,0.0,0.0,0.0,0.0,0.0,0.0,0.0,0.0,0.0,0.0,0.0,0.0,0.0,0.0,0.0,0.0,0.0,0.0,0.0,0.0,0.0,0.0,0.0,0.0,0.0,0.0,0.0,0.0,0.0,0.0,0.0,0.0,0.0,0.0,0.0,0.0,0.0,0.0,0.0,0.0,0.0,0.0,0.0,0.0,0.0,0.0,0.0,0.0,0.0,0.0,0.0,0.0,0.0,0.0,0.0,0.0,0.0,0.0,0.0,0.0,0.0,0.0,0.0,0.0,0.0,0.0,0.0,0.0,0.0,0.0,0.0,0.0,0.0,0.0,0.0,0.0,0.0,0.0,0.0,0.0,0.0,0.0,0.0,0.0,0.0,0.0,0.0,0.0],"d_bias":0.0,"activation":0.7451751922978976,"as_respect_z":[0.0,0.0,0.0,0.0,0.0,0.0,0.0,0.0,0.0,0.0,0.0,0.0,0.0,0.0,0.0,0.0,0.0,0.0,0.0,0.0,0.18988912508168893,0.0,0.0,0.0,0.0,0.0,0.0,0.0,0.0,0.0,0.0,0.0,0.0,0.0,0.0,0.0,0.0,0.0,0.0,0.0,0.0,0.0,0.0,0.0,0.0,0.0,0.0,0.0,0.0,0.0,0.0,0.0,0.0,0.0,0.0,0.0,0.0,0.0,0.0,0.0,0.0,0.0,0.0,0.0,0.0,0.0,0.0,0.0,0.0,0.0,0.0,0.0,0.0,0.0,0.0,0.0,0.0,0.0,0.0,0.0]},{"weights":[-0.11719041822505899,-0.04997835140277788,0.0735105802080824,-0.0050044484720404795,-0.166453677286095,0.12773325193392043,0.030995952746335962,0.17341309543084624,-0.09836555406118332,-0.020942742480820505,0.2828701426775771,-0.01867855900698784,-0.16433752256510825,-0.011332704072518586,-0.3237070319303477,-0.07266744509449045,-0.10391294800840942,-0.1433965414516557,0.0523290248958591,-0.07566784420889876,-0.024337963513121598,-0.10987152187802997,0.05171240534316738,0.001221980675870094,-0.11446332333529248,0.2629949600164569,-0.018655383020141525,0.0468440956909547,-0.151375194701985,0.2008545912734563,0.08128128708773814,-0.03629479842924963,0.028574439809477915,-0.09055523043952422,0.1057257085976522,0.18342938194624336,-0.14954801872002216,0.044447970060447185,0.10962517099164536,0.1787524113486506,-0.14827014702714533,-0.08529933171740087,0.16345191590200137,0.13761438781566857,-0.17925033406887164,-0.17125519534609154,-0.04109556374797154,-0.09159339080149265,-0.15571380079045644,-0.040480748754865965,-0.10347083824058417,0.035924120829729456,-0.05334209297085723,-0.0588021632967156,-0.1376879208640771,-0.019635408434225225,0.21061657373864384,-0.14860924357706365,0.015570375945111521,-0.08357305157353069,0.0452749899800058,0.07199491875112622,0.05932623749783911,0.16142497047670804,-0.12758043021243778,-0.1862284509517911,-0.026090888663249986,-0.012532015283560518,0.08326561265856111,-0.02135535188514223,0.03320675162995436,-0.08305774216572862,-0.30524738833888443,-0.021647709061811776,-0.05584210894413604,-0.1880007977533299,0.018491095421314697,0.1781476369351811,-0.06336853814288242,-0.02752449189220296,0.008403441913934,-0.09729023691424853,0.0003371882913141739,-0.17148992538427915,-0.1478225675864773,-0.006738208089151962,0.2329895321677798,-0.027163913467273385,-0.11428188598465096,-0.2122512411607706,-0.034166820975267714,-0.23299354718287404,-0.08425628077339421,-0.07292529134417593,-0.25686620234438695,-0.26433772551234924,-0.2838823827903402,0.10450932728245108,-0.06167610450956353,-0.09040612438075203],"bias":-0.5927099736694472,"d_weights":[0.0,0.0,0.0,0.0,0.0,0.0,0.0,0.0,0.0,0.0,0.0,0.0,0.0,0.0,0.0,0.0,0.0,0.0,0.0,0.0,0.0,0.0,0.0,0.0,0.0,0.0,0.0,0.0,0.0,0.0,0.0,0.0,0.0,0.0,0.0,0.0,0.0,0.0,0.0,0.0,0.0,0.0,0.0,0.0,0.0,0.0,0.0,0.0,0.0,0.0,0.0,0.0,0.0,0.0,0.0,0.0,0.0,0.0,0.0,0.0,0.0,0.0,0.0,0.0,0.0,0.0,0.0,0.0,0.0,0.0,0.0,0.0,0.0,0.0,0.0,0.0,0.0,0.0,0.0,0.0,0.0,0.0,0.0,0.0,0.0,0.0,0.0,0.0,0.0,0.0,0.0,0.0,0.0,0.0,0.0,0.0,0.0,0.0,0.0,0.0],"d_bias":0.0,"activation":0.22240725795766222,"as_respect_z":[0.0,0.0,0.0,0.0,0.0,0.0,0.0,0.0,0.0,0.0,0.0,0.0,0.0,0.0,0.0,0.0,0.0,0.0,0.0,0.0,0.0,0.1729422695654161,0.0,0.0,0.0,0.0,0.0,0.0,0.0,0.0,0.0,0.0,0.0,0.0,0.0,0.0,0.0,0.0,0.0,0.0,0.0,0.0,0.0,0.0,0.0,0.0,0.0,0.0,0.0,0.0,0.0,0.0,0.0,0.0,0.0,0.0,0.0,0.0,0.0,0.0,0.0,0.0,0.0,0.0,0.0,0.0,0.0,0.0,0.0,0.0,0.0,0.0,0.0,0.0,0.0,0.0,0.0,0.0,0.0,0.0]},{"weights":[0.46606711962941966,-0.027510218219041184,-0.049712832364637825,-0.17586002713127216,-0.09660433975792955,0.1046343990055887,-0.06841355376675044,-0.02114333841404126,-0.07644617431914828,0.45512055731957207,-0.42547028198330067,0.2777534010052926,-0.21663477312046195,0.5066034639064256,0.592585070238461,-0.19969608720859508,-0.03190883041793867,-0.04083688637576416,-0.15759597277178214,-0.245327230533738,0.034696178756154446,0.5448715585413038,0.1287990001002261,-0.12252111757676046,-0.018787893764193132,-0.05615773510481275,-0.049674983638259645,-0.006663466806351181,0.15272990181321713,-0.19792787964279318,-0.03636518712600013,-0.1011830429448189,-0.3510759099677862,-0.12514637402072842,-0.009217803489190624,0.12383804816520379,0.13540815322120708,-0.1555987710965732,0.2172957076268082,-0.12438330063715135,0.032609877573416456,-0.19312146597665517,0.23037745193991827,-0.14882513782383938,-0.3121628156727558,0.455636784406846,-0.05018332748905049,0.0027144091725249,0.017247980795410088,0.2181241515031285,-0.11348763347348154,-0.12744686739696107,-0.5605680609175192,0.1247910427714009,-0.14225364114038974,-0.03621151859230819,-0.16738333375422262,-0.42420020699763256,-0.11644714184988339,-0.016856552079493107,0.16320961794792868,0.06663150022667728,-0.09001726143063665,-0.5018848921009755,0.2211972446358893,-0.2808112222282691,0.045761582368725004,-0.08213749933897696,-0.13616733443953413,0.01447963201411255,-0.13616848592244193,-0.20439237760769824,-0.08760740160748677,0.020023624438623874,-0.02056319864170347,0.26879984214691727,-0.24636573889747396,-0.32544197832356886,-0.20330589779587285,-0.07865617261784898,0.09807121621826685,-0.04110668474757728,-0.028926331720876556,-0.22935994175371432,0.4096129173908336,-0.017895197508289495,-0.19622748751246308,-0.050819741066488386,0.4508003171547098,0.18081951752795075,-0.5271542988099802,-0.1803099306493199,0.2564228786938846,-0.18664018038549046,-0.2717030690998063,0.06396325904401083,0.19341528220369955,-0.2395838596582672,-0.15431539268500727,0.09701621393933685],"bias":-0.9546564259703532,"d_weights":[0.0,0.0,0.0,0.0,0.0,0.0,0.0,0.0,0.0,0.0,0.0,0.0,0.0,0.0,0.0,0.0,0.0,0.0,0.0,0.0,0.0,0.0,0.0,0.0,0.0,0.0,0.0,0.0,0.0,0.0,0.0,0.0,0.0,0.0,0.0,0.0,0.0,0.0,0.0,0.0,0.0,0.0,0.0,0.0,0.0,0.0,0.0,0.0,0.0,0.0,0.0,0.0,0.0,0.0,0.0,0.0,0.0,0.0,0.0,0.0,0.0,0.0,0.0,0.0,0.0,0.0,0.0,0.0,0.0,0.0,0.0,0.0,0.0,0.0,0.0,0.0,0.0,0.0,0.0,0.0,0.0,0.0,0.0,0.0,0.0,0.0,0.0,0.0,0.0,0.0,0.0,0.0,0.0,0.0,0.0,0.0,0.0,0.0,0.0,0.0],"d_bias":0.0,"activation":0.7681337964590008,"as_respect_z":[0.0,0.0,0.0,0.0,0.0,0.0,0.0,0.0,0.0,0.0,0.0,0.0,0.0,0.0,0.0,0.0,0.0,0.0,0.0,0.0,0.0,0.0,0.17810426719648312,0.0,0.0,0.0,0.0,0.0,0.0,0.0,0.0,0.0,0.0,0.0,0.0,0.0,0.0,0.0,0.0,0.0,0.0,0.0,0.0,0.0,0.0,0.0,0.0,0.0,0.0,0.0,0.0,0.0,0.0,0.0,0.0,0.0,0.0,0.0,0.0,0.0,0.0,0.0,0.0,0.0,0.0,0.0,0.0,0.0,0.0,0.0,0.0,0.0,0.0,0.0,0.0,0.0,0.0,0.0,0.0,0.0]},{"weights":[-0.18730737208768536,-0.05673020803178637,0.00030360935494889004,0.31040129465952265,-0.356416621715681,0.4550085886444293,0.07945239907850148,0.13649151840660873,-0.14905705200948483,-0.17135259614789858,0.1214503631792394,-0.0999774128885987,-0.11294695763064701,-0.10491931334571666,-0.592177427977784,-0.2361496509017802,-0.39844672528425373,-0.5259048232178554,-0.15296567567075092,-0.05913155804462377,-0.008481060018722033,-0.3714102831309903,-0.13396250551815994,-0.01282766349588274,-0.46145251187150926,0.034316884071266235,-0.07825210466679325,0.014149799762562485,-0.3792195068741272,0.1540461252394012,0.15791488123116457,0.06072683727418784,0.05425344313927201,0.07917470795530891,0.21186756909583565,0.5384237344645701,-0.15745602162309175,0.3198201350011615,0.05824044543940349,-0.04012076313337595,-0.29820139039505794,-0.04029640122468293,0.30598684506177254,-0.1460648128189505,0.06776015361457263,-0.3937652080699474,-0.004479581865394761,-0.13757103056619602,-0.5638443961358004,-0.2250350763950027,-0.2096328658255739,0.21579267303292407,-0.09355614012901044,-0.06357728417244242,-0.1157932463533682,-0.1221606275605919,0.19071003929142996,-0.18594613589027814,-0.3111384398826743,-0.08429261684701836,-0.13942324443282586,0.10522073071554598,0.04241070376635466,0.04206387759865217,-0.3566554516069888,-0.27572576450688413,-0.025623343913083265,0.09583197652352003,0.04080449630484892,-0.3360590111487381,0.0700329671012213,-0.05074304165342413,0.008155038159369816,-0.26154622977844244,-0.03549046647814736,-0.009536307852815711,-0.21824606469859306,-0.0214489532237233,-0.24384846742175098,0.27671416112937114,-0.15946379881661793,0.014410253661284062,0.0034474575125406537,-0.13125521518008848,-0.21507860586093316,-0.26034954982777037,0.2296896694997141,0.047988672199022475,-0.1654369055805813,-0.5439560387020936,0.10987141846651136,-0.6548027580160163,-0.24398821594257636,-0.09472383535776002,-0.4590859505203716,-0.05048499880096,-0.5016747541052746,0.2170188308514215,0.09339812166030531,-0.36607749253406946],"bias":0.6560435160429767,"d_weights":[0.0,0.0,0.0,0.0,0.0,0.0,0.0,0.0,0.0,0.0,0.0,0.0,0.0,0.0,0.0,0.0,0.0,0.0,0.0,0.0,0.0,0.0,0.0,0.0,0.0,0.0,0.0,0.0,0.0,0.0,0.0,0.0,0.0,0.0,0.0,0.0,0.0,0.0,0.0,0.0,0.0,0.0,0.0,0.0,0.0,0.0,0.0,0.0,0.0,0.0,0.0,0.0,0.0,0.0,0.0,0.0,0.0,0.0,0.0,0.0,0.0,0.0,0.0,0.0,0.0,0.0,0.0,0.0,0.0,0.0,0.0,0.0,0.0,0.0,0.0,0.0,0.0,0.0,0.0,0.0,0.0,0.0,0.0,0.0,0.0,0.0,0.0,0.0,0.0,0.0,0.0,0.0,0.0,0.0,0.0,0.0,0.0,0.0,0.0,0.0],"d_bias":0.0,"activation":0.11551290414019993,"as_respect_z":[0.0,0.0,0.0,0.0,0.0,0.0,0.0,0.0,0.0,0.0,0.0,0.0,0.0,0.0,0.0,0.0,0.0,0.0,0.0,0.0,0.0,0.0,0.0,0.10216967311729692,0.0,0.0,0.0,0.0,0.0,0.0,0.0,0.0,0.0,0.0,0.0,0.0,0.0,0.0,0.0,0.0,0.0,0.0,0.0,0.0,0.0,0.0,0.0,0.0,0.0,0.0,0.0,0.0,0.0,0.0,0.0,0.0,0.0,0.0,0.0,0.0,0.0,0.0,0.0,0.0,0.0,0.0,0.0,0.0,0.0,0.0,0.0,0.0,0.0,0.0,0.0,0.0,0.0,0.0,0.0,0.0]},{"weights":[-0.36454838027473596,0.04199587081708239,-0.04369057879756061,-0.03811918456805762,0.2192135019356267,0.086986809532814,0.44661822722660066,-0.1941750502752938,0.11858459404267165,-0.22450621427628498,1.0147259325732925,-0.005578990099321019,-0.07360501378909347,-0.15407723796228487,-1.1246094052530218,-0.26165997369023397,0.08354086011068772,0.037730113339577126,0.07670219209592556,0.1625395612096339,-0.015138799504002239,-0.25008931667845635,0.5013956184506373,-0.1806217551637622,-0.2517458647940023,0.301459353937041,-0.12895510337129076,-0.015170488763041366,0.14284772838248536,0.14332815333460142,-0.36764563310999737,-0.14648362519625488,0.6498599120699337,-0.3656887108783579,-0.01013818316799538,0.17529260765004812,-0.07304692853701084,0.18948755280504131,0.09334395256327122,-0.4709603880020581,-0.007911682200423757,0.34960776899459967,-0.33380670532624834,0.1576195256919022,-0.41280343026737715,-0.026410468338369335,-0.04218309309030845,0.22816687376111333,-0.3195285874384375,0.12342979806110789,-0.19191330281530541,-0.01661686448163623,0.23177451850405284,-0.14577043291307923,-0.5984660362505503,0.53539650575896,0.543282948846048,-0.37376277232328486,0.37396770346711417,0.19619933247684032,-0.11376613182028907,0.10170369248534372,0.4386618911299209,0.7571462925624377,0.1603875159436867,-0.7595184621814335,0.2141971537204869,0.12033751427421124,-0.3555864763135407,0.08755198077005892,0.4469260049547021,0.046804726584472565,-0.2732056519072209,0.4890561547525535,0.1608485162560091,-0.7888304321006955,0.36360020992206826,0.7313047939519053,0.05036788017919285,-0.29135334496029136,0.12884015222186,-0.29115595100061453,-0.058677225138305686,0.084129697738294,-0.48625225785249576,0.013194910004510155,0.3405377446364672,0.006961939262306487,-0.4382951797873652,-0.3395862045141431,0.7722111470274535,-0.2004751371338077,-0.10186195387731897,-0.10280218964896515,-0.23750109396826138,-0.8357530923494983,-0.2800721974730122,0.7217750288020818,-0.35840969533311606,-0.04180386205521926],"bias":-0.7897797937209471,"d_weights":[0.0,0.0,0.0,0.0,0.0,0.0,0.0,0.0,0.0,0.0,0.0,0.0,0.0,0.0,0.0,0.0,0.0,0.0,0.0,0.0,0.0,0.0,0.0,0.0,0.0,0.0,0.0,0.0,0.0,0.0,0.0,0.0,0.0,0.0,0.0,0.0,0.0,0.0,0.0,0.0,0.0,0.0,0.0,0.0,0.0,0.0,0.0,0.0,0.0,0.0,0.0,0.0,0.0,0.0,0.0,0.0,0.0,0.0,0.0,0.0,0.0,0.0,0.0,0.0,0.0,0.0,0.0,0.0,0.0,0.0,0.0,0.0,0.0,0.0,0.0,0.0,0.0,0.0,0.0,0.0,0.0,0.0,0.0,0.0,0.0,0.0,0.0,0.0,0.0,0.0,0.0,0.0,0.0,0.0,0.0,0.0,0.0,0.0,0.0,0.0],"d_bias":0.0,"activation":0.01952876480222863,"as_respect_z":[0.0,0.0,0.0,0.0,0.0,0.0,0.0,0.0,0.0,0.0,0.0,0.0,0.0,0.0,0.0,0.0,0.0,0.0,0.0,0.0,0.0,0.0,0.0,0.0,0.019147392147527868,0.0,0.0,0.0,0.0,0.0,0.0,0.0,0.0,0.0,0.0,0.0,0.0,0.0,0.0,0.0,0.0,0.0,0.0,0.0,0.0,0.0,0.0,0.0,0.0,0.0,0.0,0.0,0.0,0.0,0.0,0.0,0.0,0.0,0.0,0.0,0.0,0.0,0.0,0.0,0.0,0.0,0.0,0.0,0.0,0.0,0.0,0.0,0.0,0.0,0.0,0.0,0.0,0.0,0.0,0.0]},{"weights":[-0.039252353094741434,-0.0930743398686761,-0.029454339965557446,0.12201733997108755,-0.10379936622745486,-0.21418058189751069,-0.08054378971981398,0.14549158706458154,-0.06884255569967111,0.16302563230307687,-0.209575986245659,-0.1081308723505101,-0.17758565050830857,0.1148516033105419,0.17466241655361275,-0.14659612013392034,-0.32312923152188416,-0.14847580209854952,-0.2555278587710014,-0.11204644699180331,0.011665334410753759,0.12795963868705112,-0.1365842459041964,-0.10550057846707273,0.050313723046641334,-0.1555652836119984,0.48810268176867183,0.007125601460452817,0.00962168671323158,-0.0791185759364822,-0.12965272141532913,-0.02214270893316587,-0.16787073439624617,-0.2762269270615709,-0.06858928366301316,0.30132626211058605,-0.2110611423774733,-0.12672789196797574,-0.40773451377206865,0.12705207100644458,-0.12037912232096583,-0.051881312893856134,0.3114837369729971,-0.21404329657103024,0.10890522307921491,-0.20883091388538946,0.01273246014493321,-0.13389459280142374,-0.13066696397891703,-0.06461486988870148,0.13958169853308094,-0.1574533210203623,-0.10559588577005727,-0.025235261559895524,-0.06473110232524461,0.038314000546588005,-0.15358346904016493,0.09849917951548366,-0.12947423787690548,-0.19411460871444441,-0.15892438270565687,-0.04149096263572011,-0.07339245698315426,-0.09289013056618656,-0.23686494342999767,-0.12242960988221838,-0.0808468942052525,-0.017278552052896093,0.08024075464147293,-0.012074036125471909,-0.11848804155593631,-0.0691670792391059,0.10455469292392823,-0.133559700119204,-0.1264301355187709,-0.1433350426455436,-0.12581540378149558,-0.17309778512890636,-0.13809244368850343,-0.16152811791530827,0.10333785139382179,-0.03681977919081064,-0.046635585132436555,-0.1409989834236467,0.007639435302825942,-0.2999845345935305,-0.08790679070193097,-0.05268104491230858,0.49076387100062124,0.2557280607018371,-0.060214645339791185,-0.26814350973631834,-0.2018326724638779,-0.20492737545971554,-0.1685184871698701,0.04591944383907695,-0.18294671555741276,-0.1663967649792538,0.04623457770784777,-0.15277382109727838],"bias":0.10631484865722421,"d_weights":[0.0,0.0,0.0,0.0,0.0,0.0,0.0,0.0,0.0,0.0,0.0,0.0,0.0,0.0,0.0,0.0,0.0,0.0,0.0,0.0,0.0,0.0,0.0,0.0,0.0,0.0,0.0,0.0,0.0,0.0,0.0,0.0,0.0,0.0,0.0,0.0,0.0,0.0,0.0,0.0,0.0,0.0,0.0,0.0,0.0,0.0,0.0,0.0,0.0,0.0,0.0,0.0,0.0,0.0,0.0,0.0,0.0,0.0,0.0,0.0,0.0,0.0,0.0,0.0,0.0,0.0,0.0,0.0,0.0,0.0,0.0,0.0,0.0,0.0,0.0,0.0,0.0,0.0,0.0,0.0,0.0,0.0,0.0,0.0,0.0,0.0,0.0,0.0,0.0,0.0,0.0,0.0,0.0,0.0,0.0,0.0,0.0,0.0,0.0,0.0],"d_bias":0.0,"activation":0.8205705379096724,"as_respect_z":[0.0,0.0,0.0,0.0,0.0,0.0,0.0,0.0,0.0,0.0,0.0,0.0,0.0,0.0,0.0,0.0,0.0,0.0,0.0,0.0,0.0,0.0,0.0,0.0,0.0,0.1472345302243033,0.0,0.0,0.0,0.0,0.0,0.0,0.0,0.0,0.0,0.0,0.0,0.0,0.0,0.0,0.0,0.0,0.0,0.0,0.0,0.0,0.0,0.0,0.0,0.0,0.0,0.0,0.0,0.0,0.0,0.0,0.0,0.0,0.0,0.0,0.0,0.0,0.0,0.0,0.0,0.0,0.0,0.0,0.0,0.0,0.0,0.0,0.0,0.0,0.0,0.0,0.0,0.0,0.0,0.0]},{"weights":[0.028822808960194363,0.04599577522125412,0.030665834798760883,0.08020079816732119,-0.11690002236308537,0.029405964540098677,-0.03633823953188313,0.23295108440276546,-0.06899895859710492,0.13675946381146054,-0.05786100766135231,-0.057912166684157954,-0.22097755540072322,0.017215212560517695,0.09918395168344424,-0.14858960849906974,-0.3100629274518066,-0.16745098922790005,-0.07655798986828456,-0.04589587726539568,-0.00922854135580921,0.003981191575290822,-0.1486424954390482,0.0021511017504048796,0.009295632152942851,0.06827287942898608,0.23318654197423397,0.012322960633857754,-0.06390062446202724,0.08639333522276277,0.03306661304477541,-0.026658641748780337,-0.0022192075270220323,-0.13974681269259728,-0.017245351098219622,0.22705327182543283,-0.12584074218581398,-0.060132073131566426,0.008915383922099868,0.13714532473664362,-0.03976914385644866,-0.10144707794839787,0.2911503526048946,-0.06013283817495816,0.06237882490763676,-0.11422286111130281,-0.019391227116044477,-0.08050587848586255,-0.04071727680371299,-0.064142416002861,0.10012591072952166,0.016313376632799925,-0.11828400402843361,-0.09962181616506031,0.008845759928610586,0.014827853741641094,-0.0011978700549607037,-0.009475720893385664,-0.15161161165896309,-0.18584214827474094,0.1299785915923108,0.09541237908686644,-0.06581283680013945,-0.017244083643387545,-0.10740387550711936,-0.04233953606522049,-0.14811603266567336,0.0017271228503582157,0.13163837749403123,-0.044169114526994666,-0.00420421004023786,0.0011356126683167705,-0.12495151239219995,-0.12755043645316838,-0.011817790917741579,-0.052527970736000976,-0.07676868243908623,0.023854675047192703,-0.15706260902060348,-0.09873067049881938,-0.006904591454024741,-0.1260407181111495,-0.03333269085940798,-0.10383722157842813,-0.006775982761429132,