{"output_layer":{"Hidden":{"nodes":[{"weights":[1.8051293094938639,-0.66518502156935,1.68503251005024,-0.6557426100521507,-2.5166594561617015,-1.3480944653826101,-0.12812866798706418,2.2282172009854517,-0.7918380708705716,-0.662369854585411,0.3491911110963815,-1.3558797801255167,1.6959386458411594,0.4806206264191808,-1.1588931349612055,-0.4215713461576342,1.0792961424728729,-3.2112456876648676,2.304638099965251,0.8660538531463168],"bias":0.7523119787450261,"d_weights":[0.0,0.0,0.0,0.0,0.0,0.0,0.0,0.0,0.0,0.0,0.0,0.0,0.0,0.0,0.0,0.0,0.0,0.0,0.0,0.0],"d_bias":0.0,"activation":0.000042770831835756234,"as_respect_z":[0.00004276900249170031,-1.4856469519340745e-10,-1.5997402432450462e-9,-1.6620604306002544e-12,-3.3111650139303062e-9,-7.721699773043984e-10,-0.00004276261390303639,-1.3122784460733318e-11,-5.386636668314262e-10,-3.5002225261079e-12]},{"weights":[-0.5333205464575405,0.1845209601884699,-1.1537392628492102,-0.07935677906708079,2.3537689055479087,1.8524101372983275,-2.0606795251003205,-1.2457585166153617,2.4660570066950913,0.3019132908990007,0.13318853572204792,2.470283807709228,-1.909437951719352,-1.5499741766177944,-1.389518004001989,-1.3551730009403573,-2.210008546898652,1.7071763321139732,-2.2366154876869246,-1.4538294975575934],"bias":1.7376917647051082,"d_weights":[0.0,0.0,0.0,0.0,0.0,0.0,0.0,0.0,0.0,0.0,0.0,0.0,0.0,0.0,0.0,0.0,0.0,0.0,0.0,0.0],"d_bias":0.0,"activation":3.4735049288708947e-6,"as_respect_z":[-1.4856469519340745e-10,3.4734928636344035e-6,-1.299181096398366e-10,-1.3497925689032112e-13,-2.6890634347159704e-10,-6.27094706128839e-11,-3.4728375340931376e-6,-1.0657276126848942e-12,-4.374595539613607e-11,-2.8426008274210497e-13]},{"weights":[-1.037080316653315,-0.4789928777044769,1.4678579514613197,2.9985100913068394,0.03270307983365346,-1.9868924641207353,-2.1445369745773273,0.21711874822045885,1.5119272256424783,-0.31636460197009214,-0.927672621667629,-2.067825013140497,-1.1631940025627558,-1.42844103188984,2.2722294832674517,-0.8265626163766326,1.1114093403557272,1.6554252755405319,3.5519248231229033,-0.6230258874359498],"bias":0.26918109247515415,"d_weights":[0.0,0.0,0.0,0.0,0.0,0.0,0.0,0.0,0.0,0.0,0.0,0.0,0.0,0.0,0.0,0.0,0.0,0.0,0.0,0.0],"d_bias":0.0,"activation":0.000037402598326546225,"as_respect_z":[-1.5997402432450462e-9,-1.299181096398366e-10,0.00003740119937218465,-1.4534526454596046e-12,-2.8955755521549902e-9,-6.752537245906497e-10,-0.00003739541183932112,-1.147572340878164e-11,-4.710551536843667e-10,-3.060904162450643e-12]},{"weights":[0.21683483240647075,-1.0621318346229156,-1.3918767013718123,-1.2090163416689452,-2.416359384251496,0.6254574902043082,2.115709977696348,2.056851147956822,1.8275196554629312,1.085461162553321,-0.04247404131759225,1.2660405428159927,0.451512586101981,-0.7015978995235421,3.670111498153075,0.009431802118756787,-0.8179415359809467,0.5310076021003776,0.5771672645846537,1.377193816735466],"bias":-1.678809362664396,"d_weights":[0.0,0.0,0.0,0.0,0.0,0.0,0.0,0.0,0.0,0.0,0.0,0.0,0.0,0.0,0.0,0.0,0.0,0.0,0.0,0.0],"d_bias":0.0,"activation":3.885967046380377e-8,"as_respect_z":[-1.6620604306002544e-12,-1.3497925689032112e-13,-1.4534526454596046e-12,3.885966895372978e-8,-3.0083768720401575e-12,-7.015592068753417e-13,-3.8852204016608796e-8,-1.1922776757531006e-14,-4.894057862675025e-13,-3.1801460966869882e-15]},{"weights":[-2.097303515681883,2.2887153751773264,-1.7737173190813509,2.22785468532861,1.2621667853376015,-1.2485655434777423,-1.011966936226602,-0.6685490894680155,0.32438118495873497,-1.333270278116107,2.648470074179859,-0.7072557915948491,0.13946462764820797,1.2753487291135766,-0.2631393428260585,3.0471107963070385,0.10712836272204375,-1.3202456592623832,-1.6883409685423107,-0.13066818467469016],"bias":-0.5399682413140833,"d_weights":[0.0,0.0,0.0,0.0,0.0,0.0,0.0,0.0,0.0,0.0,0.0,0.0,0.0,0.0,0.0,0.0,0.0,0.0,0.0,0.0],"d_bias":0.0,"activation":0.00007741642778063031,"as_respect_z":[-3.3111650139303062e-9,-2.6890634347159704e-10,-2.8955755521549902e-9,-3.0083768720401575e-12,0.00007741043447734,-1.397649723342117e-9,-0.00007740155308758354,-2.375261485178398e-11,-9.749966290448065e-10,-6.335502789591151e-12]},{"weights":[-1.3941923115367831,-1.331692127767722,-0.9657117832989236,-0.6534438434869188,-1.2807930099641924,1.5542111755634742,0.8492684786408871,-0.7319724941689818,-2.2189525606478666,1.8759254694540133,-2.291331824014614,0.7797417386056087,-0.4449290391228364,2.6403489668101114,-1.0800762346042179,-1.0199740442799392,1.3736362852265367,2.0239872955077005,-1.612003564917197,2.6375176470805095],"bias":0.316915151011932,"d_weights":[0.0,0.0,0.0,0.0,0.0,0.0,0.0,0.0,0.0,0.0,0.0,0.0,0.0,0.0,0.0,0.0,0.0,0.0,0.0,0.0],"d_bias":0.0,"activation":0.000018053658162871352,"as_respect_z":[-7.721699773043984e-10,-6.27094706128839e-11,-6.752537245906497e-10,-7.015592068753417e-13,-1.397649723342117e-9,0.00001805333222829829,-0.000018050189356169174,-5.539154948140618e-12,-2.2737106781270176e-10,-1.4774512972531429e-12]},{"weights":[4.411543514497398,-2.3298718353321086,-1.670434913119244,1.448916340043143,-0.07253447491759689,-0.7938364177531917,-0.34973332949093666,-1.2718437786301091,-0.7028418671681059,-1.0822916950124373,0.07341922151082889,-0.34083585886905404,-2.1448827165353768,2.305560948199487,-1.3458167407454715,-2.711254970330756,2.0371670114440987,-1.3532046458971434,-1.41512538620628,-0.8274493137474965],"bias":2.100660382406404,"d_weights":[0.0,0.0,0.0,0.0,0.0,0.0,0.0,0.0,0.0,0.0,0.0,0.0,0.0,0.0,0.0,0.0,0.0,0.0,0.0,0.0],"d_bias":0.0,"activation":0.9998078612837973,"as_respect_z":[-0.00004276261390303639,-3.4728375340931376e-6,-0.00003739541183932112,-3.8852204016608796e-8,-0.00007740155308758354,-0.000018050189356169174,0.00019210179891645257,-3.0675725728592315e-7,-0.000012591762787175493,-8.182094777309663e-8]},{"weights":[-0.6192946168305139,2.817455539586625,2.4910664577895134,-0.8627165431132723,1.1349367766750411,0.8257499899312029,-1.9344325327580147,-1.0383775011816132,0.764411828304848,2.546894422474518,-3.211423171880062,0.49688996599683316,0.8123470249838193,0.24914576176841696,1.2281613755527412,2.379013512063276,-2.279527004612362,-2.28464323722088,0.823838914964959,-0.3249307529868945],"bias":0.3031948034423318,"d_weights":[0.0,0.0,0.0,0.0,0.0,0.0,0.0,0.0,0.0,0.0,0.0,0.0,0.0,0.0,0.0,0.0,0.0,0.0,0.0,0.0],"d_bias":0.0,"activation":3.0681620855834575e-7,"as_respect_z":[-1.3122784460733318e-11,-1.0657276126848942e-12,-1.147572340878164e-11,-1.1922776757531006e-14,-2.375261485178398e-11,-5.539154948140618e-12,-3.0675725728592315e-7,3.068161144221599e-7,-3.8640993605176626e-12,-2.5108817352323375e-14]},{"weights":[-1.0953015664200088,-1.5525816584521568,-0.19040792528229103,-1.5646085249557602,1.531177995616605,-0.9186003589026277,2.1851179512295507,-0.4561249730885857,-1.5738729292554703,-1.7343464904957075,1.199331953534275,1.9045615548416517,1.4863105224640918,-1.2518220948142649,-0.5949838081118544,-1.5253975958593962,2.593427813781004,0.763846144247471,0.8301889432847578,-2.637742622520999],"bias":0.7292153831099591,"d_weights":[0.0,0.0,0.0,0.0,0.0,0.0,0.0,0.0,0.0,0.0,0.0,0.0,0.0,0.0,0.0,0.0,0.0,0.0,0.0,0.0],"d_bias":0.0,"activation":0.000012594182617255195,"as_respect_z":[-5.386636668314262e-10,-4.374595539613607e-11,-4.710551536843667e-10,-4.894057862675025e-13,-9.749966290448065e-10,-2.2737106781270176e-10,-0.000012591762787175493,-3.8640993605176626e-12,0.0000125940240038194,-1.0306659890112412e-12]},{"weights":[0.14368563818407495,2.1376603381388493,0.4932673597157728,-1.2851228360678162,-0.5726252091413836,1.4320585501378262,2.2463083916557354,1.0131792038837424,-2.2015676543380924,-0.6099934687690393,1.7678740339319348,-2.877181908595108,1.7098582041614216,-2.247808399226635,-1.3454112692904177,2.4525771210529403,-2.413220792109557,1.335037616076362,-0.6552779219465547,0.7591397132820434],"bias":1.14399829796237,"d_weights":[0.0,0.0,0.0,0.0,0.0,0.0,0.0,0.0,0.0,0.0,0.0,0.0,0.0,0.0,0.0,0.0,0.0,0.0,0.0,0.0],"d_bias":0.0,"activation":8.183667176614808e-8,"as_respect_z":[-3.5002225261079e-12,-2.8426008274210497e-13,-3.060904162450643e-12,-3.1801460966869882e-15,-6.335502789591151e-12,-1.4774512972531429e-12,-8.182094777309663e-8,-2.5108817352323375e-14,-1.0306659890112412e-12,8.183666506890724e-8]}],"previous_layer":{"Hidden":{"nodes":[{"weights":[0.7866204623106061,-0.34821275004792424,-0.27540215329900536,-0.5994606104231318,0.5905978892140329,0.23359317290069193,-0.2701163345789407,-0.039281431766902235,0.3936946370896855,-0.16665022878820995,-0.28309924524590985,0.4858663768679427,-0.9348784268049016,0.08074643269025776,-0.17467015856483978,-0.19424983650473304,0.5014386596782727,0.21137869970208148,-0.03300712206344856,-0.2805450211704432,-0.6349561848354554,-0.30900294333502665,-0.3362923843325183,-0.019348920830900875,-0.16681953037615457,0.35682797983173786,0.37687630990165544,0.2719042261568537,-0.581947080867302,0.5248627727550907,0.4302914068156906,-0.8132686403568286,0.3086514326245441,0.16909148440807967,-0.7687269297043294,-0.33592467157507244,-0.23859494591230826,-0.6217462121546777,-0.1157379946574424,-0.7130194769910669,0.445454532897073,-0.4474995257736798,0.22576488259455396,-0.08094113233899035,0.11301621954540292,-0.05146425188782575,-0.1728931786487739,0.1202223652611378,-0.46155605254680704,-0.5965086080938775,-0.5170451903343324,0.05195957117797641,-0.7359326142874433,-0.17777133981024568,-0.18348787585051296,-0.42526745931445153,-0.5397822854785732,-0.5194449513616707,1.456541043533732,-0.39391080247724686,0.17689999360103104,0.3760036789498848,-0.23126978227185224,-0.5001272819200068,0.10978300839424236,-0.7763655900454911,-0.06317147583884093,-0.22626906183016504,-0.04669994198539977,-0.18048750741301955,0.4322733350206202,-0.2851727698616772,0.9297230744924627,-0.4288017979498621,-0.7201160090784845,-0.2661296482455237,0.6839713455239552,1.623499151055496,0.01726151274683643,-0.27020657092072764,-0.3106921018343994,-0.7852197388615347,-0.8533103902612418,-0.07185414113516322,-0.5083995364098768,-0.055033649318903574,0.27130903079318636,0.5036127902740519,-0.3036958112711257,0.7830185960511739,-0.7440568048992706,0.8491004169573572,0.6203088348565942,-0.0508228161644754,0.3214022114858943,-0.5647150591859351,-0.8717876316840679,-0.5059988791279227,0.4196192235362243,0.4828367387185929],"bias":-2.486228649079652,"d_weights":[0.0,0.0,0.0,0.0,0.0,0.0,0.0,0.0,0.0,0.0,0.0,0.0,0.0,0.0,0.0,0.0,0.0,0.0,0.0,0.0,0.0,0.0,0.0,0.0,0.0,0.0,0.0,0.0,0.0,0.0,0.0,0.0,0.0,0.0,0.0,0.0,0.0,0.0,0.0,0.0,0.0,0.0,0.0,0.0,0.0,0.0,0.0,0.0,0.0,0.0,0.0,0.0,0.0,0.0,0.0,0.0,0.0,0.0,0.0,0.0,0.0,0.0,0.0,0.0,0.0,0.0,0.0,0.0,0.0,0.0,0.0,0.0,0.0,0.0,0.0,0.0,0.0,0.0,0.0,0.0,0.0,0.0,0.0,0.0,0.0,0.0,0.0,0.0,0.0,0.0,0.0,0.0,0.0,0.0,0.0,0.0,0.0,0.0,0.0,0.0],"d_bias":0.0,"activation":0.9927965970618968,"as_respect_z":[0.007151513924214503,0.0,0.0,0.0,0.0,0.0,0.0,0.0,0.0,0.0,0.0,0.0,0.0,0.0,0.0,0.0,0.0,0.0,0.0,0.0]},{"weights":[0.1001253177420398,0.9207602820508733,0.39313856432065347,-0.7439777047261371,0.027058143090615796,-0.12527088367174186,-0.3685985893742623,-0.06435813358927141,0.14404990026203235,0.030211290877063705,-0.20529415213704832,-0.391127096679943,0.7724140479426168,-0.08822138475639398,0.4500975646081379,0.34182073445652367,-0.8124340440456429,-0.5357081022216773,-0.5074206315746875,-0.0637290361465731,-0.3876960085067688,0.04322900585046183,0.6114309187587086,-1.3007544693565904,0.02585052042959852,-0.31906869277696165,-0.049869277877235704,0.7937268280144276,-0.017553289145973296,-0.838425481351074,0.324773462265203,0.08751474160265917,-0.010306878172506407,0.33351701162885994,-0.9446896385229507,0.03694137076962052,-0.509665984547383,0.7721871522134751,0.050784139035802305,0.23768071328095408,-0.182987985316208,0.5723505313601089,-0.18172076881604945,0.10807304616059923,-1.7243879169374021,-0.2228089857495559,-0.16999935156714038,0.33597564489081055,0.10246777721968625,-0.15234589958460423,0.26709735564348247,-0.15410171789228985,1.0881704637360254,0.4155999677848862,0.21489257894705452,0.577049594209292,-0.3086543815541282,-0.022707532213342374,-0.42403362752073703,0.7691493391545129,0.012620466545796844,-0.42608418466372916,-0.7419646995085302,-0.40377170375922355,0.44149200229886576,0.22298236916524625,-0.05047545941809432,-0.5497631056937488,-0.4140440307236696,0.2840748412637838,-0.3974391242652089,0.16058944563280295,-0.7267594244426225,-0.4873771625007961,0.8329921848088457,-0.1936069594275279,-0.5310574013728119,-0.3644290037258084,0.6435887063611401,0.6545534874034303,0.1341464649497578,0.08023022068254011,-0.3355142980859211,-0.10735048976280194,-0.30906128654213433,0.07401045902368476,0.3189865754746598,-0.37689069770674544,-0.135629575281077,-0.27605766516915786,0.9529653874441533,-0.1502855469237022,0.1557145481789038,0.9208177902891778,-0.417982794863157,0.27963341444669365,0.9357876198610643,0.1406209540195552,-0.1654910353986652,0.5631281003752716],"bias":-0.8506164250592878,"d_weights":[0.0,0.0,0.0,0.0,0.0,0.0,0.0,0.0,0.0,0.0,0.0,0.0,0.0,0.0,0.0,0.0,0.0,0.0,0.0,0.0,0.0,0.0,0.0,0.0,0.0,0.0,0.0,0.0,0.0,0.0,0.0,0.0,0.0,0.0,0.0,0.0,0.0,0.0,0.0,0.0,0.0,0.0,0.0,0.0,0.0,0.0,0.0,0.0,0.0,0.0,0.0,0.0,0.0,0.0,0.0,0.0,0.0,0.0,0.0,0.0,0.0,0.0,0.0,0.0,0.0,0.0,0.0,0.0,0.0,0.0,0.0,0.0,0.0,0.0,0.0,0.0,0.0,0.0,0.0,0.0,0.0,0.0,0.0,0.0,0.0,0.0,0.0,0.0,0.0,0.0,0.0,0.0,0.0,0.0,0.0,0.0,0.0,0.0,0.0,0.0],"d_bias":0.0,"activation":0.006650366645419217,"as_respect_z":[0.0,0.006606139268900713,0.0,0.0,0.0,0.0,0.0,0.0,0.0,0.0,0.0,0.0,0.0,0.0,0.0,0.0,0.0,0.0,0.0,0.0]},{"weights":[0.5694307699789765,0.15736793061368332,-0.3558156195402685,-1.0089009166585567,1.2815745280535458,-0.04018534454080477,-0.37207079563254425,-0.5031642013904422,-0.5048758388248158,0.36113001914185666,0.3978631237076869,-0.08421309611729044,0.19579535291743722,0.116127802508197,0.061310673278017855,0.313561614942039,-0.589564070925532,-0.24322195930585375,0.491278698589684,-0.18900335647904404,-0.6600818531573724,0.09620614153857802,0.3788884871138833,-0.5632425094875337,-0.0013373059500246215,0.4280526322560628,-0.38008428602308664,0.7349151861019542,-0.706603424681164,-0.2807039087608802,-0.3873916312222259,0.7123374938169084,-0.6133825490492784,0.865785243341497,-1.3087260075039093,-0.15671805503017192,0.6086807872470276,0.09249352833188698,-0.8369910855859766,-0.35249608667779775,0.3624161557397617,-0.4660498682041902,-0.4193242946571616,-0.5246608713669156,-0.4296441336932201,0.3230384285962284,0.05905720961031812,-0.38119388696128154,0.2577462848067131,-0.4819712562127235,0.43231107800836677,-0.4237512839891572,0.2983405651698002,-0.5466049909230977,0.3738048732972225,0.5572547216997351,0.2081109098483036,-0.4873506799360796,-0.04821694885183756,0.5172334645543207,-0.15471949479638467,-0.12089234348150159,-1.1260039280198395,-0.2490017931887151,0.13078332980976073,0.710395456947751,-0.0680473949489476,-0.11927069511687531,-0.14257390760573369,-0.18310028876925405,-0.13597399765444854,-0.0968844287301244,-0.2829995700932064,0.24899663309174275,-0.28990378537659645,-0.34997045958482387,0.03666284034471838,-0.011193389878403565,0.6890071190158333,-0.06789644894988187,-0.2725345374723307,-0.021293986206009922,-1.1029787102162776,-0.03411481044202839,0.20527078263641416,0.08438557131206112,0.1194211677187876,0.16188842811631698,-0.09927532549695094,-0.31078641360166176,-0.1922524578197357,0.6598805191027999,0.6808385514355921,0.7238721514524223,0.45396304474552274,0.38599395189145785,-0.23584787080549383,0.01169157896864174,0.3044151727708675,0.19310045378118226],"bias":-0.5064568973505019,"d_weights":[0.0,0.0,0.0,0.0,0.0,0.0,0.0,0.0,0.0,0.0,0.0,0.0,0.0,0.0,0.0,0.0,0.0,0.0,0.0,0.0,0.0,0.0,0.0,0.0,0.0,0.0,0.0,0.0,0.0,0.0,0.0,0.0,0.0,0.0,0.0,0.0,0.0,0.0,0.0,0.0,0.0,0.0,0.0,0.0,0.0,0.0,0.0,0.0,0.0,0.0,0.0,0.0,0.0,0.0,0.0,0.0,0.0,0.0,0.0,0.0,0.0,0.0,0.0,0.0,0.0,0.0,0.0,0.0,0.0,0.0,0.0,0.0,0.0,0.0,0.0,0.0,0.0,0.0,0.0,0.0,0.0,0.0,0.0,0.0,0.0,0.0,0.0,0.0,0.0,0.0,0.0,0.0,0.0,0.0,0.0,0.0,0.0,0.0,0.0,0.0],"d_bias":0.0,"activation":0.005003663625245164,"as_respect_z":[0.0,0.0,0.004978626975570563,0.0,0.0,0.0,0.0,0.0,0.0,0.0,0.0,0.0,0.0,0.0,0.0,0.0,0.0,0.0,0.0,0.0]},{"weights":[-0.6810429331869836,0.17626083611792678,-0.10939991831970616,-0.6930049396583411,-0.38069310082713015,0.11813263609422313,-0.30098609150348693,0.7314159562510849,0.42377218465009253,-0.5690225130041273,0.9552450514858002,0.161939039698295,-0.2685609628578082,-0.16458843915658328,-0.5966945237625809,-0.7731520100077887,0.18327509787791735,-0.09838449763600371,0.1038078805780624,0.27319245237742956,-0.7126334599423751,-0.6327241924505895,-0.6272583720019203,0.23069206698033046,-0.1560416694340058,-0.22096574833305355,0.40657268570502353,-0.7219139244319341,-0.8785801608417321,-0.544419133422521,0.15700750236325664,1.189336545241611,0.18935399908859188,-0.33602309284302845,-0.8040027091495915,0.5251198093125589,-0.5431151709893807,-0.22714578082774656,0.0027908297643475777,0.6402551649740964,0.45577991997648803,0.6130580346155274,0.6571215967339228,0.8942572119826374,-0.2782343450735084,-0.619294077442518,0.2699410538845846,0.006286062189491799,-0.8690692144260357,-0.1920079740215984,-0.0453926352691789,0.3928303007148179,0.06172082082869151,0.053513470625497134,-0.5361043709463018,-1.237904715399119,0.497234162622301,0.12895781496728675,-0.3767605122568621,0.15728744014061194,-0.25219417103729613,-0.306633715486596,-0.41593833783761675,-0.758055991034452,-0.6011005157018023,0.2987856278806835,-0.275337289441037,-1.195080625000153,-0.4436357415251079,-0.14390287060101078,0.2016102411815806,0.30478913601878377,-0.4916740405437893,-1.1584348131803517,0.5776632160628795,-0.0831758696309158,0.007475866719498788,-0.5921424459207439,0.14726968682161679,-0.25451478648594406,-0.3227698571252252,0.839783638993446,-0.39547176960011293,0.2570213900894728,0.18517544004182446,-0.10211858903026576,0.27720005926181235,0.8770048683500191,-0.373322723988322,0.006150653016816522,0.6064991764923062,0.4624366862336531,0.23556420792421484,-0.5736518853802182,0.34221811027962684,-0.2204232781804197,0.9111078246003275,-0.44588598298784315,-0.5645308620089563,-0.06611060307324162],"bias":-0.8112219808278321,"d_weights":[0.0,0.0,0.0,0.0,0.0,0.0,0.0,0.0,0.0,0.0,0.0,0.0,0.0,0.0,0.0,0.0,0.0,0.0,0.0,0.0,0.0,0.0,0.0,0.0,0.0,0.0,0.0,0.0,0.0,0.0,0.0,0.0,0.0,0.0,0.0,0.0,0.0,0.0,0.0,0.0,0.0,0.0,0.0,0.0,0.0,0.0,0.0,0.0,0.0,0.0,0.0,0.0,0.0,0.0,0.0,0.0,0.0,0.0,0.0,0.0,0.0,0.0,0.0,0.0,0.0,0.0,0.0,0.0,0.0,0.0,0.0,0.0,0.0,0.0,0.0,0.0,0.0,0.0,0.0,0.0,0.0,0.0,0.0,0.0,0.0,0.0,0.0,0.0,0.0,0.0,0.0,0.0,0.0,0.0,0.0,0.0,0.0,0.0,0.0,0.0],"d_bias":0.0,"activation":0.927682544040204,"as_respect_z":[0.0,0.0,0.0,0.06708764152329896,0.0,0.0,0.0,0.0,0.0,0.0,0.0,0.0,0.0,0.0,0.0,0.0,0.0,0.0,0.0,0.0]},{"weights":[-0.5694465259031333,0.45115528110789266,0.07945008415242671,-0.18421836039777217,-0.3639725129409851,0.10961935512316946,-0.542258434875949,0.08064458994921872,0.16211883985442138,-0.5561350591950932,0.5493871364822296,-0.8249206134452918,0.40750934614915024,-0.16287835797577324,0.4751307603899432,0.019643819892774597,0.3931331967594053,-0.16087098040553027,-0.42540154482111475,0.5243449153268752,-0.0015048744801892172,0.29084903978055476,0.33774247945473257,-0.7888306234403882,-0.15856462414780503,-0.4241672708980771,0.5927442728079503,0.09972889074658607,-0.5988547594703647,-0.9411928256922849,-0.15050338835581803,0.08525322399452631,0.13590151888016622,0.029244384442189568,-0.45148167821595137,-0.026401076319717578,0.32318218213011873,1.322338228879298,0.7206907035784249,-0.15802080370439087,-0.049329999732538085,0.13325937342230862,-0.3105665821214495,0.0944398387675844,-0.5869239807806585,-0.9716867514331889,-0.026877947067734363,-0.016319384257880362,0.03370794617822513,-0.039573748230965516,0.5396478119100301,0.6604450312040643,-0.5822010920833585,0.19010234079326674,-0.22782040067795406,-0.0008242409512370238,0.17206399759843952,0.05389166147840978,-0.6237638559788065,0.8180764336513429,-0.0868966892491058,-0.13045117723181182,-0.15996728840520055,-0.41685176917603634,-0.12387986370164322,-0.0004485480095770235,-0.5075401867385123,-0.6705341628399624,-0.7313981963782665,0.23457191792011292,0.4356017466332442,1.0164430492523029,0.30683885022201884,-1.3324947595900267,0.12492119088598484,-0.35813895648260974,0.647853248663369,-0.36484300291994703,0.5270601471869605,0.38639350899014097,0.9718720691972583,-0.2641777139216855,0.317704969692393,0.03250407067609236,-0.1300511272360146,0.004883806864173408,0.09966304603967627,1.0439170761080439,0.2016546452806825,0.3380689809530198,0.6436452720282131,-0.3724385339826111,-0.04579615836021301,0.25711190455505156,0.1523307268542453,0.12640398529218522,0.08437779692227129,0.10467243931250804,0.17914923867402327,-0.5735796231225979],"bias":0.23599022086343874,"d_weights":[0.0,0.0,0.0,0.0,0.0,0.0,0.0,0.0,0.0,0.0,0.0,0.0,0.0,0.0,0.0,0.0,0.0,0.0,0.0,0.0,0.0,0.0,0.0,0.0,0.0,0.0,0.0,0.0,0.0,0.0,0.0,0.0,0.0,0.0,0.0,0.0,0.0,0.0,0.0,0.0,0.0,0.0,0.0,0.0,0.0,0.0,0.0,0.0,0.0,0.0,0.0,0.0,0.0,0.0,0.0,0.0,0.0,0.0,0.0,0.0,0.0,0.0,0.0,0.0,0.0,0.0,0.0,0.0,0.0,0.0,0.0,0.0,0.0,0.0,0.0,0.0,0.0,0.0,0.0,0.0,0.0,0.0,0.0,0.0,0.0,0.0,0.0,0.0,0.0,0.0,0.0,0.0,0.0,0.0,0.0,0.0,0.0,0.0,0.0,0.0],"d_bias":0.0,"activation":0.6654301404219449,"as_respect_z":[0.0,0.0,0.0,0.0,0.22263286863997558,0.0,0.0,0.0,0.0,0.0,0.0,0.0,0.0,0.0,0.0,0.0,0.0,0.0,0.0,0.0]},{"weights":[-0.2933213513509043,0.2635839719849902,0.03184568005875425,0.5477879146607262,-0.27812652597591386,-0.3531002080888384,-0.06624914423799122,-0.9632180429010029,-0.36252679867454285,0.7507707735050315,-0.2882919067764831,-0.8065039062637419,0.30694514923043875,-0.0084082831089097,0.49333815501720607,0.7160303380708181,0.4064484255686121,-0.03849620229682336,-0.4450728183610906,0.5299798379033117,0.3788490810117774,0.10210057862978593,0.29758605481038675,-0.18331842084723346,0.5000398598279397,-0.15474642438310607,-0.33071815396117415,-0.055917141049873394,1.0740494822792945,0.007169401405188675,0.2846097659670307,0.2252242939937474,-0.15149546612067175,-0.12046423560501679,0.4889733912189436,-0.37704249454212174,-0.5282734115780159,-0.3601849125200009,-0.6714262515807591,0.0006872384575839074,-0.4370336648579527,-0.4199676156787291,-0.3435883991613406,-1.1258893262448901,-0.4165993450399044,0.740458427749925,-0.19121306629587362,-0.07809238260922508,-0.07156448639249233,0.2644934736035896,-0.11655128291999858,0.25818342621818563,0.7986123034751116,0.19038385398458246,0.01636247309646392,0.7154391200048597,0.01885955498112421,0.6325691060889161,-0.22877207662543123,-0.14142211638540061,0.6834526830188624,-0.47955730974477395,0.7157284354189769,0.35750686911888135,-0.11020396101133004,-0.5223646899557736,0.12867717300888631,0.4963303684282385,0.2142454261982754,0.31447207714660613,0.16083115845121773,-0.01110028586169979,-0.37633054102412633,0.5844646324776115,0.1113516482484543,0.29302296261130195,-0.9422972034542448,0.03578362615290566,-0.17272256756861235,0.4221096824641484,-0.24057175995796778,-0.13224443510449155,-0.15250228482522568,-0.01319071215290623,0.29099795211132873,-0.0927795119640708,-0.23848609192119177,0.26033659085703353,-0.13180964706145704,-0.009961847501641806,-0.11660731428468511,-0.6066060977370449,-0.6994505446481795,0.8618025886242628,-1.0853099598854203,0.3858649246370107,-0.08656293833835882,0.34796182833554196,-0.30000017179034716,-0.060709782891681954],"bias":-0.6584775694562875,"d_weights":[0.0,0.0,0.0,0.0,0.0,0.0,0.0,0.0,0.0,0.0,0.0,0.0,0.0,0.0,0.0,0.0,0.0,0.0,0.0,0.0,0.0,0.0,0.0,0.0,0.0,0.0,0.0,0.0,0.0,0.0,0.0,0.0,0.0,0.0,0.0,0.0,0.0,0.0,0.0,0.0,0.0,0.0,0.0,0.0,0.0,0.0,0.0,0.0,0.0,0.0,0.0,0.0,0.0,0.0,0.0,0.0,0.0,0.0,0.0,0.0,0.0,0.0,0.0,0.0,0.0,0.0,0.0,0.0,0.0,0.0,0.0,0.0,0.0,0.0,0.0,0.0,0.0,0.0,0.0,0.0,0.0,0.0,0.0,0.0,0.0,0.0,0.0,0.0,0.0,0.0,0.0,0.0,0.0,0.0,0.0,0.0,0.0,0.0,0.0,0.0],"d_bias":0.0,"activation":0.013354134075967089,"as_respect_z":[0.0,0.0,0.0,0.0,0.0,0.013175801179048183,0.0,0.0,0.0,0.0,0.0,0.0,0.0,0.0,0.0,0.0,0.0,0.0,0.0,0.0]},{"weights":[-0.21201209275516303,-0.0529499156608781,0.4098341966104561,0.9159456364009076,-0.466400258209008,-0.1665307393259232,0.6167076009252916,-0.7470640772499002,-0.5452986699533121,0.0847140548095288,-0.8316123125375138,-0.5413666259285307,0.050087624669294194,-0.007392394290290436,-0.4011525912365643,0.444757405061042,0.15551833946642385,0.051471944448880605,-0.20986387219081779,-0.6687894043330692,0.8809013869799578,0.2690899944138143,0.20077636611750985,1.0857843902813544,-0.6518240005768032,-0.4039630995916686,-0.8193433292550615,0.2097182073378622,0.5901721892459537,-0.06883705032250124,-0.3671074135899311,-1.0175897134873826,0.12685697649755662,-0.3908145827279735,1.3369920772462331,-0.6135754348052217,0.09858864236384975,-0.006401963826515162,-0.12931259951038804,-0.12377095363363391,-0.616484209874216,-0.6671168356431726,-0.37053866907360444,-0.6096348863806569,1.2237598122760351,0.15804195610581595,-0.02788907150005314,-0.5904807893317106,0.30687100441837173,0.01900373742920843,-0.9620907148008995,-0.6468865342901117,0.2807247723317647,0.21295262672251847,-0.6079373288815783,0.7762586487269609,0.007046941591850023,-0.5832058978128976,-0.24356341318655303,-0.49257168711576826,0.006762941306272825,0.5570464552953416,0.6027248076218171,1.241909645433338,0.4717778515279979,-0.219487959352612,0.13938066552334522,0.015032942539215005,1.009287374953754,-0.4193218072922072,-0.2735187331403931,-1.6375392807312485,-0.03032783422498548,0.6778983706876303,-0.29409675843966776,0.3837586465441702,-0.5014606906760142,0.35023197890816377,-0.9159977347317434,-1.1205246498645687,0.0692154056988863,-0.1356971614044732,0.7721538040756222,-0.31100252284562885,0.21592869398476017,0.08259771074826676,-0.5754730559684821,-1.128200254796336,0.007688186622503737,-0.525030192081192,-0.2783962597598745,-0.9333662068774151,-0.9461683611196896,-0.37335535311902257,-0.62393818693254,-0.48736351452222054,-0.10780444412227456,-0.33848040743087354,-0.08345812387025513,0.1946387459471376],"bias":-0.092411794861947,"d_weights":[0.0,0.0,0.0,0.0,0.0,0.0,0.0,0.0,0.0,0.0,0.0,0.0,0.0,0.0,0.0,0.0,0.0,0.0,0.0,0.0,0.0,0.0,0.0,0.0,0.0,0.0,0.0,0.0,0.0,0.0,0.0,0.0,0.0,0.0,0.0,0.0,0.0,0.0,0.0,0.0,0.0,0.0,0.0,0.0,0.0,0.0,0.0,0.0,0.0,0.0,0.0,0.0,0.0,0.0,0.0,0.0,0.0,0.0,0.0,0.0,0.0,0.0,0.0,0.0,0.0,0.0,0.0,0.0,0.0,0.0,0.0,0.0,0.0,0.0,0.0,0.0,0.0,0.0,0.0,0.0,0.0,0.0,0.0,0.0,0.0,0.0,0.0,0.0,0.0,0.0,0.0,0.0,0.0,0.0,0.0,0.0,0.0,0.0,0.0,0.0],"d_bias":0.0,"activation":0.0011789305725907417,"as_respect_z":[0.0,0.0,0.0,0.0,0.0,0.0,0.0011775406952957525,0.0,0.0,0.0,0.0,0.0,0.0,0.0,0.0,0.0,0.0,0.0,0.0,0.0]},{"weights":[1.0210281735699342,-0.4461176112910586,-0.3460024548215603,0.2599428728300552,-0.028062142316628996,-0.05014164369113942,0.4598103937646005,0.03140212626131917,-0.2807308060362134,-0.5830554230766627,-0.44488568588802396,0.6443299047585627,-0.6810207417826672,0.03485949111147511,-0.3079098975034484,0.35978918331150295,-0.8710114929453301,-0.12649631382466214,0.4490276345809486,-0.48000401185287084,-0.23528463183850237,-0.31972255860715487,-0.25059573195017043,0.3912958082271923,-0.23711188720188867,0.3940467614509441,-0.5400689551748843,0.3269147826275415,-0.7939145404623423,0.3150894352223985,-0.6958147682333706,-0.443863224695887,-0.53283425193859,0.4593430644597577,0.5597601593839611,0.05433190060153847,-0.11649901547687491,-0.5022925586225709,-0.45917072017163396,0.17062191066461252,0.09983509076557093,-0.3420069024388831,0.06471821091366797,-0.15304962770762057,0.25655626270651294,0.27094947646370043,-0.026060866782007634,-0.020674484770789515,0.07173212928147486,-0.20073742388242066,-0.7230516989611336,-0.4801803350116244,-0.14558086805644696,-0.1936040904457868,0.08194630748819748,0.17213438383086394,0.14798320842889623,-0.3218100466504812,0.4457893308428992,-0.6063910724522716,-0.6625548164228243,-0.306323225405325,0.0873645078978131,0.41541721452017255,0.2736783604256326,0.025726363729726632,0.43403733068771855,-0.019964704929056463,0.1939859417606535,-0.1539606721282891,-0.411514147044699,-0.8969802985201438,-0.610279378095524,0.6120348608951158,-0.22049912778334455,0.009909044116549942,-0.5659520069999805,0.3790029118810282,-0.38291477826001863,-0.3635767954247065,-0.4417784128437703,0.0791583908874289,-1.2391111716247019,-0.15782688221873847,0.7311343814186163,0.07923341582632774,0.34051048368210274,-0.8009722851481119,-0.34165402289936214,-0.6403258086607915,-0.6276791936222431,0.578407966127192,0.14044150615831896,-0.1552018786584418,-0.11115339819984786,0.4760098110044467,0.00647431905615988,-0.7447586098852825,-0.17445932841310802,0.2955399408177684],"bias":0.3013766410163307,"d_weights":[0.0,0.0,0.0,0.0,0.0,0.0,0.0,0.0,0.0,0.0,0.0,0.0,0.0,0.0,0.0,0.0,0.0,0.0,0.0,0.0,0.0,0.0,0.0,0.0,0.0,0.0,0.0,0.0,0.0,0.0,0.0,0.0,0.0,0.0,0.0,0.0,0.0,0.0,0.0,0.0,0.0,0.0,0.0,0.0,0.0,0.0,0.0,0.0,0.0,0.0,0.0,0.0,0.0,0.0,0.0,0.0,0.0,0.0,0.0,0.0,0.0,0.0,0.0,0.0,0.0,0.0,0.0,0.0,0.0,0.0,0.0,0.0,0.0,0.0,0.0,0.0,0.0,0.0,0.0,0.0,0.0,0.0,0.0,0.0,0.0,0.0,0.0,0.0,0.0,0.0,0.0,0.0,0.0,0.0,0.0,0.0,0.0,0.0,0.0,0.0],"d_bias":0.0,"activation":0.017184091679038168,"as_respect_z":[0.0,0.0,0.0,0.0,0.0,0.0,0.0,0.01688879867220458,0.0,0.0,0.0,0.0,0.0,0.0,0.0,0.0,0.0,0.0,0.0,0.0]},{"weights":[-0.34349019492447497,-0.2447936877931336,-0.5198084138589819,-0.15352080541972912,-0.07236302223654589,-0.5709622094874592,-0.13342245303917463,0.008286079920566708,-0.09872398304077984,-0.9122714185951348,0.5825712355985425,-0.2007490453064842,-0.3902028830600718,-0.05229348436097066,0.6263882208969659,-0.08108217481669468,-0.6875363876291067,-0.30962068098865214,-0.25424087722324895,0.4202779097559708,-0.6559611391829748,-0.2990412689919083,-0.16214387342391448,0.06516347668243523,0.30017078699836736,-0.2910508761695089,0.4518415282844576,-0.9445217520597848,-0.7856515816559764,-0.2270653713406123,-0.8786036201945786,1.14822354240768,-0.46701516375733665,-0.3833967671401918,0.07167242423265069,0.8090601584030458,-0.7482224355258723,-0.028942039305001374,-0.16090503818306637,0.3892278521481893,-0.07636219033642554,0.07960848477383799,-0.07250809652818635,-0.04594379586159692,-0.524973895829415,-0.03775371528541233,0.11393411910006994,0.2343425454001661,0.10668542761435727,-0.06514462492960839,-0.18969486768306035,0.35907115048125116,0.28764039715752604,-0.7275493665147752,0.017457553273668387,-0.1335891414508419,0.48602745554957183,0.6159046976234523,-0.1825624081219141,-0.11026719500811083,-0.5514766700438649,-1.0816601887329713,0.3189458961201309,-0.059440057391334566,-0.8479154532969295,-0.4503508506005975,0.12474178507882651,-0.22881920154513385,-0.33778792925732304,0.37010465519272656,0.07805012569973395,1.1015687573516952,-0.2748485717616295,-0.7051239249210637,-0.0943271280913421,0.06353369739650061,-0.4275270375559061,-0.6896581649999405,0.12587349628257827,0.8626894475932465,0.061505433592337615,0.33042788526137484,-0.895700588467196,0.20363989930396376,0.9233576637702702,-0.11607419272285577,-0.34737692663765324,0.8065473734968265,-0.26316585501892137,0.06603888225540762,-0.47932994893860564,0.12071384407026405,-0.10623217460142792,0.06979785081225838,-0.29750717611993877,1.602576932877424,-0.1928170061174883,-0.24568532483750286,-0.8427017947614467,-0.6578654375297046],"bias":1.2276265564685598,"d_weights":[0.0,0.0,0.0,0.0,0.0,0.0,0.0,0.0,0.0,0.0,0.0,0.0,0.0,0.0,0.0,0.0,0.0,0.0,0.0,0.0,0.0,0.0,0.0,0.0,0.0,0.0,0.0,0.0,0.0,0.0,0.0,0.0,0.0,0.0,0.0,0.0,0.0,0.0,0.0,0.0,0.0,0.0,0.0,0.0,0.0,0.0,0.0,0.0,0.0,0.0,0.0,0.0,0.0,0.0,0.0,0.0,0.0,0.0,0.0,0.0,0.0,0.0,0.0,0.0,0.0,0.0,0.0,0.0,0.0,0.0,0.0,0.0,0.0,0.0,0.0,0.0,0.0,0.0,0.0,0.0,0.0,0.0,0.0,0.0,0.0,0.0,0.0,0.0,0.0,0.0,0.0,0.0,0.0,0.0,0.0,0.0,0.0,0.0,0.0,0.0],"d_bias":0.0,"activation":0.09614873074855315,"as_respect_z":[0.0,0.0,0.0,0.0,0.0,0.0,0.0,0.0,0.08690415232399538,0.0,0.0,0.0,0.0,0.0,0.0,0.0,0.0,0.0,0.0,0.0]},{"weights":[-0.04166907836831564,-0.17817394220075947,-0.4818904894262964,0.42248568572530953,0.6752837246355354,-0.1856793319359301,-0.20051031533620545,-0.6510462923592931,0.2864419805333872,0.6998643491688191,-0.12065390866039934,-0.3544256811164066,0.07438386072338811,-0.00288433289493113,-0.29374838763685823,-0.06069700076474866,-0.10584061602295373,-0.18781875658969957,-0.3804159065024404,-0.06873009759947107,-0.13934612071878244,-0.07106005155162996,-0.29141419151322073,-0.032763539749462146,0.7792027635662637,-0.26619734697218744,-0.16910789150241123,-0.27829169094680145,0.13069620396081535,-0.18744346562709643,0.6988719560771968,1.0386321123022009,-0.29808590672760793,0.1482192209468788,0.3220681323010589,0.1412485782318487,-0.05748087215992542,-0.4331958130851717,-0.9541324812130336,-0.20129900800210349,-0.5317076393100619,-0.46034884575481155,-0.032934325312697785,-0.004806877411597784,-0.1848078281016704,1.5159189440842191,-0.24845002353922932,-0.46097353180670586,0.10721589186340205,0.11420448035778935,0.6991971188391971,-0.33662296311301154,1.1901741514655244,-0.7317012054345435,0.4116975969610494,0.34320593020609663,0.1457133531286441,0.4859793244769234,-0.3130264342419767,0.3140094113144256,0.323815065992968,-0.1935693189660838,0.14506722836233718,0.5447956397408714,-0.46497010404702943,-0.5504385236908126,0.14843795232720067,0.63158914175433,-0.17789452044976783,-0.09684229336762902,-0.14138620650155176,0.1959201434650474,-0.25200839593751584,0.4358545713712645,-0.30379053457930166,0.12922806749669255,-0.4238492040202853,-0.04780760089588175,0.8167058698265298,0.6232005249768288,-0.5359933194867836,-0.25843924576775273,-0.10613312841576106,0.027082824562125647,0.13637634502870064,-0.32053509370751837,0.07996143590853066,-0.3822431607671836,-0.060717996878326345,-0.28019940181223124,0.35147172465464427,-0.4209868606303142,-0.7884079021480446,0.49734302907976863,-0.6592590825235588,1.111241671910049,-0.5335719913919816,0.34157043699619755,-0.2629861283178278,-0.37531965240008114],"bias":-1.3040809468837977,"d_weights":[0.0,0.0,0.0,0.0,0.0,0.0,0.0,0.0,0.0,0.0,0.0,0.0,0.0,0.0,0.0,0.0,0.0,0.0,0.0,0.0,0.0,0.0,0.0,0.0,0.0,0.0,0.0,0.0,0.0,0.0,0.0,0.0,0.0,0.0,0.0,0.0,0.0,0.0,0.0,0.0,0.0,0.0,0.0,0.0,0.0,0.0,0.0,0.0,0.0,0.0,0.0,0.0,0.0,0.0,0.0,0.0,0.0,0.0,0.0,0.0,0.0,0.0,0.0,0.0,0.0,0.0,0.0,0.0,0.0,0.0,0.0,0.0,0.0,0.0,0.0,0.0,0.0,0.0,0.0,0.0,0.0,0.0,0.0,0.0,0.0,0.0,0.0,0.0,0.0,0.0,0.0,0.0,0.0,0.0,0.0,0.0,0.0,0.0,0.0,0.0],"d_bias":0.0,"activation":0.00821019625907365,"as_respect_z":[0.0,0.0,0.0,0.0,0.0,0.0,0.0,0.0,0.0,0.008142788936461143,0.0,0.0,0.0,0.0,0.0,0.0,0.0,0.0,0.0,0.0]},{"weights":[0.2054097743220653,0.2884248223513114,0.39564796788903794,0.2731019526052176,-1.5449543173943148,-0.15368366269605682,0.5234736039292209,0.4603253697257816,-0.29943279925146393,-1.616118224651906,-0.594876596307555,0.3611502404817531,0.10408845459046852,-0.12286292969002124,-0.060713633219017446,0.26734139777751703,-0.41887299150597707,0.18114185992820023,0.2882995810191215,-0.28829554762837334,0.4379300324701413,0.03755554777780614,0.10935815914013013,0.08184758006238649,-0.8284809130739884,-0.14774126820703973,-0.11757135829132417,0.9479600926866847,-0.17760235720808343,0.4219794221127621,-0.7392891903162628,-2.0115957291062556,0.20623845983748698,-0.08491298153789538,0.4795228308926476,0.33498963558547873,-0.21973660878988394,0.43765279339156865,1.2489128866802917,0.7107728964816289,0.18101768175974658,0.6887204710575118,-0.00739237454536852,0.13208238427610738,0.1907035737932198,-1.0896331255577256,0.2846327266394011,0.47021987866366416,-0.10283251539868352,-0.024097390847844645,-1.2642317878467406,0.1719080246832951,-0.5162511700703629,0.711074926072437,-0.594887698230913,-0.16477790872469433,-0.16534552031012947,-0.42125592803108836,-0.07098245098404238,0.08040162972887117,-0.8441039622644864,-0.1651418177747911,0.641876912313872,-0.1208596112926631,0.8863508114707012,0.663328084577739,0.041351883402252425,-0.2798201411160217,0.4169180523902417,0.15665646417209503,-0.1505849907564857,-0.9706152213724099,-0.1141896646392285,0.29528599813203354,0.7093223678445824,0.02287294396700595,-0.12961680847989268,0.18063526122020387,-0.718506341007217,-0.5741665227782524,0.5378042271768394,0.39284604645408405,0.303144392966573,-0.02606264391089217,0.19502997485124335,0.06837756331861758,-0.04664800383626029,-0.3515060671800883,-0.08467610704728915,-0.22883409687703676,0.2533682735198758,0.09239206672392274,0.5064338778555435,-0.3584223649031538,0.30921649997827294,-0.14832189388760886,0.8613117412812729,-0.6495450438058237,0.43105151078836984,0.3187167805302823],"bias":-1.3432932667303863,"d_weights":[0.0,0.0,0.0,0.0,0.0,0.0,0.0,0.0,0.0,0.0,0.0,0.0,0.0,0.0,0.0,0.0,0.0,0.0,0.0,0.0,0.0,0.0,0.0,0.0,0.0,0.0,0.0,0.0,0.0,0.0,0.0,0.0,0.0,0.0,0.0,0.0,0.0,0.0,0.0,0.0,0.0,0.0,0.0,0.0,0.0,0.0,0.0,0.0,0.0,0.0,0.0,0.0,0.0,0.0,0.0,0.0,0.0,0.0,0.0,0.0,0.0,0.0,0.0,0.0,0.0,0.0,0.0,0.0,0.0,0.0,0.0,0.0,0.0,0.0,0.0,0.0,0.0,0.0,0.0,0.0,0.0,0.0,0.0,0.0,0.0,0.0,0.0,0.0,0.0,0.0,0.0,0.0,0.0,0.0,0.0,0.0,0.0,0.0,0.0,0.0],"d_bias":0.0,"activation":0.2800712589051375,"as_respect_z":[0.0,0.0,0.0,0.0,0.0,0.0,0.0,0.0,0.0,0.0,0.20163134884042894,0.0,0.0,0.0,0.0,0.0,0.0,0.0,0.0,0.0]},{"weights":[-0.37169502696299866,-0.7428631439383331,-0.6569413102428462,0.7815345787647834,-0.40913466553440164,-0.23255261957160378,-0.058052322571187524,-0.4058465339905068,-0.2478470348756587,0.051558769568485756,-0.3720794646158174,-0.55736675745344,0.3815641706468815,0.0570313915579029,0.6242124756651561,-0.19311987524569232,0.23265587951505265,0.3435847175249612,-0.22599077813273571,0.05995426432272636,-0.3629676835747393,0.13188621111726792,-0.13362006840707966,0.03332293363235456,0.004072153883125572,-0.346780682414053,-0.23540688138034543,-1.1101005294349895,0.09472538603267572,0.4497195434365769,-0.49082638069807727,-0.276650353593999,-0.2939135591741292,-0.3711785220730355,0.5240091331850245,0.1377276621861373,0.4893912064732544,0.7296240928607447,0.8221817560359033,-0.6351321514080718,-0.6455705352866749,-0.3874846570006958,-0.084374756780373,-0.3836698090057238,0.3670145235450422,-0.032204875564487236,-0.05934291950421447,0.23500828000351537,1.0557965449877267,0.3512154780278412,0.2663941116674556,0.19559419070179282,-0.9767362144284606,-0.9776533972872489,0.03789770069323052,0.8140077468993374,-0.06671400286028889,0.3825902672106123,-0.05382120544947025,-0.36847950552791614,0.23974178270894003,0.15872581667300087,0.7957901578958491,0.8084924599948005,-0.8939814268921467,-0.19253060160143629,-0.17540724877126523,0.8348235158874328,-0.19906007918413576,0.06355669652629964,0.03959702535130568,0.7068025728386186,0.3968522202504454,-0.3316603635411945,-0.5767460633750325,0.2154319897028399,0.5998786012074816,-0.002399534375896575,0.18988044271055401,0.9057258724659436,0.27958125039776016,-0.6582277853437125,0.5277857133062385,0.012828485562166614,-0.0027207350643030734,-0.24238568327260596,-0.5679746537246506,-0.11046344529410203,0.39823247160132114,-0.06149777418167361,-0.3293232385605305,-0.7048535023683519,-0.8795571483081467,-0.1553581325891443,-0.11851951932366069,0.8335918808051491,-1.1976769499811946,0.532025309253016,0.05505037450971632,-1.880704473075769],"bias":-0.09176528652990608,"d_weights":[0.0,0.0,0.0,0.0,0.0,0.0,0.0,0.0,0.0,0.0,0.0,0.0,0.0,0.0,0.0,0.0,0.0,0.0,0.0,0.0,0.0,0.0,0.0,0.0,0.0,0.0,0.0,0.0,0.0,0.0,0.0,0.0,0.0,0.0,0.0,0.0,0.0,0.0,0.0,0.0,0.0,0.0,0.0,0.0,0.0,0.0,0.0,0.0,0.0,0.0,0.0,0.0,0.0,0.0,0.0,0.0,0.0,0.0,0.0,0.0,0.0,0.0,0.0,0.0,0.0,0.0,0.0,0.0,0.0,0.0,0.0,0.0,0.0,0.0,0.0,0.0,0.0,0.0,0.0,0.0,0.0,0.0,0.0,0.0,0.0,0.0,0.0,0.0,0.0,0.0,0.0,0.0,0.0,0.0,0.0,0.0,0.0,0.0,0.0,0.0],"d_bias":0.0,"activation":0.01995104579502776,"as_respect_z":[0.0,0.0,0.0,0.0,0.0,0.0,0.0,0.0,0.0,0.0,0.0,0.019553001566712466,0.0,0.0,0.0,0.0,0.0,0.0,0.0,0.0]},{"weights":[1.0540414709442465,-0.10452160780394634,-0.058565552979415104,-0.11699728501912879,-0.28333688354675296,0.24385046190272291,0.38160297133405563,0.09831764974187811,-0.35295252209504574,-0.1428063749652466,-0.4905604002523757,-0.10078963195606568,0.6155217230789525,0.03126790499016574,-0.17507503662833887,0.3965142727746121,-0.8755401769695362,-0.2718876170169743,0.36795002456407,-0.6845024014620976,0.2100680410639995,0.32280408021300455,0.17857280403977538,-0.13236849480659665,-0.6804190030741416,0.16198971575956195,-0.5915473489521715,0.8094542630750002,-0.2926817166556113,-0.24760843010686545,-0.5832052882794722,-0.445671955218306,-0.4379419862271299,0.8861664092857362,0.23544845691670926,-0.2860028790630269,0.6092929205855948,0.5613718881416883,-0.04162977616989383,-0.4633240506706957,-0.07897478748839752,-0.12305593348763298,-0.08103425774560075,-0.05686139114423116,-0.3302628213233458,-0.21653974252597205,-0.039405100815520615,-0.44446064827298104,0.9449968211673866,-0.14975800910477735,-0.4905517654551089,-0.6374050604383109,-0.21320812147512821,-0.3843324597094514,0.341457548578876,1.087093859512442,0.007794673187466684,-0.39551342484434,-0.011150261469220728,0.048213660128580964,-0.4023679669993069,0.046962487664959654,-0.7015922440974096,1.045227045321378,0.22032655847215882,0.5715983322364971,0.21167501170906497,0.16069071354625605,0.20201136510418738,-0.5876536623475134,-0.46888160174068305,-0.8969899608291554,-0.35084771890678534,-0.24198086774210545,-0.16500181692979102,0.03277217529593647,-0.19137242533747384,-0.20813138074645546,-0.18776580487239425,0.1956479922740627,-0.18621260046865487,-0.3425513170934845,0.1261348489281932,-0.1847907300665921,-0.014260104861632678,-0.014099985659879783,0.4636036239484226,-0.859160606407872,0.19154127972298918,-0.940093459517964,0.1762117179856328,-0.07824722462132447,0.07490931413716759,0.2258285809515359,0.16068662304446243,0.24013131886962838,-0.33316164243476126,-0.05844622929830591,0.39234541470862977,-0.0662290289177696],"bias":0.30485288124871035,"d_weights":[0.0,0.0,0.0,0.0,0.0,0.0,0.0,0.0,0.0,0.0,0.0,0.0,0.0,0.0,0.0,0.0,0.0,0.0,0.0,0.0,0.0,0.0,0.0,0.0,0.0,0.0,0.0,0.0,0.0,0.0,0.0,0.0,0.0,0.0,0.0,0.0,0.0,0.0,0.0,0.0,0.0,0.0,0.0,0.0,0.0,0.0,0.0,0.0,0.0,0.0,0.0,0.0,0.0,0.0,0.0,0.0,0.0,0.0,0.0,0.0,0.0,0.0,0.0,0.0,0.0,0.0,0.0,0.0,0.0,0.0,0.0,0.0,0.0,0.0,0.0,0.0,0.0,0.0,0.0,0.0,0.0,0.0,0.0,0.0,0.0,0.0,0.0,0.0,0.0,0.0,0.0,0.0,0.0,0.0,0.0,0.0,0.0,0.0,0.0,0.0],"d_bias":0.0,"activation":0.001096634367598581,"as_respect_z":[0.0,0.0,0.0,0.0,0.0,0.0,0.0,0.0,0.0,0.0,0.0,0.0,0.0010954317606623825,0.0,0.0,0.0,0.0,0.0,0.0,0.0]},{"weights":[0.45257424762020887,0.008048086111532151,0.07827920581274711,-0.11657921879433768,0.29375014570893615,0.4297642336879048,-0.4974755965593528,0.6972400713943542,0.9647380046200117,1.3733880208883071,-0.45501892703728086,0.7464617602776384,0.31885942187041444,0.052151676146460726,-0.35160752319016336,-1.2582629303943367,0.19635776435207855,0.112932502266001,-0.4562541125317331,-0.2906505954374847,-0.36959838133437,-0.28026849990125946,-0.8226007988051338,-0.3675218094086351,0.36689636536447995,0.5334129829457439,0.39361943037963876,-0.20995892206140418,0.6466995208567832,0.36472639364726855,1.1202176616045605,-0.46389139797694967,0.4959918124822562,0.2739362416862128,-0.39535317983878393,0.19410966170133986,-0.1444498028618506,-0.32866989365589244,-0.04956000488374823,0.03328612983831663,-0.14193225981634686,0.43533900208937626,0.7495752732486807,1.027659011489128,-0.15949684965444302,0.9824418355832407,-0.3535743509851493,0.1786539998718732,-0.7084582216713272,-0.06209366952988534,0.5718242508015595,-0.15517469099736608,0.5914485256929102,-0.08101609037059644,-0.23225742512945738,-1.1567523107925637,-0.8264488541178627,0.27336170515846453,0.6849433608739166,0.07367192165881528,0.78069951212449,0.149899142565519,0.09816614539463836,-0.5807576224526998,0.5711188956834246,-1.1942116242392242,0.012612299717286259,0.4314106943821793,-0.20293459400162073,-0.12295680825446753,-0.050205190630001,-0.04132989282999936,-0.22836088217677344,0.10301661683308269,0.5642738867375003,0.12317217160994559,-0.12391338673733292,0.3831596955749887,0.017565403684946655,0.15383868434228704,-0.5414643737182199,-0.10313388099411501,0.6208528078820926,-0.11944363538379735,-1.064807377756953,-0.31439529807528643,0.7456314636281604,-0.5668048560177349,0.0069431884704087175,0.11778874939279613,0.6019442532806548,0.07181312703233374,-0.3313648275998495,-0.5448473705972863,-0.47292679048698777,-0.48335201303451303,0.18057043828749186,0.38295496481260566,0.6246105292281835,0.5686757424678556],"bias":-2.0502693875615194,"d_weights":[0.0,0.0,0.0,0.0,0.0,0.0,0.0,0.0,0.0,0.0,0.0,0.0,0.0,0.0,0.0,0.0,0.0,0.0,0.0,0.0,0.0,0.0,0.0,0.0,0.0,0.0,0.0,0.0,0.0,0.0,0.0,0.0,0.0,0.0,0.0,0.0,0.0,0.0,0.0,0.0,0.0,0.0,0.0,0.0,0.0,0.0,0.0,0.0,0.0,0.0,0.0,0.0,0.0,0.0,0.0,0.0,0.0,0.0,0.0,0.0,0.0,0.0,0.0,0.0,0.0,0.0,0.0,0.0,0.0,0.0,0.0,0.0,0.0,0.0,0.0,0.0,0.0,0.0,0.0,0.0,0.0,0.0,0.0,0.0,0.0,0.0,0.0,0.0,0.0,0.0,0.0,0.0,0.0,0.0,0.0,0.0,0.0,0.0,0.0,0.0],"d_bias":0.0,"activation":0.9945858960813982,"as_respect_z":[0.0,0.0,0.0,0.0,0.0,0.0,0.0,0.0,0.0,0.0,0.0,0.0,0.0,0.005384791397360335,0.0,0.0,0.0,0.0,0.0,0.0]},{"weights":[-0.4244032754560638,-0.26795398646004814,-0.5653944717300906,0.5012471968175843,-0.4866339402926343,-0.4853032667509147,0.13329304923999294,0.14389865337256172,-0.5244586027753882,-0.9176157475802794,0.4652523304836782,0.1843442758045132,-0.038356191009022225,-0.05880071024857795,-0.7495580216412452,-0.12392538025212518,-0.4415934240802641,0.5776436694208781,-0.05945045404890596,-0.271654907944022,-0.2109515155759218,-0.5490356526782103,-0.5690570945925802,0.6664814439160006,0.10993202186855305,-0.3778029840070478,0.1606398622568199,-1.3121907652486893,-1.1700940797881856,0.1963668317401179,-0.9527999588473857,1.0237093785831037,-0.5185419560623297,-0.4837909253241985,0.608185400826482,1.0510272246408365,-0.48456949981675423,-0.6093313747900698,-0.9287862973262193,0.38486605792982453,0.20179686195339935,-0.07460042383859893,-0.08550724726216277,-0.10717833783356362,-0.02198238877009812,0.37532947472392236,0.38728977005533854,-0.9492188381397576,0.31037072619356654,-0.07168679245866164,-0.8117095250151124,-0.027595580740302036,0.47867674939612886,-0.8492342762571401,0.17526444127351026,0.09956923340639723,0.6338444947720302,-0.04456048236255652,-0.25472840386734125,-0.5394634282059292,-0.5644549292762233,-0.3533092958923766,0.8248923159988477,0.5403755462205765,-1.0858089283457109,0.06604754428766765,0.14835694914005582,-0.29017622729036846,-0.04333771247911337,-0.5670198136572405,0.021411716533699124,-0.653153450949347,-0.2843790691388218,-0.16215505990718915,-0.28600807389791816,0.2542575304256281,-0.46785320139620984,-0.286700496466187,-0.13270153770362728,0.030002940346763228,-0.667321215374658,0.4157515061815731,-0.7819538004302243,-0.1254283619014542,0.8976705938305207,-0.09986448535806969,-0.67032909377503,-0.15269496140241462,-0.5041998861077536,-0.698610347784312,-0.8028056701241598,-0.11861390485315487,0.02371115131642216,0.21438984932320923,0.27503487053701026,1.4247977549447661,-0.14494647451400935,-0.5945510193865332,-1.4166668834423477,-0.8897621934104155],"bias":-0.039772654711914525,"d_weights":[0.0,0.0,0.0,0.0,0.0,0.0,0.0,0.0,0.0,0.0,0.0,0.0,0.0,0.0,0.0,0.0,0.0,0.0,0.0,0.0,0.0,0.0,0.0,0.0,0.0,0.0,0.0,0.0,0.0,0.0,0.0,0.0,0.0,0.0,0.0,0.0,0.0,0.0,0.0,0.0,0.0,0.0,0.0,0.0,0.0,0.0,0.0,0.0,0.0,0.0,0.0,0.0,0.0,0.0,0.0,0.0,0.0,0.0,0.0,0.0,0.0,0.0,0.0,0.0,0.0,0.0,0.0,0.0,0.0,0.0,0.0,0.0,0.0,0.0,0.0,0.0,0.0,0.0,0.0,0.0,0.0,0.0,0.0,0.0,0.0,0.0,0.0,0.0,0.0,0.0,0.0,0.0,0.0,0.0,0.0,0.0,0.0,0.0,0.0,0.0],"d_bias":0.0,"activation":0.019342947277405462,"as_respect_z":[0.0,0.0,0.0,0.0,0.0,0.0,0.0,0.0,0.0,0.0,0.0,0.0,0.0,0.0,0.018968797668028975,0.0,0.0,0.0,0.0,0.0]},{"weights":[0.057394740310427836,0.7427112026000947,0.25497580890333177,-0.5181306604057284,-0.24839406340970022,-0.3573074351269919,-0.07804438462026471,0.06453177487088471,0.16798751027848532,-0.280741621499029,-0.5810569304272797,-0.07372950110402259,0.9054013604630571,-0.11376693092402862,-0.31104340249077805,0.5538143411928919,-0.9205761493716413,-0.32285278995514927,-0.36618373049550185,-0.43338613112797175,-0.124284723498864,-0.06430398881986209,0.15377268795182936,-1.3269473016691358,-0.02771447127483775,-0.3926527840031093,-0.473534476133542,0.7823891575927688,-0.5362913106677906,-0.7329697362938884,0.2861838715316894,-0.21088460417718538,0.11306083231487978,0.2838787355348821,-0.24886931662106432,0.40477672702654405,-0.5959744055810955,0.4867659312679304,-0.0013803640963232248,0.562665668039899,-0.13211453055173192,0.74880000738492,-0.2776768541966796,0.2182037633442737,-1.7112765768687157,-0.14387208840062832,-0.20257018460575646,0.07132450254080534,0.16890423329125312,-0.20430704270058353,-0.18908901373044198,-0.2605309346334408,1.583606003394029,0.44750843880448965,0.5136191327528293,0.30278849935689245,-0.2579058945494834,-0.23089278907515734,-0.17313416107264454,0.6964704266828349,-0.2515576852067128,-0.42127624499439037,-0.43619528838147176,-0.22652579958984576,0.6718723000157341,0.49192253385799,0.11048485853208237,-0.7253580819159495,-0.19151422256483547,-0.0827212266044682,-0.5958007004921386,-0.3944958784802498,-0.8809476679637013,0.05778177771942916,0.8759034813771711,0.028981227456122548,-0.8682501041921494,-0.37610089348710335,0.49874065177287497,0.4862561668987132,-0.2509142219192772,-0.002085392081328135,-0.24037220377514354,-0.07858805447943096,-0.20471681967663546,0.0400167834728481,0.28781669492772854,-0.9194244975655826,-0.17944230618855547,-0.8136446459456865,0.7204871118360577,-0.2114143478969584,0.018292218065336305,0.7724926914770054,-0.48898793204143637,0.29951144707676014,0.9661062573159007,-0.03552900497931265,-0.15984239139692058,0.811893410826076],"bias":-0.2705942467047157,"d_weights":[0.0,0.0,0.0,0.0,0.0,0.0,0.0,0.0,0.0,0.0,0.0,0.0,0.0,0.0,0.0,0.0,0.0,0.0,0.0,0.0,0.0,0.0,0.0,0.0,0.0,0.0,0.0,0.0,0.0,0.0,0.0,0.0,0.0,0.0,0.0,0.0,0.0,0.0,0.0,0.0,0.0,0.0,0.0,0.0,0.0,0.0,0.0,0.0,0.0,0.0,0.0,0.0,0.0,0.0,0.0,0.0,0.0,0.0,0.0,0.0,0.0,0.0,0.0,0.0,0.0,0.0,0.0,0.0,0.0,0.0,0.0,0.0,0.0,0.0,0.0,0.0,0.0,0.0,0.0,0.0,0.0,0.0,0.0,0.0,0.0,0.0,0.0,0.0,0.0,0.0,0.0,0.0,0.0,0.0,0.0,0.0,0.0,0.0,0.0,0.0],"d_bias":0.0,"activation":0.005083263003054543,"as_respect_z":[0.0,0.0,0.0,0.0,0.0,0.0,0.0,0.0,0.0,0.0,0.0,0.0,0.0,0.0,0.0,0.00505742344029632,0.0,0.0,0.0,0.0]},{"weights":[0.022927023471663407,-0.34673079381433736,-0.10955984534920389,-0.017148187941266543,0.26115010937342537,0.6898053137735971,-0.18387209700894033,0.8952570839541442,0.1968791481240588,0.5172493829378482,0.22045581293625927,1.2300285595248581,0.32192621701164964,0.09622925132371127,-1.0883227990336615,-1.0827823553240088,0.2915080578589984,0.6249489694560253,0.5054099850477436,-0.36655507789427877,-0.11489320804713897,0.14132430580091795,-0.5104627566537859,0.5698958616371985,-0.579994341375042,0.7083037480116602,0.1469801153176819,-1.2180837175532784,-0.18456610272383742,0.7597708332538856,-0.05115928868067988,-0.17987781612943538,0.037849124442704975,-0.13625244619812377,-0.6156107878862961,0.2990829284781794,1.2315112686019165,0.15717841484761555,0.09316501569473559,-0.5001163823565229,0.3297449100994029,0.2036907529938873,0.9059783916707033,1.0677569609745883,1.3968687727205278,0.09057297419541531,0.16781086587030652,-0.44866895776460636,0.004954221460661781,0.09887596639306141,0.19244581111388054,-0.2376585353848609,-0.7344255009502049,-0.283967015302497,-0.2313928267881171,-0.5029596171578153,-0.14739651022824443,-0.6932088147881901,0.42018339306709074,-0.5951389588254437,0.1319297255891712,1.0252880077066044,-0.24654779190549977,-0.06593406009427605,-0.34985515718881155,0.4120068986317996,-0.07194650972698939,0.369319388689422,0.06018349662719975,-0.5947862257452986,-0.32157789227064826,-0.45107014769236803,0.4110943002863122,-0.3106904259287867,-0.07093138193116177,-0.1053107197832078,0.8154836159314799,-0.11625800175740493,-0.5889152252012719,-0.47474507062910204,0.025684717720155025,0.0675399855267415,0.7557063587597131,-0.0639710064371279,-0.8027468735662323,0.0352522755706397,0.17432528287010335,-0.5101809244810197,0.4521447634574998,-0.5505230931867472,-0.09977709487999661,0.452206022039332,0.3912111443766139,-1.076297937142975,1.1005589908707751,-0.6643204109541588,0.1337970844882768,0.4116576278207013,0.5985761799814925,-0.6009815947391746],"bias":-1.0920241635465793,"d_weights":[0.0,0.0,0.0,0.0,0.0,0.0,0.0,0.0,0.0,0.0,0.0,0.0,0.0,0.0,0.0,0.0,0.0,0.0,0.0,0.0,0.0,0.0,0.0,0.0,0.0,0.0,0.0,0.0,0.0,0.0,0.0,0.0,0.0,0.0,0.0,0.0,0.0,0.0,0.0,0.0,0.0,0.0,0.0,0.0,0.0,0.0,0.0,0.0,0.0,0.0,0.0,0.0,0.0,0.0,0.0,0.0,0.0,0.0,0.0,0.0,0.0,0.0,0.0,0.0,0.0,0.0,0.0,0.0,0.0,0.0,0.0,0.0,0.0,0.0,0.0,0.0,0.0,0.0,0.0,0.0,0.0,0.0,0.0,0.0,0.0,0.0,0.0,0.0,0.0,0.0,0.0,0.0,0.0,0.0,0.0,0.0,0.0,0.0,0.0,0.0],"d_bias":0.0,"activation":0.9843530854231166,"as_respect_z":[0.0,0.0,0.0,0.0,0.0,0.0,0.0,0.0,0.0,0.0,0.0,0.0,0.0,0.0,0.0,0.0,0.015402088641107101,0.0,0.0,0.0]},{"weights":[-1.1434969808542919,-0.2582106316401043,0.1456256976543011,0.846119689683516,-0.7865554745382805,-0.34343512127252046,0.386879614386971,-0.39957208745298506,-0.853346351979078,0.13020981297485715,0.6230418509619079,-0.8532631274885157,-0.02479538031116725,-0.06705240276601025,0.23885994023465795,0.6991274682505687,0.5302919005134834,0.3123054463385434,0.1034905986994131,0.6524024347839098,0.8779919391038624,0.24510258990715555,0.10888850075148737,0.7648750480702247,-0.26078338586523453,-0.075658201687628,-0.43521242278864986,-0.3587015500340727,0.8872444652796782,-0.03862985767357909,0.052006860107745106,0.771999632281401,-0.15558576325809909,-0.5532781981688164,0.7645367405636043,-0.16357648174421488,0.3227331070303518,-0.14521963978487568,-0.8801633872761838,0.38068908555787556,0.0854679924937331,-0.1351620239044167,-0.0583461044677025,-0.9100465892331766,1.090717141857612,0.05085593973428829,0.31084363924494407,-0.490238751971675,0.19132746184540755,0.608863393118412,-0.36545487212762834,0.20851923022371294,0.14898623031906535,0.06286837590501365,-0.46789869814429397,0.5461803275955381,0.6543263544533651,0.6378512056991723,-1.3117587374399504,-0.584465962057451,0.32119452505998275,-0.20877546126502047,0.6457122534831031,0.9403659134356548,-0.35000626237004157,0.42513426744915506,-0.13848468010245318,0.3560371157340376,0.44824161352898145,0.3006996806670028,0.08904002357473081,-0.6061703657313559,-0.7651658542506025,0.6540810104295788,-0.0631502551746034,0.32526250306798793,-0.584905983245899,-0.9283863601173602,-1.2415009024285073,-0.4319606856395513,0.8160501054733681,0.7186849837741387,0.22608848179741703,0.11749585973871886,0.76499429090153,0.17273129521486985,-0.7306936360225573,0.29235935695717347,-0.09920152679101894,-0.7676946132536432,-0.4651604639951999,-0.49966101853615263,-0.15785311975510727,-0.16618171301744233,-0.17370369346101616,0.2545991796997559,0.10603324597375788,0.2524876993625497,-0.7283054280463059,-0.13688353089845814],"bias":1.1400507601004621,"d_weights":[0.0,0.0,0.0,0.0,0.0,0.0,0.0,0.0,0.0,0.0,0.0,0.0,0.0,0.0,0.0,0.0,0.0,0.0,0.0,0.0,0.0,0.0,0.0,0.0,0.0,0.0,0.0,0.0,0.0,0.0,0.0,0.0,0.0,0.0,0.0,0.0,0.0,0.0,0.0,0.0,0.0,0.0,0.0,0.0,0.0,0.0,0.0,0.0,0.0,0.0,0.0,0.0,0.0,0.0,0.0,0.0,0.0,0.0,0.0,0.0,0.0,0.0,0.0,0.0,0.0,0.0,0.0,0.0,0.0,0.0,0.0,0.0,0.0,0.0,0.0,0.0,0.0,0.0,0.0,0.0,0.0,0.0,0.0,0.0,0.0,0.0,0.0,0.0,0.0,0.0,0.0,0.0,0.0,0.0,0.0,0.0,0.0,0.0,0.0,0.0],"d_bias":0.0,"activation":0.03957408558366143,"as_respect_z":[0.0,0.0,0.0,0.0,0.0,0.0,0.0,0.0,0.0,0.0,0.0,0.0,0.0,0.0,0.0,0.0,0.0,0.03800797733387847,0.0,0.0]},{"weights":[0.7970194458775784,-0.40081442017383623,-0.5037348073956838,-0.3833534433132002,1.0070609221709335,-0.3615663009872585,0.2384498009970351,0.12983304214328797,-0.7744123269027386,-0.1950227457156551,0.2972296750572427,0.23018646587079886,-0.5974508957217607,0.02300659110746499,-0.38448169712334007,0.1249235375282947,-0.865317976850757,-0.3150713244033038,1.1510077956789142,-0.32818426556065294,-0.5107961739829309,-0.03820022532951107,0.0371680341706527,0.7934289143751455,0.09171022547761594,0.5444634038360384,-0.4641831541957615,-0.04757281548734156,-1.2432149130614183,0.05088886075469684,-1.2274698050069166,0.7384136819213606,-0.7846413085737,0.5693280907344564,-0.17891527495350848,0.20494978164238167,0.5520709101946241,0.107689646800186,-0.6896851898108489,-0.4305427525484179,0.4250931300012536,-0.498324854765817,0.024853113750469474,0.05167170891108952,1.029370443816495,0.2346939453141547,0.35368376629066334,-0.6238942072514885,0.419098618685596,-0.41080874201744105,0.40498993479095885,-0.7371925003095541,-0.854186495277571,-0.6010547655807074,0.38941623619915244,0.242669478195113,0.2772105849878861,-0.7592074167961637,-0.1796149624414103,-0.3540213665791682,-0.880496686227274,-0.20492480973465854,-0.701228374691632,0.5417109798058206,-0.6930180265475085,0.3893719806772035,-0.018018662709831382,0.2825191279737845,0.007054986065851434,-0.4953966333925319,-0.5446428509940627,-0.08030478696445126,-0.5839133613273704,0.16293230719764645,-0.4817536366793779,0.0028340948744445095,0.15426548155727038,-0.34938908277351494,0.4985891343221131,-0.40756980174626883,-0.16502246562739292,0.19737090935529347,-1.2389102041719795,0.0199278860662607,0.6287501553821658,0.16205259990802826,-0.022558702383848515,-0.3394140999479817,-0.16596568828865288,-0.5920898135252349,-0.5785553041096944,0.8725264833548948,0.5985669891284363,-0.35555250421877055,0.41022221290755034,0.564517483708538,-0.2192143696415457,-0.17334460351397227,-0.752171563078539,-0.465914854239059],"bias":1.3544875021138107,"d_weights":[0.0,0.0,0.0,0.0,0.0,0.0,0.0,0.0,0.0,0.0,0.0,0.0,0.0,0.0,0.0,0.0,0.0,0.0,0.0,0.0,0.0,0.0,0.0,0.0,0.0,0.0,0.0,0.0,0.0,0.0,0.0,0.0,0.0,0.0,0.0,0.0,0.0,0.0,0.0,0.0,0.0,0.0,0.0,0.0,0.0,0.0,0.0,0.0,0.0,0.0,0.0,0.0,0.0,0.0,0.0,0.0,0.0,0.0,0.0,0.0,0.0,0.0,0.0,0.0,0.0,0.0,0.0,0.0,0.0,0.0,0.0,0.0,0.0,0.0,0.0,0.0,0.0,0.0,0.0,0.0,0.0,0.0,0.0,0.0,0.0,0.0,0.0,0.0,0.0,0.0,0.0,0.0,0.0,0.0,0.0,0.0,0.0,0.0,0.0,0.0],"d_bias":0.0,"activation":0.0019620152386741986,"as_respect_z":[0.0,0.0,0.0,0.0,0.0,0.0,0.0,0.0,0.0,0.0,0.0,0.0,0.0,0.0,0.0,0.0,0.0,0.0,0.001958165734877409,0.0]},{"weights":[0.4097376324817445,-0.42756229136576224,-0.06429452667099353,0.6615635702582168,-0.0853250963972708,0.1641652043255942,0.025163226397140918,0.1604725070201165,-0.20448757502990184,1.0456733031613343,-0.5705147220654947,0.33873196221857343,-0.24998294304795135,0.10220449763982443,-0.4844614418353821,-0.3084596537673455,-0.2713280177841948,0.2408013988051644,-0.2683657191854369,-0.26955807140294147,0.2384452762595302,-0.395299577330023,-0.8750811358482177,-0.07963423384688179,0.3814027440580492,0.451450195884524,-0.6585987268892441,0.3172591126966244,0.36985125348676584,0.4300729546723656,0.8011394290815734,-0.5410551900522994,-0.03162306224810633,0.24835223960407268,0.5501967559697756,0.20505266862900992,-0.1269540948789262,-0.9650599480509464,-1.0156098206678756,0.33547594830304994,-0.2847201744294265,-0.02515165604048605,0.30838685592530096,-0.4442874361160202,0.3697394150564769,1.3207811877101092,-0.2185128315869361,-0.4314833503869146,-0.6426873140276754,0.3347587231017053,-0.07938152151106027,-0.49765099835033233,0.9916313832802345,-0.24651284364013992,0.1546968676199929,-0.929756368135953,-0.42229754792788143,0.32735602658883933,0.18612917596373124,-0.39641995564927507,0.6012780902103005,0.12451919350838954,0.5818375909704687,-0.27426950164142344,0.3214289554911056,-0.47134603429749095,0.4403128641663514,0.40985843782963577,0.1468185641446069,-0.1895592021679112,-0.44776206853938627,-0.7701312290789172,-0.8730742404420145,1.297120050766199,-0.11868561414387761,0.29459004309775333,-0.9359798392170945,0.06346398839261143,-0.18046964407821708,0.17324681821434446,-0.7534420303170962,0.013048734819483003,-0.02355139417615535,-0.15801242218851635,-0.2707049374171429,-0.28866666432167554,0.37662725251707235,-0.9796058833385717,-0.17379021743374856,-0.7212012730709781,0.2476542518784587,-0.0021323142768482233,-0.24822947425460726,-0.27021475179207327,-0.7175849293084575,-0.059438857474828286,-0.16381178369234004,0.13261939302226827,0.33934154708742875,0.5077436173294106],"bias":-1.2451689530088828,"d_weights":[0.0,0.0,0.0,0.0,0.0,0.0,0.0,0.0,0.0,0.0,0.0,0.0,0.0,0.0,0.0,0.0,0.0,0.0,0.0,0.0,0.0,0.0,0.0,0.0,0.0,0.0,0.0,0.0,0.0,0.0,0.0,0.0,0.0,0.0,0.0,0.0,0.0,0.0,0.0,0.0,0.0,0.0,0.0,0.0,0.0,0.0,0.0,0.0,0.0,0.0,0.0,0.0,0.0,0.0,0.0,0.0,0.0,0.0,0.0,0.0,0.0,0.0,0.0,0.0,0.0,0.0,0.0,0.0,0.0,0.0,0.0,0.0,0.0,0.0,0.0,0.0,0.0,0.0,0.0,0.0,0.0,0.0,0.0,0.0,0.0,0.0,0.0,0.0,0.0,0.0,0.0,0.0,0.0,0.0,0.0,0.0,0.0,0.0,0.0,0.0],"d_bias":0.0,"activation":0.07519499761632559,"as_respect_z":[0.0,0.0,0.0,0.0,0.0,0.0,0.0,0.0,0.0,0.0,0.0,0.0,0.0,0.0,0.0,0.0,0.0,0.0,0.0,0.06954070994980638]}],"previous_layer":{"Hidden":{"nodes":[{"weights":[-0.658569661503992,-0.30290288989208203,0.12060343290194328,0.1849939401026732,-0.4797363622111203,0.42163132239951473,-0.08172237902356055,0.08291544059184382,-0.5068781014487378,-0.4796056527433249,-0.08846131270878414,0.6342895740279186,-0.09743017512492376,-0.07185825569481347,0.1032953491154045,0.1293192487697898,-0.377344678168293,-0.17801121964390482,0.03230524457791126,-0.21635013191336955,-0.038739049456384914,-0.3421790612866488,-0.19064533881580073,0.5842594051656206,-0.4689248529067065,-0.3018464210880581,0.06715064176246745,-0.19629498395594,0.16215308648983895,0.20028955618591882,-0.30538789021491763,-0.21565606371646828,0.13351741329048622,0.5889307898444147,-0.5151512388522138,0.4752216426726387,0.367597312766322,-0.22745276555785898,-0.10226242923333938,-0.5439281165678758,-0.028549032767983182,-0.002607141693573246,-0.04493304109124391,-0.32428020648660894,0.7307998775051407,0.22770295992510103,0.4982819312599043,0.7228779161118157,-0.9521857054774455,-0.11455994279198746,-0.521724021861909,-0.47198191202652773,-0.6363418259846455,0.36653100891596163,0.22558325440919916,-0.24355256679062381,-0.18610120941922204,-0.0010993204481087456,-0.17058863217570572,0.2716842636730478,0.11493568246069444,0.2006783416552829,0.33319308825056176,0.08732581613673829,0.1372194522052843,-0.7064689008767476,-0.061473454586828964,-0.26938285787994776,-0.2266988271529679,0.35210145754488237,-0.45096946918312686,0.9753351735231871,0.06595050431401459,-1.0302340484655226,-0.011487032071468513,0.08744402725982066,-0.20141218558294968,0.828028542259508,-0.8739306791003258,0.6549297026605195,-0.49043184842186904,-0.35457028334655033,0.11808545518910739,-0.5303272616802929,0.1635112835216805,0.4251861246289824,-0.14795512698396032,0.3078692029385863,0.0010503939278444273,-0.13287076825023153,-0.04594424432902948,-0.05983838306586142,-0.5450870093914886,-0.4534115459451398,0.15470159922161286,-0.5007554345996851,0.18828815170373908,-0.20199120713204738,0.20016112416722548,-1.044214813304372],"bias":-1.2606648765465378,"d_weights":[0.0,0.0,0.0,0.0,0.0,0.0,0.0,0.0,0.0,0.0,0.0,0.0,0.0,0.0,0.0,0.0,0.0,0.0,0.0,0.0,0.0,0.0,0.0,0.0,0.0,0.0,0.0,0.0,0.0,0.0,0.0,0.0,0.0,0.0,0.0,0.0,0.0,0.0,0.0,0.0,0.0,0.0,0.0,0.0,0.0,0.0,0.0,0.0,0.0,0.0,0.0,0.0,0.0,0.0,0.0,0.0,0.0,0.0,0.0,0.0,0.0,0.0,0.0,0.0,0.0,0.0,0.0,0.0,0.0,0.0,0.0,0.0,0.0,0.0,0.0,0.0,0.0,0.0,0.0,0.0,0.0,0.0,0.0,0.0,0.0,0.0,0.0,0.0,0.0,0.0,0.0,0.0,0.0,0.0,0.0,0.0,0.0,0.0,0.0,0.0],"d_bias":0.0,"activation":0.06639090195642361,"as_respect_z":[0.061983150093836155,0.0,0.0,0.0,0.0,0.0,0.0,0.0,0.0,0.0,0.0,0.0,0.0,0.0,0.0,0.0,0.0,0.0,0.0,0.0,0.0,0.0,0.0,0.0,0.0,0.0,0.0,0.0,0.0,0.0,0.0,0.0,0.0,0.0,0.0,0.0,0.0,0.0,0.0,0.0,0.0,0.0,0.0,0.0,0.0,0.0,0.0,0.0,0.0,0.0,0.0,0.0,0.0,0.0,0.0,0.0,0.0,0.0,0.0,0.0,0.0,0.0,0.0,0.0,0.0,0.0,0.0,0.0,0.0,0.0,0.0,0.0,0.0,0.0,0.0,0.0,0.0,0.0,0.0,0.0,0.0,0.0,0.0,0.0,0.0,0.0,0.0,0.0,0.0,0.0,0.0,0.0,0.0,0.0,0.0,0.0,0.0,0.0,0.0,0.0]},{"weights":[-0.11599181891651857,0.024275776448690677,0.4468113686543544,-0.04079107868040595,-0.06010804345524178,0.11880531113856246,0.1830464609568381,-0.18122963922322402,-0.02487460587184492,-0.28766976337628747,-0.3634866013204935,-0.07959227162044409,0.005103603311166633,0.03353093036373433,0.5655306399373824,-0.3431734500186499,-0.14854480647562474,-0.01378698522670271,-0.3509033435150312,0.15262646387234138,0.21756740892520335,-0.20773220006368456,0.12100550104013715,0.1639705981072942,-0.5023906368243491,0.3836674204380093,0.12124634577857436,-0.09103683909971844,0.022280725630732787,-0.49495790454340455,-0.19857309578123936,-0.5796630745214129,0.5782201596727942,0.1908508136872364,-0.13001222607773033,-0.2589045512832464,-0.14285123958245738,-0.44122911392418446,0.18129193794907725,-0.05057337867335052,-0.1360172890459247,-0.17730386572242898,-0.024350373039989732,-0.5492721615035531,-0.1902297109747062,0.09071176833374991,-0.45560971089593616,-0.10656822927702969,-0.34535229534362,-0.1395692111312112,-0.2812027149251506,-0.1015799942706781,0.5373361606347137,-0.5120116668357888,0.06229298058365765,-0.41123028026751496,0.18166753519651582,0.008625889105298042,0.34054215461206533,-0.1885830711079177,-0.34689844799983577,0.07720229946266131,0.0049248257247662105,-0.0014819021908390915,-0.2588781967141622,-0.18412034190847068,-0.7712005644174726,-0.1806093455359452,0.03238815016258094,-0.5136251093194293,0.16086289605700846,-0.07322916261597462,0.5116060939977751,-0.21694058772979002,0.3404581445344659,0.03086686258911084,-0.2690345563620253,-0.2209308019265468,0.30428979476827356,-0.15091956986619742,-0.08836084359107901,-0.5813865232560531,-0.7712207780939696,0.1875217071344722,-0.09764937081521599,-0.4459961186725819,-0.23049258886947147,0.3818846591791874,-0.4824306790928567,-0.40096757834923685,-0.036976008085913344,-0.25290154514867286,0.08600857878414409,0.4437550942482494,-0.09104329886670301,-0.027721758108884203,-0.5125311823992929,0.5406507046379185,-0.15722265845902383,-0.15873226384759678],"bias":0.4556227303014458,"d_weights":[0.0,0.0,0.0,0.0,0.0,0.0,0.0,0.0,0.0,0.0,0.0,0.0,0.0,0.0,0.0,0.0,0.0,0.0,0.0,0.0,0.0,0.0,0.0,0.0,0.0,0.0,0.0,0.0,0.0,0.0,0.0,0.0,0.0,0.0,0.0,0.0,0.0,0.0,0.0,0.0,0.0,0.0,0.0,0.0,0.0,0.0,0.0,0.0,0.0,0.0,0.0,0.0,0.0,0.0,0.0,0.0,0.0,0.0,0.0,0.0,0.0,0.0,0.0,0.0,0.0,0.0,0.0,0.0,0.0,0.0,0.0,0.0,0.0,0.0,0.0,0.0,0.0,0.0,0.0,0.0,0.0,0.0,0.0,0.0,0.0,0.0,0.0,0.0,0.0,0.0,0.0,0.0,0.0,0.0,0.0,0.0,0.0,0.0,0.0,0.0],"d_bias":0.0,"activation":0.002238472709978902,"as_respect_z":[0.0,0.0022334619499055817,0.0,0.0,0.0,0.0,0.0,0.0,0.0,0.0,0.0,0.0,0.0,0.0,0.0,0.0,0.0,0.0,0.0,0.0,0.0,0.0,0.0,0.0,0.0,0.0,0.0,0.0,0.0,0.0,0.0,0.0,0.0,0.0,0.0,0.0,0.0,0.0,0.0,0.0,0.0,0.0,0.0,0.0,0.0,0.0,0.0,0.0,0.0,0.0,0.0,0.0,0.0,0.0,0.0,0.0,0.0,0.0,0.0,0.0,0.0,0.0,0.0,0.0,0.0,0.0,0.0,0.0,0.0,0.0,0.0,0.0,0.0,0.0,0.0,0.0,0.0,0.0,0.0,0.0,0.0,0.0,0.0,0.0,0.0,0.0,0.0,0.0,0.0,0.0,0.0,0.0,0.0,0.0,0.0,0.0,0.0,0.0,0.0,0.0]},{"weights":[-0.285921140018687,0.07406573584881938,0.19706667542182163,0.2676522230796548,-0.08182202876222683,-0.04900553948785298,-0.13746831117719563,0.1486565231953752,-0.33904480003367393,0.03247677761541273,-0.747463018599266,-0.13007488934492262,0.5007858482798033,-0.21505995851785983,0.26702295522903463,-0.13054820617101565,-0.07549463231911889,-0.025347730685692953,-0.617912606625274,0.058094890070448484,0.17395068957182833,-0.29295964081220127,0.055519833395967756,0.193625640241373,-0.5326396796437689,0.0012703931096130065,-0.2817943713539308,-0.1832490282213556,0.150145132990762,-0.37825052473592,0.05233877146881477,-0.5236365194897361,0.09984547580849133,0.2590099802306459,0.355957258956695,-0.06383690783029405,-0.09364061466924928,-0.7544557934214402,0.36243166847625413,0.08630753853485454,-0.14507097958257772,0.01710629521616951,-0.032588041800685225,-0.03501324091261663,-0.1182578088930171,-0.08999453370960973,-0.44382337051526133,0.13719771775735173,-0.33389913060807336,0.10250720813911433,-0.02481682885734087,-0.1699154679856215,0.1920328938833369,-0.1503183716353652,0.06497921195383845,-0.10272144056772851,-0.17517139080041236,-0.19617379257625248,0.1384048034062071,-0.15662975614073768,-0.06824427073404069,-0.20007340235164553,-0.3112233634397507,0.1624535824306279,-0.15168935467230454,-0.514519711714426,-0.49787310386137495,0.08491522017459173,-0.1608032067446,-0.06756639649362293,-0.023334154371603764,-0.08002260987137523,0.3221627878282764,-0.017903773445023204,-0.10493856647709487,-0.4052611411347398,0.07683241684333572,-0.29411168102131025,0.1483633715427784,-0.3773280154467474,-0.24793953943210467,-0.028863861015944813,-0.39165687729370097,0.30758642412045517,-0.08622479246494759,-0.43132488100521155,-0.05043845551860345,-0.013200977495622447,-0.3346213113011592,-0.387977576103224,-0.13184195955053313,-0.2828475137754675,-0.3960835978333793,-0.061496663608586716,-0.025196192473627213,-0.0672937942010042,-0.4379325110852641,-0.06310061583587502,-0.2970935806880173,-0.3534803327292432],"bias":0.7236412711900188,"d_weights":[0.0,0.0,0.0,0.0,0.0,0.0,0.0,0.0,0.0,0.0,0.0,0.0,0.0,0.0,0.0,0.0,0.0,0.0,0.0,0.0,0.0,0.0,0.0,0.0,0.0,0.0,0.0,0.0,0.0,0.0,0.0,0.0,0.0,0.0,0.0,0.0,0.0,0.0,0.0,0.0,0.0,0.0,0.0,0.0,0.0,0.0,0.0,0.0,0.0,0.0,0.0,0.0,0.0,0.0,0.0,0.0,0.0,0.0,0.0,0.0,0.0,0.0,0.0,0.0,0.0,0.0,0.0,0.0,0.0,0.0,0.0,0.0,0.0,0.0,0.0,0.0,0.0,0.0,0.0,0.0,0.0,0.0,0.0,0.0,0.0,0.0,0.0,0.0,0.0,0.0,0.0,0.0,0.0,0.0,0.0,0.0,0.0,0.0,0.0,0.0],"d_bias":0.0,"activation":0.14611843749406522,"as_respect_z":[0.0,0.0,0.12476783971835818,0.0,0.0,0.0,0.0,0.0,0.0,0.0,0.0,0.0,0.0,0.0,0.0,0.0,0.0,0.0,0.0,0.0,0.0,0.0,0.0,0.0,0.0,0.0,0.0,0.0,0.0,0.0,0.0,0.0,0.0,0.0,0.0,0.0,0.0,0.0,0.0,0.0,0.0,0.0,0.0,0.0,0.0,0.0,0.0,0.0,0.0,0.0,0.0,0.0,0.0,0.0,0.0,0.0,0.0,0.0,0.0,0.0,0.0,0.0,0.0,0.0,0.0,0.0,0.0,0.0,0.0,0.0,0.0,0.0,0.0,0.0,0.0,0.0,0.0,0.0,0.0,0.0,0.0,0.0,0.0,0.0,0.0,0.0,0.0,0.0,0.0,0.0,0.0,0.0,0.0,0.0,0.0,0.0,0.0,0.0,0.0,0.0]},{"weights":[-0.040521933707597074,-0.16481438618946825,-0.7972660182260766,0.30692275517806394,0.14732518330135305,-0.35149840705651547,-0.3560648343854742,-0.2557472182056208,0.672394409291636,-0.08576303720633104,-0.015505731991008418,-0.4895637833671897,-0.8373665491593945,0.12342480149005029,-0.11509263099111766,0.26045359995987566,-0.12075471866712502,-1.2012201208924707,-0.14248718830658644,-0.23131307648999813,-0.34602061666725176,-0.03600788088998483,-0.16778825616576165,-1.252083533618489,-0.6039209740943554,-0.5006055069147878,0.19854358522077137,-0.049122003818742196,-0.393102264525919,0.31267119141230515,0.08928167071761739,0.7492102709951038,-0.5174332443525104,-0.8932918757375194,-0.29126982551485675,-0.824938131246079,0.3204542146208378,-0.08176399082254217,0.08707252508344966,-0.06546993288250189,-0.4507205037384648,0.9567569664800443,-0.1578068005941097,0.5810459554751642,-0.004138344620804629,-0.40940364727299355,0.20711383686151863,-0.8504312528679316,-0.21759457818282732,-0.3458845308475573,0.890090927205553,-0.3764996741934868,0.42888528297477624,-0.29081916206491787,-0.17112531753399318,-0.06315531705942604,-0.2707230126742827,0.08924653251540539,-0.3246218695877924,0.2965097165816469,0.6652680716108941,-0.15099288123471083,0.1985270241117256,0.20942487273179106,-0.014668978343436686,0.6315617167133738,0.37758417822188683,-0.15571162166627192,-0.0872774728827028,0.32241431509015184,-0.29344041415690236,-0.5630736271419856,0.01869903100905449,0.2203758493345514,-0.10573984975606936,-0.25024048865195775,-0.19697204223976258,-0.20723265951419123,-0.2531910292719632,0.1306842338418611,0.09463407855250786,0.23649434184637128,0.1796704429773589,1.0211474724182272,0.4474063697506637,0.018163065053601053,-0.5039591441927801,-0.7998381121646786,0.06576957605813463,0.21306125362514122,-0.01138389216209587,0.3923507725465913,0.28258575818391585,-0.4008257822959429,-0.22494858798110634,-0.6233654824153363,0.3758511570960878,-0.7418429937502632,0.07362837267108364,0.31664345765404717],"bias":0.17229734484036904,"d_weights":[0.0,0.0,0.0,0.0,0.0,0.0,0.0,0.0,0.0,0.0,0.0,0.0,0.0,0.0,0.0,0.0,0.0,0.0,0.0,0.0,0.0,0.0,0.0,0.0,0.0,0.0,0.0,0.0,0.0,0.0,0.0,0.0,0.0,0.0,0.0,0.0,0.0,0.0,0.0,0.0,0.0,0.0,0.0,0.0,0.0,0.0,0.0,0.0,0.0,0.0,0.0,0.0,0.0,0.0,0.0,0.0,0.0,0.0,0.0,0.0,0.0,0.0,0.0,0.0,0.0,0.0,0.0,0.0,0.0,0.0,0.0,0.0,0.0,0.0,0.0,0.0,0.0,0.0,0.0,0.0,0.0,0.0,0.0,0.0,0.0,0.0,0.0,0.0,0.0,0.0,0.0,0.0,0.0,0.0,0.0,0.0,0.0,0.0,0.0,0.0],"d_bias":0.0,"activation":0.23205589666820603,"as_respect_z":[0.0,0.0,0.0,0.17820595748972093,0.0,0.0,0.0,0.0,0.0,0.0,0.0,0.0,0.0,0.0,0.0,0.0,0.0,0.0,0.0,0.0,0.0,0.0,0.0,0.0,0.0,0.0,0.0,0.0,0.0,0.0,0.0,0.0,0.0,0.0,0.0,0.0,0.0,0.0,0.0,0.0,0.0,0.0,0.0,0.0,0.0,0.0,0.0,0.0,0.0,0.0,0.0,0.0,0.0,0.0,0.0,0.0,0.0,0.0,0.0,0.0,0.0,0.0,0.0,0.0,0.0,0.0,0.0,0.0,0.0,0.0,0.0,0.0,0.0,0.0,0.0,0.0,0.0,0.0,0.0,0.0,0.0,0.0,0.0,0.0,0.0,0.0,0.0,0.0,0.0,0.0,0.0,0.0,0.0,0.0,0.0,0.0,0.0,0.0,0.0,0.0]},{"weights":[-0.3698704605163715,-0.6427528123162187,0.3888043022043222,0.01141697726422255,-0.3230491814301303,-0.2005281170060015,0.7470229813962677,0.3429925155680705,0.25779686169720156,-0.7577801264249364,0.7602102328120549,0.07833529018619761,-0.16778611817851438,-0.45027964388625596,0.3897015776290433,-0.005214073512532839,0.8270497972406292,-0.585613015250344,0.8965598815243895,-0.312554482253513,0.054781453021921306,1.0808841165551406,-0.3921571800948523,-0.32313611708897133,0.09065853953554025,0.3514044070941115,0.3319399205714358,0.11401719077767654,-0.036116331954149636,0.23587054034763338,0.03351453789764378,-0.2302513461211771,0.3539023154327059,-0.3883839568738626,-1.0945267147893678,0.5777013627280722,0.49220311791019633,0.15642239294995608,-0.1748365707859248,-0.18373744829694416,0.15689143976818323,-0.15865404199810834,0.05265975986587546,-0.401130701373527,0.6845284784279372,-0.6141601972740088,-0.43136177571837153,-0.44853383328318175,-0.2646518113356999,0.17913296572137044,-0.35257776497297993,-0.3676598438168232,-0.6292775792802032,-0.22843911548401055,0.05477276231983834,-0.2906789913682599,0.6990617593814277,-0.3773961088369089,-0.16759431877664432,0.7084694669070196,-0.04947271067134412,0.2197655166886543,0.5753733611379891,-0.10036387853730597,-0.6568974647227958,-0.8397225772965502,0.08217212203401715,-0.5436590537739329,0.29855297859898616,0.5478813117326324,0.023327467412311526,0.3030225846668252,0.3254467341430555,-1.328320520649821,-0.31722690917923574,0.780039081349961,-0.291121945099228,0.3489992285659159,-0.24951594001395297,0.9803192078964519,-0.6726716938979137,-0.2600109639022369,-0.3388206839886243,-0.5568143431387941,0.3273674487078974,0.28152393503459483,-0.04909164006189749,0.27840472360779905,-0.5393155596223539,1.2612164406773707,0.03393569817629109,0.4732401196397643,-0.6698132597887294,0.1158392547291303,0.04719078793452092,-0.7730536656083771,-0.10380973770848577,0.16078932168315113,0.1516739263277764,0.20904746360645485],"bias":1.7587096132273006,"d_weights":[0.0,0.0,0.0,0.0,0.0,0.0,0.0,0.0,0.0,0.0,0.0,0.0,0.0,0.0,0.0,0.0,0.0,0.0,0.0,0.0,0.0,0.0,0.0,0.0,0.0,0.0,0.0,0.0,0.0,0.0,0.0,0.0,0.0,0.0,0.0,0.0,0.0,0.0,0.0,0.0,0.0,0.0,0.0,0.0,0.0,0.0,0.0,0.0,0.0,0.0,0.0,0.0,0.0,0.0,0.0,0.0,0.0,0.0,0.0,0.0,0.0,0.0,0.0,0.0,0.0,0.0,0.0,0.0,0.0,0.0,0.0,0.0,0.0,0.0,0.0,0.0,0.0,0.0,0.0,0.0,0.0,0.0,0.0,0.0,0.0,0.0,0.0,0.0,0.0,0.0,0.0,0.0,0.0,0.0,0.0,0.0,0.0,0.0,0.0,0.0],"d_bias":0.0,"activation":0.06248696945399227,"as_respect_z":[0.0,0.0,0.0,0.0,0.05858234810244811,0.0,0.0,0.0,0.0,0.0,0.0,0.0,0.0,0.0,0.0,0.0,0.0,0.0,0.0,0.0,0.0,0.0,0.0,0.0,0.0,0.0,0.0,0.0,0.0,0.0,0.0,0.0,0.0,0.0,0.0,0.0,0.0,0.0,0.0,0.0,0.0,0.0,0.0,0.0,0.0,0.0,0.0,0.0,0.0,0.0,0.0,0.0,0.0,0.0,0.0,0.0,0.0,0.0,0.0,0.0,0.0,0.0,0.0,0.0,0.0,0.0,0.0,0.0,0.0,0.0,0.0,0.0,0.0,0.0,0.0,0.0,0.0,0.0,0.0,0.0,0.0,0.0,0.0,0.0,0.0,0.0,0.0,0.0,0.0,0.0,0.0,0.0,0.0,0.0,0.0,0.0,0.0,0.0,0.0,0.0]},{"weights":[-0.3317556227615498,-0.08644861832891619,0.1314889125029096,0.06089990140368748,-0.37355981242893394,-0.17624211409511606,0.20532347041117488,0.18957858741116254,-0.39164761749672916,-0.2367613064789349,-0.11037493582716594,-0.027457415163706506,0.3698436694138642,-0.5782263643795835,0.2201076715469673,-0.255817187377486,0.25228980382642713,0.1623434167482055,-0.054977589323188365,-0.33601470854395954,-0.31570681332452616,-0.1575165040334738,-0.19897616643280092,-0.17023666889817413,-0.1004774740940277,-0.08558021313540476,0.29918927390886774,0.0927569420365098,0.09398493740025542,-0.03115472020624825,0.15674298013959861,-0.019904421356071848,0.022246691281025622,-0.09392480431132012,0.0455335783289184,0.1587437339981011,0.16311571457711485,-0.4030156898174721,-0.16375843825437023,0.3452402352103509,0.07340825975144519,-0.22467425405633334,-0.1133242646175218,0.039561534084408594,0.2266761510653882,-0.20630115966750287,-0.24512865535543837,-0.0011504076476800736,-0.29718447369203493,-0.18671420901564975,0.03732046030916193,-0.185553209648056,-0.36067413455890457,0.08612335746311628,-0.034559549021192806,-0.1322512314420722,0.4578497762965519,-0.19650782589187435,-0.30008297382795573,-0.0035029767685887335,0.026232810280119097,-0.4426987116427868,-0.0895567760424844,0.0443196208641301,-0.13202370632789803,-0.3655623036184771,0.09983597754850705,-0.461761151520619,-0.16339745157497418,0.20587720469571205,-0.38971923749895554,0.15416200457377507,-0.15313679046962309,-0.39695773739337264,-0.3210688108181859,-0.2640008027342144,-0.07696825366516911,0.012683157123517122,-0.16727405741461684,-0.027457266809078198,-0.0665142261934474,-0.15913681407068817,-0.008295104980002046,-0.2595109310718973,-0.07642174210649084,-0.09631043549300793,0.4201662889654684,-0.05629231922887384,0.2840230343005032,0.08662715428785293,0.049132124016198916,-0.4376055016549257,-0.038680739194505986,0.18781923337700326,-0.20949117522855604,-0.09830314419195989,-0.15457088405697753,-0.00923867295024185,0.5239338022353726,-0.4200052866034152],"bias":-0.5840373388691162,"d_weights":[0.0,0.0,0.0,0.0,0.0,0.0,0.0,0.0,0.0,0.0,0.0,0.0,0.0,0.0,0.0,0.0,0.0,0.0,0.0,0.0,0.0,0.0,0.0,0.0,0.0,0.0,0.0,0.0,0.0,0.0,0.0,0.0,0.0,0.0,0.0,0.0,0.0,0.0,0.0,0.0,0.0,0.0,0.0,0.0,0.0,0.0,0.0,0.0,0.0,0.0,0.0,0.0,0.0,0.0,0.0,0.0,0.0,0.0,0.0,0.0,0.0,0.0,0.0,0.0,0.0,0.0,0.0,0.0,0.0,0.0,0.0,0.0,0.0,0.0,0.0,0.0,0.0,0.0,0.0,0.0,0.0,0.0,0.0,0.0,0.0,0.0,0.0,0.0,0.0,0.0,0.0,0.0,0.0,0.0,0.0,0.0,0.0,0.0,0.0,0.0],"d_bias":0.0,"activation":0.36677031265329474,"as_respect_z":[0.0,0.0,0.0,0.0,0.0,0.23224985040949916,0.0,0.0,0.0,0.0,0.0,0.0,0.0,0.0,0.0,0.0,0.0,0.0,0.0,0.0,0.0,0.0,0.0,0.0,0.0,0.0,0.0,0.0,0.0,0.0,0.0,0.0,0.0,0.0,0.0,0.0,0.0,0.0,0.0,0.0,0.0,0.0,0.0,0.0,0.0,0.0,0.0,0.0,0.0,0.0,0.0,0.0,0.0,0.0,0.0,0.0,0.0,0.0,0.0,0.0,0.0,0.0,0.0,0.0,0.0,0.0,0.0,0.0,0.0,0.0,0.0,0.0,0.0,0.0,0.0,0.0,0.0,0.0,0.0,0.0,0.0,0.0,0.0,0.0,0.0,0.0,0.0,0.0,0.0,0.0,0.0,0.0,0.0,0.0,0.0,0.0,0.0,0.0,0.0,0.0]},{"weights":[-0.25517081929482,0.5070385704131527,-0.025709773001984362,0.17227266711444272,0.16692790424708417,0.024200000915928603,-0.5497787986343681,-0.38237492010529106,0.02427402108329032,0.41509961111083926,0.028715420451424407,-0.3315928073063183,-0.22082793176211155,-0.08275209578647207,-0.06505787285175184,-0.07407754378827505,-0.28410585266961536,0.14621998680823656,-0.3822382151871011,0.1570378367411721,-0.22366759673794712,-0.26816492291678307,0.04871340904297881,-0.035794231283670826,-0.30761643835668806,-0.5152966940257871,-0.2770734274673486,-0.11163902366853576,-0.012687142749994728,0.12442637840847756,-0.3171926631076004,-0.03962547771825813,-0.582350898564564,0.06755520434070994,-0.14740782086703635,-0.22143513172210222,-0.5219906547163922,-0.11104083995762522,0.03851107394340934,-0.425391470447536,-0.47355751766239174,0.6110816879971956,0.18183235085856544,0.15916336833418307,-0.23136020759519,-0.005799633390363981,0.17028493626736452,-0.03621170957660438,0.015573225599337992,-0.12379935382969462,0.07954805742787188,-0.34004816743521316,-0.25757529669297763,-0.2736781492252613,0.2855540278428468,-0.012606893034340894,-0.4443585679065105,-0.11018510735867318,0.24720770023299266,-0.21274640105627332,0.0880184316958077,0.12142171795669739,-0.29395212074746296,-0.8192022812026498,-0.193450036517841,0.0012100746624754183,-0.21781570722138474,0.4183638278686971,-0.3857106481657797,0.046190830196033934,0.27213681677055446,-0.019264958103779355,0.11301253088458277,-0.03477025762648929,-0.16234917408737093,-0.20593637609334656,0.046987509065901926,-0.18422502441591077,0.13821029761181125,-0.2263462330309212,-0.3710359814227052,0.354139277118833,-0.17467105238368189,0.35869072836830795,-0.238465627381266,-0.38580760663405117,-0.30953427112027204,-0.4542889198700812,-0.35084526766512164,-0.23691623806643786,-0.13101151794817595,0.21248561590937196,-0.13647009865190568,-0.06311512424267955,-0.05375447926357966,-0.3964421448664313,0.277106606013875,-0.557589702234299,-0.3401192294358534,-0.16348652337215464],"bias":-0.5132355582088782,"d_weights":[0.0,0.0,0.0,0.0,0.0,0.0,0.0,0.0,0.0,0.0,0.0,0.0,0.0,0.0,0.0,0.0,0.0,0.0,0.0,0.0,0.0,0.0,0.0,0.0,0.0,0.0,0.0,0.0,0.0,0.0,0.0,0.0,0.0,0.0,0.0,0.0,0.0,0.0,0.0,0.0,0.0,0.0,0.0,0.0,0.0,0.0,0.0,0.0,0.0,0.0,0.0,0.0,0.0,0.0,0.0,0.0,0.0,0.0,0.0,0.0,0.0,0.0,0.0,0.0,0.0,0.0,0.0,0.0,0.0,0.0,0.0,0.0,0.0,0.0,0.0,0.0,0.0,0.0,0.0,0.0,0.0,0.0,0.0,0.0,0.0,0.0,0.0,0.0,0.0,0.0,0.0,0.0,0.0,0.0,0.0,0.0,0.0,0.0,0.0,0.0],"d_bias":0.0,"activation":0.008389581153661053,"as_respect_z":[0.0,0.0,0.0,0.0,0.0,0.0,0.008319196081727188,0.0,0.0,0.0,0.0,0.0,0.0,0.0,0.0,0.0,0.0,0.0,0.0,0.0,0.0,0.0,0.0,0.0,0.0,0.0,0.0,0.0,0.0,0.0,0.0,0.0,0.0,0.0,0.0,0.0,0.0,0.0,0.0,0.0,0.0,0.0,0.0,0.0,0.0,0.0,0.0,0.0,0.0,0.0,0.0,0.0,0.0,0.0,0.0,0.0,0.0,0.0,0.0,0.0,0.0,0.0,0.0,0.0,0.0,0.0,0.0,0.0,0.0,0.0,0.0,0.0,0.0,0.0,0.0,0.0,0.0,0.0,0.0,0.0,0.0,0.0,0.0,0.0,0.0,0.0,0.0,0.0,0.0,0.0,0.0,0.0,0.0,0.0,0.0,0.0,0.0,0.0,0.0,0.0]},{"weights":[-0.6322605173616366,-0.8965695199681015,0.6256109541523629,-0.5992071678189776,-0.33198800726935535,0.0042347322878337175,0.2930051418209965,-0.310028406816217,-0.45302178859606773,-0.1057453995539612,-0.6823626031841883,0.2843987569271579,-0.2149603303552984,-0.19510787007105707,0.5549281958115988,0.07499692872447639,-0.6867547301715664,0.32826151624535244,0.05574908073181942,-0.7277622414775953,-0.17776513011302617,-0.7358151076398501,-0.16073769056751006,0.07050566916236664,-0.2191032845391758,0.0894158431973665,0.911128843412229,0.261620484159829,0.04080953728480131,0.266147012302372,-0.11949745222149989,-0.48760098785328293,0.1854491300241281,-0.4865832920202514,0.5446720848616541,0.1805921862282899,-0.30466813669097814,-0.05939290226238651,-0.2494123344674013,0.42308372245640863,0.4664178967671014,-0.26015524195352513,0.0010818788627986963,-0.385023590532359,0.03771915732008643,0.11633382433043901,-0.20765230643351618,0.3296451560608045,-0.487826055165453,-0.2867311614278052,-0.11992525546240876,0.22880988638412186,0.1072230909810819,0.4562102284290179,-0.6798386026911891,0.34985829775966804,0.5665682641734132,0.08389117152307875,-0.5987163288858421,-0.12141550399560004,0.09651787568389361,-0.8985232333153156,-0.5470195444015675,0.13844303492034687,0.3131288852883941,-0.29035053215661355,0.23245583333810005,-0.22706111439124557,-0.36528472067969214,-0.0573392394202573,-0.3497848162745129,-0.10604491487000843,-0.2463747148551377,-0.20215044759113204,-0.2545336311607849,-0.386132258392365,0.40479638379310723,0.16590981043393307,-0.7886338010982266,-0.15520612863149907,0.49935319637087267,-0.15820106660979194,0.10693759420668918,-0.31065422116519353,-0.15260295258775508,0.1125286925328733,0.5812208974152664,0.6656567970159671,0.37247648820866786,-0.6982011550645714,-0.042385955967138,-0.41371476539473595,0.4026358968746906,1.102959859918767,-0.5796346678085713,0.63244440510688,-0.05458718860898566,0.004544925262511642,0.4492657308808433,-0.5600119743561435],"bias":-1.1887948522441412,"d_weights":[0.0,0.0,0.0,0.0,0.0,0.0,0.0,0.0,0.0,0.0,0.0,0.0,0.0,0.0,0.0,0.0,0.0,0.0,0.0,0.0,0.0,0.0,0.0,0.0,0.0,0.0,0.0,0.0,0.0,0.0,0.0,0.0,0.0,0.0,0.0,0.0,0.0,0.0,0.0,0.0,0.0,0.0,0.0,0.0,0.0,0.0,0.0,0.0,0.0,0.0,0.0,0.0,0.0,0.0,0.0,0.0,0.0,0.0,0.0,0.0,0.0,0.0,0.0,0.0,0.0,0.0,0.0,0.0,0.0,0.0,0.0,0.0,0.0,0.0,0.0,0.0,0.0,0.0,0.0,0.0,0.0,0.0,0.0,0.0,0.0,0.0,0.0,0.0,0.0,0.0,0.0,0.0,0.0,0.0,0.0,0.0,0.0,0.0,0.0,0.0],"d_bias":0.0,"activation":0.8968830162115288,"as_respect_z":[0.0,0.0,0.0,0.0,0.0,0.0,0.0,0.09248387144283939,0.0,0.0,0.0,0.0,0.0,0.0,0.0,0.0,0.0,0.0,0.0,0.0,0.0,0.0,0.0,0.0,0.0,0.0,0.0,0.0,0.0,0.0,0.0,0.0,0.0,0.0,0.0,0.0,0.0,0.0,0.0,0.0,0.0,0.0,0.0,0.0,0.0,0.0,0.0,0.0,0.0,0.0,0.0,0.0,0.0,0.0,0.0,0.0,0.0,0.0,0.0,0.0,0.0,0.0,0.0,0.0,0.0,0.0,0.0,0.0,0.0,0.0,0.0,0.0,0.0,0.0,0.0,0.0,0.0,0.0,0.0,0.0,0.0,0.0,0.0,0.0,0.0,0.0,0.0,0.0,0.0,0.0,0.0,0.0,0.0,0.0,0.0,0.0,0.0,0.0,0.0,0.0]},{"weights":[-0.59474045584505,-0.6157483731866353,0.27618367080783074,-0.11409974533059097,-0.14005486504688752,-0.220497756554836,0.8737508680753008,-0.10344178047879071,-0.17965517757152927,-0.5462969928204648,-0.11184653047299416,0.11396668037442396,0.34928885982595587,-0.5004733784970844,0.4906811837118904,-0.5673974241323724,-0.05908581592190312,-0.16024081040675378,-0.07343480542379346,-0.20809162005258666,0.010250336666319939,-0.020573006019297544,-0.606049394399283,-0.4570623535936865,-0.554898204165257,0.4674469346529886,0.5854079375370836,0.6029195304685022,-0.22020127483069254,0.2718660390248185,0.6872495398144238,-0.0003297507477109294,0.08122298177967291,-0.40676695840823535,0.1606727021450874,0.1544791102459937,0.22330272865669648,-0.560722221421743,-0.40520111985286783,0.6640025114012261,0.008150579355696139,0.07199828265993061,-0.18204201364819092,0.008068672242185444,-0.13230692671286987,-0.286782162106772,-1.0137619129901496,0.2982378797685015,-0.4892389950573771,0.0023670209809004096,-0.32429811533050595,-0.4137997470205192,-0.2092435669619922,0.176172881261126,-0.16627058767289016,-0.16430350192395327,0.6957100967497096,-0.33723455466774954,-0.3081847099043123,-0.22482533720730047,-0.4797450522013762,-0.9641897816592763,-0.41098122201571763,0.2686777295094532,0.00987569473264513,-0.010676191568324733,-0.15859029932143043,-0.5707089399679067,-0.04288281054814721,0.0880865641020841,-0.315380904089049,-0.5328581755084166,0.4594922708812641,-0.4200860891655143,-0.3048736779385692,-0.6906549886067664,0.38356462585129314,-0.1933269949011464,-0.42202572665695887,0.0061812458237500865,0.374958010798614,-0.08748963530159877,-0.45821220676100194,-0.02291894407449802,-0.06657312292653506,0.012732028962310571,0.43292488315381006,0.4933171965839596,0.2171580095381921,-0.30116114554114076,-0.17942338087558998,-0.2928802155173949,-0.20662010825899751,0.7792186692767865,-0.48752355449851065,0.2629603744335506,-0.6599034638136109,0.06125289859715681,0.4405031848501932,-0.7761880970497683],"bias":0.6032995641230875,"d_weights":[0.0,0.0,0.0,0.0,0.0,0.0,0.0,0.0,0.0,0.0,0.0,0.0,0.0,0.0,0.0,0.0,0.0,0.0,0.0,0.0,0.0,0.0,0.0,0.0,0.0,0.0,0.0,0.0,0.0,0.0,0.0,0.0,0.0,0.0,0.0,0.0,0.0,0.0,0.0,0.0,0.0,0.0,0.0,0.0,0.0,0.0,0.0,0.0,0.0,0.0,0.0,0.0,0.0,0.0,0.0,0.0,0.0,0.0,0.0,0.0,0.0,0.0,0.0,0.0,0.0,0.0,0.0,0.0,0.0,0.0,0.0,0.0,0.0,0.0,0.0,0.0,0.0,0.0,0.0,0.0,0.0,0.0,0.0,0.0,0.0,0.0,0.0,0.0,0.0,0.0,0.0,0.0,0.0,0.0,0.0,0.0,0.0,0.0,0.0,0.0],"d_bias":0.0,"activation":0.8802912518175948,"as_respect_z":[0.0,0.0,0.0,0.0,0.0,0.0,0.0,0.0,0.10537856379100669,0.0,0.0,0.0,0.0,0.0,0.0,0.0,0.0,0.0,0.0,0.0,0.0,0.0,0.0,0.0,0.0,0.0,0.0,0.0,0.0,0.0,0.0,0.0,0.0,0.0,0.0,0.0,0.0,0.0,0.0,0.0,0.0,0.0,0.0,0.0,0.0,0.0,0.0,0.0,0.0,0.0,0.0,0.0,0.0,0.0,0.0,0.0,0.0,0.0,0.0,0.0,0.0,0.0,0.0,0.0,0.0,0.0,0.0,0.0,0.0,0.0,0.0,0.0,0.0,0.0,0.0,0.0,0.0,0.0,0.0,0.0,0.0,0.0,0.0,0.0,0.0,0.0,0.0,0.0,0.0,0.0,0.0,0.0,0.0,0.0,0.0,0.0,0.0,0.0,0.0,0.0]},{"weights":[-0.4015323340132402,0.15202108730010688,-0.3161558628806627,0.1522068658463825,0.0005849165615671392,-0.36581270299564794,0.12096046869996079,1.0796419288613677,0.5656526771958463,-1.1051674345899292,-0.48799777088978635,-0.7748884513575552,-0.09967766943340038,-1.253040264294038,-0.2791583095875637,0.5823319002290013,1.3607515977737705,-0.02882760536984422,0.26983424932932526,0.25888431410369056,0.4449488736727569,0.3286875494136634,-0.20769243479359875,-0.8175317849430098,-0.48005561145605263,0.12242946504418238,-0.1315229145522347,0.7892891521262433,-0.2908770033132609,-0.02634398570441541,0.026182628077147507,0.4298162585256846,0.39686743271945546,0.46682853599390883,0.40121102647828344,0.16464247969976595,1.249975471730897,0.11378279546626265,0.16398099343240036,0.8741100958927998,0.17118408763754564,0.5621519904996654,-0.21402484142844683,0.027095161985926146,0.9583933224784342,-1.1662579339573957,0.015137718796627534,-0.1574857129743473,-1.2382893406793145,-0.04368047947092279,0.6710980791544456,0.5146278893400855,-0.24645753278979562,-0.07882421808315122,0.7018472623328311,-0.5489247920727777,-0.11498166460153414,-0.5540818254023808,-0.2716687884197159,0.887243224138992,0.6743642362803485,-0.01191154266162408,-0.5084748505059867,1.6096546055200331,-0.1327676308868595,0.06914076741832718,-0.23463436655365852,-0.707512683714348,0.4791445560844836,-0.15664300830417294,-0.028659566156107635,-0.2641736193404075,0.2362521643100203,-0.5459486098907751,-0.5106314786355475,-0.4554093240274303,-0.6682474479543471,-0.40381122305340833,0.18120683233143126,0.6457053311500326,-0.6661726839458569,-0.06713189806174538,-0.056457763049746076,0.2564437679865826,0.31629004952336076,-0.1375925424573368,-0.2756912116426207,-0.7377504749496898,-0.21778145722239026,1.0406973168137341,0.06038702806880693,0.804822635824962,-0.1320741573423768,-0.1981127750606161,-0.4646771764830528,-0.678555551339289,-0.3120537729280984,-0.3301836013697487,0.9177865831084838,0.18786913880328743],"bias":0.04652592145097801,"d_weights":[0.0,0.0,0.0,0.0,0.0,0.0,0.0,0.0,0.0,0.0,0.0,0.0,0.0,0.0,0.0,0.0,0.0,0.0,0.0,0.0,0.0,0.0,0.0,0.0,0.0,0.0,0.0,0.0,0.0,0.0,0.0,0.0,0.0,0.0,0.0,0.0,0.0,0.0,0.0,0.0,0.0,0.0,0.0,0.0,0.0,0.0,0.0,0.0,0.0,0.0,0.0,0.0,0.0,0.0,0.0,0.0,0.0,0.0,0.0,0.0,0.0,0.0,0.0,0.0,0.0,0.0,0.0,0.0,0.0,0.0,0.0,0.0,0.0,0.0,0.0,0.0,0.0,0.0,0.0,0.0,0.0,0.0,0.0,0.0,0.0,0.0,0.0,0.0,0.0,0.0,0.0,0.0,0.0,0.0,0.0,0.0,0.0,0.0,0.0,0.0],"d_bias":0.0,"activation":0.10521498481797528,"as_respect_z":[0.0,0.0,0.0,0.0,0.0,0.0,0.0,0.0,0.0,0.09414479178772851,0.0,0.0,0.0,0.0,0.0,0.0,0.0,0.0,0.0,0.0,0.0,0.0,0.0,0.0,0.0,0.0,0.0,0.0,0.0,0.0,0.0,0.0,0.0,0.0,0.0,0.0,0.0,0.0,0.0,0.0,0.0,0.0,0.0,0.0,0.0,0.0,0.0,0.0,0.0,0.0,0.0,0.0,0.0,0.0,0.0,0.0,0.0,0.0,0.0,0.0,0.0,0.0,0.0,0.0,0.0,0.0,0.0,0.0,0.0,0.0,0.0,0.0,0.0,0.0,0.0,0.0,0.0,0.0,0.0,0.0,0.0,0.0,0.0,0.0,0.0,0.0,0.0,0.0,0.0,0.0,0.0,0.0,0.0,0.0,0.0,0.0,0.0,0.0,0.0,0.0]},{"weights":[-0.07065959506683529,-0.22635846269818938,0.16060163241902375,-0.7864097118378316,0.1259550025235981,-0.21223835079300388,0.10785990122963568,0.02992182535187447,0.08193532117585595,0.29911525366824554,-1.0844239358026906,0.590196072458724,-0.7801050888707277,0.05134725627164526,0.21115028135244485,0.7161081258753339,0.20955441260321928,0.06716940665279111,0.030188572960441903,-0.32086147641766277,0.09922095185613308,0.13575908016705981,0.5926808082376173,0.13551099871632455,0.011250532477960571,-0.09893919635200712,0.08064187459874436,0.022697105789760717,-0.31866214452280417,-0.14666805877179348,-0.14280512680456758,-0.35052861964015325,-0.2890201808819702,-0.6694170795738068,0.5410933698195974,-0.13523655312262114,-0.439718920822936,0.6581245335731246,-0.3222681955632811,0.12943130339878256,0.4102923489557573,-0.3489605553725677,0.0005579583504110299,-0.22974850073510097,-0.2942848225998359,0.15730410761648797,0.08482202177648755,0.016097479693461432,0.1787026714522262,-0.3881887741179462,-0.2998396783580626,0.8625749753622045,-0.09049546028237418,0.06990381206478272,-0.3663822030180288,0.5975097873693527,0.11510810825304241,0.3964317136503239,-0.4502223561079863,-0.05688015773408079,0.10522964958872057,-0.42276995382125176,-0.6083429945733263,-0.16852888138333036,0.31885818799056254,-0.025272310422519192,0.3839152056677043,0.4132483186437684,-0.11343458504293964,-0.356358399320449,0.20383213183814688,-0.2928550891514331,-0.819626447553928,-0.342929485213078,-0.2669776044854887,-0.09860922838684652,0.8273985395901026,0.17622688126489666,-0.5483245063819895,-0.4833852622693819,0.41402665953571066,0.3330146272332599,0.6287730719726325,-0.35740763378439133,-0.06989045523190363,0.020613971244799325,0.3579781853654506,0.37512677341615247,-0.045662033771704094,0.16027827781468157,-0.07472490410867166,-0.39467350520608546,0.0654877635162993,0.2404428448080153,-0.20277964219384487,0.4131015664616603,-0.38930210397356924,-0.3184547646565178,-0.38648289322294166,-0.07790778086375082],"bias":-1.2976586866267181,"d_weights":[0.0,0.0,0.0,0.0,0.0,0.0,0.0,0.0,0.0,0.0,0.0,0.0,0.0,0.0,0.0,0.0,0.0,0.0,0.0,0.0,0.0,0.0,0.0,0.0,0.0,0.0,0.0,0.0,0.0,0.0,0.0,0.0,0.0,0.0,0.0,0.0,0.0,0.0,0.0,0.0,0.0,0.0,0.0,0.0,0.0,0.0,0.0,0.0,0.0,0.0,0.0,0.0,0.0,0.0,0.0,0.0,0.0,0.0,0.0,0.0,0.0,0.0,0.0,0.0,0.0,0.0,0.0,0.0,0.0,0.0,0.0,0.0,0.0,0.0,0.0,0.0,0.0,0.0,0.0,0.0,0.0,0.0,0.0,0.0,0.0,0.0,0.0,0.0,0.0,0.0,0.0,0.0,0.0,0.0,0.0,0.0,0.0,0.0,0.0,0.0],"d_bias":0.0,"activation":0.6089596042594821,"as_respect_z":[0.0,0.0,0.0,0.0,0.0,0.0,0.0,0.0,0.0,0.0,0.23812780463961705,0.0,0.0,0.0,0.0,0.0,0.0,0.0,0.0,0.0,0.0,0.0,0.0,0.0,0.0,0.0,0.0,0.0,0.0,0.0,0.0,0.0,0.0,0.0,0.0,0.0,0.0,0.0,0.0,0.0,0.0,0.0,0.0,0.0,0.0,0.0,0.0,0.0,0.0,0.0,0.0,0.0,0.0,0.0,0.0,0.0,0.0,0.0,0.0,0.0,0.0,0.0,0.0,0.0,0.0,0.0,0.0,0.0,0.0,0.0,0.0,0.0,0.0,0.0,0.0,0.0,0.0,0.0,0.0,0.0,0.0,0.0,0.0,0.0,0.0,0.0,0.0,0.0,0.0,0.0,0.0,0.0,0.0,0.0,0.0,0.0,0.0,0.0,0.0,0.0]},{"weights":[-0.714769050343244,-0.8311201638290311,0.9517469668422167,-0.2540481874218952,-0.6210105917581195,0.47774065060278437,0.4617377965277771,-0.1490104937943072,-0.5807117081924392,-0.15926836629704444,-0.01662134955676068,0.20204730950695646,-0.23180448981564436,0.029219820824054277,0.3347358470796065,0.22973142303412356,-0.3845849355289132,0.33578607826898776,0.10432762266619529,-0.9626680776191017,-0.619435097720886,-0.43654130381508904,-0.07429039117337632,-0.4339218823786582,-0.14481248344584627,-0.11631931072644165,0.44948064729334597,-0.33177974312558656,-0.2882153445701987,0.5035327177417324,-0.03232099548259152,-0.689858650645828,0.6614017621762528,-0.5394073670818581,0.043912481462487704,0.5818885824174872,-0.5211280997965597,-0.27944596241993674,-0.40063173916607203,-0.4409667010746439,0.23249902031578554,0.02997996402116928,0.07763313789296704,-0.4867192330228915,0.42261371912667284,0.3762114858831093,0.02189646665069688,0.7519644095366922,-0.38291754204006934,-0.09748593007675084,-0.13740825297548856,-0.48397654003567625,-0.25001817648227437,1.222284361696519,-0.42420840787191244,0.08413150201298028,0.1484627214408957,0.042130200629256806,-0.46993205630663,0.13307493597504516,0.3274285151388314,-0.28322179675363646,0.028222446269676266,-0.33566516297444543,0.6665584007934456,-0.36854902039850734,-0.05487897383218435,-0.4898146763275917,-0.6562036582146039,0.375025413136921,-0.28468344283120445,0.22456825297586264,-0.2040536923795549,-0.9625122377017187,-0.02896818392435435,0.08934752103278479,0.3812198983813233,0.4894336266390116,-1.2162060971350432,0.4094357176377703,0.10332046489348552,-0.01347360261694321,-0.4388492733771306,-0.5191251417802852,-0.1234321800631601,0.7485741771706157,0.5965434866442004,-0.06972742833370763,-0.06486292906531842,0.018812387680247247,-0.20877722846161137,-0.4418216805614646,0.10162746885666217,0.7925374244557857,-0.46059792555564305,0.11405411538931774,0.20991524679147294,-0.23635981181928126,0.24848441186283612,-0.5332526037812682],"bias":0.4729051701374109,"d_weights":[0.0,0.0,0.0,0.0,0.0,0.0,0.0,0.0,0.0,0.0,0.0,0.0,0.0,0.0,0.0,0.0,0.0,0.0,0.0,0.0,0.0,0.0,0.0,0.0,0.0,0.0,0.0,0.0,0.0,0.0,0.0,0.0,0.0,0.0,0.0,0.0,0.0,0.0,0.0,0.0,0.0,0.0,0.0,0.0,0.0,0.0,0.0,0.0,0.0,0.0,0.0,0.0,0.0,0.0,0.0,0.0,0.0,0.0,0.0,0.0,0.0,0.0,0.0,0.0,0.0,0.0,0.0,0.0,0.0,0.0,0.0,0.0,0.0,0.0,0.0,0.0,0.0,0.0,0.0,0.0,0.0,0.0,0.0,0.0,0.0,0.0,0.0,0.0,0.0,0.0,0.0,0.0,0.0,0.0,0.0,0.0,0.0,0.0,0.0,0.0],"d_bias":0.0,"activation":0.8654891999367043,"as_respect_z":[0.0,0.0,0.0,0.0,0.0,0.0,0.0,0.0,0.0,0.0,0.0,0.11641764472962782,0.0,0.0,0.0,0.0,0.0,0.0,0.0,0.0,0.0,0.0,0.0,0.0,0.0,0.0,0.0,0.0,0.0,0.0,0.0,0.0,0.0,0.0,0.0,0.0,0.0,0.0,0.0,0.0,0.0,0.0,0.0,0.0,0.0,0.0,0.0,0.0,0.0,0.0,0.0,0.0,0.0,0.0,0.0,0.0,0.0,0.0,0.0,0.0,0.0,0.0,0.0,0.0,0.0,0.0,0.0,0.0,0.0,0.0,0.0,0.0,0.0,0.0,0.0,0.0,0.0,0.0,0.0,0.0,0.0,0.0,0.0,0.0,0.0,0.0,0.0,0.0,0.0,0.0,0.0,0.0,0.0,0.0,0.0,0.0,0.0,0.0,0.0,0.0]},{"weights":[-0.2512894476919523,-0.3664144092032573,-0.025096246241280293,-0.3062992312714162,-0.1881323504850006,-0.10732523821908727,-0.39849906795314227,0.1301356316263364,-0.10746587347493287,-0.36762678993219927,-0.28568512624725345,-0.3129561908666265,-0.02380959715273611,0.08216311895472243,0.169575626572182,-0.6243930849319772,-0.24006089883545692,0.21384544802648614,-0.3097576444714481,0.582934881057054,-0.07169882206602268,-0.2193636736997603,-0.30061637929090923,0.22052148513790543,-0.0821578370740288,0.44934250476464954,-0.03078468430939743,0.3811436476669698,0.10049990188184212,-0.6227546095757361,-0.24822840643081664,0.04765871240489984,0.9237749368939042,0.5019431188166655,0.42385256696314705,-0.307674949304881,-0.35671456632848414,-0.12131402477119714,0.06632658424321008,0.4333372314282423,-0.21774160949977459,-0.36988987321165684,-0.26377831842233707,-0.5227895259565901,-0.15403485274257714,-0.01947096028695841,0.024313921160624554,0.46363800590705356,-0.2602809215845412,0.0826844572845214,-0.23909007977688074,0.09660837936356491,0.3623312101277421,-0.48955232213882194,-0.17052342270418225,-0.5571888657828191,-0.2259311537578589,-0.020955688853405142,0.1874579932119593,-0.2438680527863124,-0.3180615899776607,0.3489350635775235,-0.2643286362335001,0.2388326120613336,-0.5275354529000349,-0.2933601221125059,-0.5331463449171444,-0.1308832260008324,0.37656054112418,-0.7311475135264782,-0.1217662849962203,0.08242209821590694,0.4949179520808811,-0.22263637832961303,-0.07352581277232315,0.20284481959464312,-0.5915207104920124,-0.2575382116482144,0.25470462716475634,0.023096447049807817,0.20286697016326885,-0.41281013416181833,-0.12890703822364877,-0.09148559574290853,-0.270373512228943,-0.6989539815062129,-0.2482335376375753,0.3198857242825934,-0.5493649081513119,-0.4044068982288704,-0.14500045115068536,-0.15631897804690154,0.06056324134007666,0.24828242818551263,-0.0547643795592328,0.21722534350294334,0.11035554204313103,0.1113561941032573,-0.1837964674639103,0.546495366347159],"bias":-0.44643122710795113,"d_weights":[0.0,0.0,0.0,0.0,0.0,0.0,0.0,0.0,0.0,0.0,0.0,0.0,0.0,0.0,0.0,0.0,0.0,0.0,0.0,0.0,0.0,0.0,0.0,0.0,0.0,0.0,0.0,0.0,0.0,0.0,0.0,0.0,0.0,0.0,0.0,0.0,0.0,0.0,0.0,0.0,0.0,0.0,0.0,0.0,0.0,0.0,0.0,0.0,0.0,0.0,0.0,0.0,0.0,0.0,0.0,0.0,0.0,0.0,0.0,0.0,0.0,0.0,0.0,0.0,0.0,0.0,0.0,0.0,0.0,0.0,0.0,0.0,0.0,0.0,0.0,0.0,0.0,0.0,0.0,0.0,0.0,0.0,0.0,0.0,0.0,0.0,0.0,0.0,0.0,0.0,0.0,0.0,0.0,0.0,0.0,0.0,0.0,0.0,0.0,0.0],"d_bias":0.0,"activation":0.005494351940968657,"as_respect_z":[0.0,0.0,0.0,0.0,0.0,0.0,0.0,0.0,0.0,0.0,0.0,0.0,0.00546416403771743,0.0,0.0,0.0,0.0,0.0,0.0,0.0,0.0,0.0,0.0,0.0,0.0,0.0,0.0,0.0,0.0,0.0,0.0,0.0,0.0,0.0,0.0,0.0,0.0,0.0,0.0,0.0,0.0,0.0,0.0,0.0,0.0,0.0,0.0,0.0,0.0,0.0,0.0,0.0,0.0,0.0,0.0,0.0,0.0,0.0,0.0,0.0,0.0,0.0,0.0,0.0,0.0,0.0,0.0,0.0,0.0,0.0,0.0,0.0,0.0,0.0,0.0,0.0,0.0,0.0,0.0,0.0,0.0,0.0,0.0,0.0,0.0,0.0,0.0,0.0,0.0,0.0,0.0,0.0,0.0,0.0,0.0,0.0,0.0,0.0,0.0,0.0]},{"weights":[-0.143658332069396,-0.09391697063137248,0.011107209959614771,0.0044245774928887,-0.05262344193376775,0.016246852983339978,-0.061023150726803,0.1912667314954142,0.0226008040572338,-0.081865811738849,-0.07088351685878312,0.04479362839170352,-0.029919070108332172,-0.12211249229230169,-0.04014501661751878,0.09230774719762559,-0.058062893504653795,-0.03472660142085056,-0.0345095086471858,-0.003445396628354417,-0.08543177503407058,-0.07794168663011017,-0.13198034982867415,-0.07844034497144502,-0.09285206985287053,-0.08482470137524428,-0.1096892437065796,0.0395827333968665,-0.03329942055216204,0.0013156366938138167,-0.013099392684173674,0.009331708560617743,-0.04171919788760723,0.07132822453616994,-0.15268058898437378,-0.017702702484317635,-0.03964451023069877,-0.02385160740150169,0.0030098756668963025,-0.07282019081632791,-0.025539699901604894,0.02818569903557249,-0.014814905698137041,-0.07735928086748925,0.03329461514715285,-0.055141695794196414,0.07458379989578139,0.0701712044426053,-0.09191535536447495,-0.010968894288943879,-0.022332567904974097,